{"learner":{"attributes":{"scikit_learn":"{\"_estimator_type\": \"classifier\"}"},"feature_names":[],"feature_types":[],"gradient_booster":{"model":{"gbtree_model_param":{"num_parallel_tree":"1","num_trees":"100"},"iteration_indptr":[0,1,2,3,4,5,6,7,8,9,10,11,12,13,14,15,16,17,18,19,20,21,22,23,24,25,26,27,28,29,30,31,32,33,34,35,36,37,38,39,40,41,42,43,44,45,46,47,48,49,50,51,52,53,54,55,56,57,58,59,60,61,62,63,64,65,66,67,68,69,70,71,72,73,74,75,76,77,78,79,80,81,82,83,84,85,86,87,88,89,90,91,92,93,94,95,96,97,98,99,100],"tree_info":[0,0,0,0,0,0,0,0,0,0,0,0,0,0,0,0,0,0,0,0,0,0,0,0,0,0,0,0,0,0,0,0,0,0,0,0,0,0,0,0,0,0,0,0,0,0,0,0,0,0,0,0,0,0,0,0,0,0,0,0,0,0,0,0,0,0,0,0,0,0,0,0,0,0,0,0,0,0,0,0,0,0,0,0,0,0,0,0,0,0,0,0,0,0,0,0,0,0,0,0],"trees":[{"base_weights":[-2.4785567E-7,-6.4457715E-1,1.3328521E0,-1.040496E0,7.6860875E-1,1.5939792E0,1.4181447E-1,-1.3772627E0,1.0086956E0,4.0290135E-1,-3.3141276E-1,5.1944035E-1,6.859468E-2,-2.379239E-1,3.352663E-1,-1.6603583E0,2.5867683E-1,6.859468E-2,3.8403338E-1,-1.7538806E0,-6.474113E-2,-2.379239E-1,3.6208814E-1,-5.574325E-1,-1.6143282E-1],"categories":[],"categories_nodes":[],"categories_segments":[],"categories_sizes":[],"default_left":[0,0,0,0,0,0,0,0,0,0,0,0,0,0,0,0,0,0,0,0,0,0,0,0,0],"id":0,"left_children":[1,3,5,7,9,11,13,15,17,-1,-1,-1,-1,-1,-1,19,21,-1,-1,23,-1,-1,-1,-1,-1],"loss_changes":[3.88742E1,1.7864147E1,4.3612423E0,1.8123617E1,9.284592E0,1.8566418E0,4.307026E0,1.0270634E1,5.541496E-1,0E0,0E0,0E0,0E0,0E0,0E0,2.0869675E0,4.946569E0,0E0,0E0,1.1542511E0,0E0,0E0,0E0,0E0,0E0],"parents":[2147483647,0,0,1,1,2,2,3,3,4,4,5,5,6,6,7,7,8,8,15,15,16,16,19,19],"right_children":[2,4,6,8,10,12,14,16,18,-1,-1,-1,-1,-1,-1,20,22,-1,-1,24,-1,-1,-1,-1,-1],"split_conditions":[1.1337036E0,1.4954937E0,1.6326947E0,1.6625477E0,1.9810015E0,1.4213856E0,6.157605E-1,1.3523928E0,1.2078116E0,4.0290135E-1,-3.3141276E-1,5.1944035E-1,6.859468E-2,-2.379239E-1,3.352663E-1,1.7578579E0,1.1700712E0,6.859468E-2,3.8403338E-1,1.5755364E0,-6.474113E-2,-2.379239E-1,3.6208814E-1,-5.574325E-1,-1.6143282E-1],"split_indices":[3,33,73,72,97,14,63,38,35,0,0,0,0,0,0,41,17,0,0,4,0,0,0,0,0],"split_type":[0,0,0,0,0,0,0,0,0,0,0,0,0,0,0,0,0,0,0,0,0,0,0,0,0],"sum_hessian":[4.3248554E1,2.9499014E1,1.374954E1,2.3249222E1,6.249791E0,1.0999632E1,2.749908E0,2.0249323E1,2.9998996E0,4.9998326E0,1.2499582E0,9.749674E0,1.2499582E0,1.4999498E0,1.2499582E0,1.7249424E1,2.9998996E0,1.2499582E0,1.7499415E0,1.5999465E1,1.2499582E0,1.4999498E0,1.4999498E0,1.4249523E1,1.7499415E0],"tree_param":{"num_deleted":"0","num_feature":"100","num_nodes":"25","size_leaf_vector":"1"}},{"base_weights":[1.1250888E-2,-4.847734E-1,1.0327005E0,-7.852305E-1,5.6813514E-1,1.2355443E0,1.2752323E-1,-1.0638454E0,8.3365816E-1,3.1313583E-1,-2.8123102E-1,4.3460864E-1,3.7465727E-1,-1.9714597E-1,2.8390938E-1,-1.2740823E0,3.3723494E-1,4.6983954E-2,3.260609E-1,-1.2274275E-1,2.8091556E-1,-1.3543952E0,-2.790598E-2,-1.400145E-1,2.9358608E-1,-4.307087E-1,-9.418846E-2],"categories":[],"categories_nodes":[],"categories_segments":[],"categories_sizes":[],"default_left":[0,0,0,0,0,0,0,0,0,0,0,0,0,0,0,0,0,0,0,0,0,0,0,0,0,0,0],"id":1,"left_children":[1,3,5,7,9,11,13,15,17,-1,-1,-1,19,-1,-1,21,23,-1,-1,-1,-1,25,-1,-1,-1,-1,-1],"loss_changes":[2.1846895E1,9.63303E0,2.4296885E0,1.1266678E1,6.010918E0,1.5484486E0,2.9958565E0,6.342354E0,5.051801E-1,0E0,0E0,0E0,1.9727616E0,0E0,0E0,1.5494556E0,2.2149408E0,0E0,0E0,0E0,0E0,9.4197655E-1,0E0,0E0,0E0,0E0,0E0],"parents":[2147483647,0,0,1,1,2,2,3,3,4,4,5,5,6,6,7,7,8,8,12,12,15,15,16,16,21,21],"right_children":[2,4,6,8,10,12,14,16,18,-1,-1,-1,20,-1,-1,22,24,-1,-1,-1,-1,26,-1,-1,-1,-1,-1],"split_conditions":[1.1337036E0,1.4954937E0,1.6326947E0,1.6625477E0,1.9810015E0,1.4454832E0,6.157605E-1,1.1337036E0,3.3250954E0,3.1313583E-1,-2.8123102E-1,4.3460864E-1,1.3978552E0,-1.9714597E-1,2.8390938E-1,2.068013E0,1.1700712E0,4.6983954E-2,3.260609E-1,-1.2274275E-1,2.8091556E-1,1.3523928E0,-2.790598E-2,-1.400145E-1,2.9358608E-1,-4.307087E-1,-9.418846E-2],"split_indices":[3,33,73,72,97,37,63,56,72,0,0,0,12,0,0,20,17,0,0,0,0,38,0,0,0,0,0],"split_type":[0,0,0,0,0,0,0,0,0,0,0,0,0,0,0,0,0,0,0,0,0,0,0,0,0,0,0],"sum_hessian":[4.113103E1,2.8039991E1,1.3091042E1,2.2012693E1,6.027297E0,1.0396325E1,2.694717E0,1.907303E1,2.9396634E0,4.813348E0,1.2139492E0,7.785806E0,2.6105185E0,1.4768989E0,1.217818E0,1.666329E1,2.4097404E0,1.2407129E0,1.6989506E0,1.2032351E0,1.4072832E0,1.5464908E1,1.1983824E0,1.1902031E0,1.2195374E0,1.3991684E1,1.4732243E0],"tree_param":{"num_deleted":"0","num_feature":"100","num_nodes":"27","size_leaf_vector":"1"}},{"base_weights":[2.4328645E-2,-3.849786E-1,8.6407024E-1,-6.040926E-1,7.3073065E-1,1.0379808E0,3.0215735E-2,-8.072718E-1,3.9435688E-1,3.1697553E-1,5.2060027E-2,1.160472E0,3.1032017E-2,-8.3777845E-2,1.0111875E-1,-9.540824E-1,2.4413706E-1,-4.3164987E-2,2.7887908E-1,3.8983455E-1,5.371008E-2,-1.050681E0,8.597937E-2,-3.42301E-1,-3.995032E-2],"categories":[],"categories_nodes":[],"categories_segments":[],"categories_sizes":[],"default_left":[0,0,0,0,0,0,0,0,0,0,0,0,0,0,0,0,0,0,0,0,0,0,0,0,0],"id":2,"left_children":[1,3,5,7,9,11,13,15,17,-1,-1,19,-1,-1,-1,21,-1,-1,-1,-1,-1,23,-1,-1,-1],"loss_changes":[1.3476857E1,6.895859E0,1.8306293E0,4.9062243E0,6.8570995E-1,1.0927029E0,4.0235108E-1,5.326701E0,1.4289346E0,0E0,0E0,1.0315619E0,0E0,0E0,0E0,2.4574585E0,0E0,0E0,0E0,0E0,0E0,1.2491646E0,0E0,0E0,0E0],"parents":[2147483647,0,0,1,1,2,2,3,3,4,4,5,5,6,6,7,7,8,8,11,11,15,15,21,21],"right_children":[2,4,6,8,10,12,14,16,18,-1,-1,20,-1,-1,-1,22,-1,-1,-1,-1,-1,24,-1,-1,-1],"split_conditions":[1.1337036E0,2.023561E0,1.8632184E0,1.3523928E0,6.157605E-1,1.2078116E0,1.1700712E0,3.3250954E0,1.1700712E0,3.1697553E-1,5.2060027E-2,2.068013E0,3.1032017E-2,-8.3777845E-2,1.0111875E-1,2.114533E0,2.4413706E-1,-4.3164987E-2,2.7887908E-1,3.8983455E-1,5.371008E-2,1.8632184E0,8.597937E-2,-3.42301E-1,-3.995032E-2],"split_indices":[3,85,47,38,63,35,17,72,17,0,0,20,0,0,0,0,0,0,0,0,0,47,0,0,0],"split_type":[0,0,0,0,0,0,0,0,0,0,0,0,0,0,0,0,0,0,0,0,0,0,0,0,0],"sum_hessian":[3.724189E1,2.540199E1,1.1839899E1,2.1615484E1,3.7865057E0,9.594128E0,2.2457712E0,1.8119698E1,3.4957876E0,1.823724E0,1.9627817E0,8.268598E0,1.32553E0,1.162858E0,1.0829133E0,1.699225E1,1.1274481E0,2.107577E0,1.3882105E0,6.959127E0,1.3094704E0,1.590689E1,1.0853596E0,1.425956E1,1.64733E0],"tree_param":{"num_deleted":"0","num_feature":"100","num_nodes":"25","size_leaf_vector":"1"}},{"base_weights":[4.7642946E-2,-3.0858466E-1,7.357302E-1,-5.115476E-1,7.236755E-1,9.8245955E-1,-1.1157191E-1,-7.640939E-1,3.4261006E-1,2.8750426E-1,3.014501E-2,1.1615242E0,-5.489985E-2,-8.720391E-1,1.1817769E-1,-2.3341815E-1,2.7841827E-1,3.978747E-1,4.075861E-2,-1.0029333E0,-4.8195273E-2,-1.6822018E-1,7.090071E-2,-3.3414984E-1,-3.1183636E-2,-1.20214574E-1,9.770215E-2],"categories":[],"categories_nodes":[],"categories_segments":[],"categories_sizes":[],"default_left":[0,0,0,0,0,0,0,0,0,0,0,0,0,0,0,0,0,0,0,0,0,0,0,0,0,0,0],"id":3,"left_children":[1,3,5,7,9,11,-1,13,15,-1,-1,17,-1,19,-1,21,-1,-1,-1,23,25,-1,-1,-1,-1,-1,-1],"loss_changes":[8.782839E0,5.3362513E0,3.7000337E0,4.6611223E0,5.338547E-1,2.3524399E0,0E0,2.349803E0,2.018927E0,0E0,0E0,1.3444777E0,0E0,1.568408E0,0E0,6.695786E-1,0E0,0E0,0E0,1.1689835E0,5.398561E-1,0E0,0E0,0E0,0E0,0E0,0E0],"parents":[2147483647,0,0,1,1,2,2,3,3,4,4,5,5,7,7,8,8,11,11,13,13,15,15,19,19,20,20],"right_children":[2,4,6,8,10,12,-1,14,16,-1,-1,18,-1,20,-1,22,-1,-1,-1,24,26,-1,-1,-1,-1,-1,-1],"split_conditions":[1.1337036E0,1.6625477E0,2.3864665E0,1.3748657E0,1.0319209E0,2.114533E0,-1.1157191E-1,1.6326947E0,1.4954937E0,2.8750426E-1,3.014501E-2,1.6625477E0,-5.489985E-2,1.7578579E0,1.1817769E-1,1.1700712E0,2.7841827E-1,3.978747E-1,4.075861E-2,2.023561E0,1.0986123E0,-1.6822018E-1,7.090071E-2,-3.3414984E-1,-3.1183636E-2,-1.20214574E-1,9.770215E-2],"split_indices":[56,72,13,5,9,19,0,60,33,0,0,15,0,43,0,17,0,0,0,7,44,0,0,0,0,0,0],"split_type":[0,0,0,0,0,0,0,0,0,0,0,0,0,0,0,0,0,0,0,0,0,0,0,0,0,0,0],"sum_hessian":[3.3905167E1,2.2703129E1,1.1202038E1,1.9394268E1,3.3088613E0,9.25375E0,1.9482878E0,1.5049939E1,4.344329E0,2.0130239E0,1.2958374E0,8.024255E0,1.2294946E0,1.3992573E1,1.0573659E0,2.4928763E0,1.8514526E0,6.661353E0,1.362902E0,1.1886617E1,2.1059566E0,1.3550361E0,1.1378402E0,1.0368562E1,1.5180544E0,1.0469677E0,1.0589888E0],"tree_param":{"num_deleted":"0","num_feature":"100","num_nodes":"27","size_leaf_vector":"1"}},{"base_weights":[5.379123E-2,-2.3677784E-1,6.99759E-1,-4.7507164E-1,3.9955086E-1,2.5219902E-1,3.1687894E-1,-6.055609E-1,2.1564627E-1,7.4774617E-1,-1.3906944E-1,6.5298796E-1,-2.2591633E-1,-2.1667324E-1,-3.3059853E-1,2.962508E-1,-3.6275305E-2,2.6346466E-1,-3.5365878E-3,-4.7748426E-1,2.521628E-1,-2.1423222E-1,1.4637762E-1],"categories":[],"categories_nodes":[],"categories_segments":[],"categories_sizes":[],"default_left":[0,0,0,0,0,0,0,0,0,0,0,0,0,0,0,0,0,0,0,0,0,0,0],"id":4,"left_children":[1,3,5,7,9,11,-1,13,-1,15,-1,17,-1,19,-1,-1,-1,-1,-1,21,-1,-1,-1],"loss_changes":[6.170596E0,3.649115E0,1.3577008E0,3.0922594E0,2.3778753E0,2.8392727E0,0E0,2.8341508E0,0E0,1.202122E0,0E0,7.1427274E-1,0E0,3.2055876E0,0E0,0E0,0E0,0E0,0E0,2.3576322E0,0E0,0E0,0E0],"parents":[2147483647,0,0,1,1,2,2,3,3,4,4,5,5,7,7,9,9,11,11,13,13,19,19],"right_children":[2,4,6,8,10,12,-1,14,-1,16,-1,18,-1,20,-1,-1,-1,-1,-1,22,-1,-1,-1],"split_conditions":[1.2078116E0,1.1337036E0,1.1337036E0,2.4156232E0,1.6326947E0,1.4454832E0,3.1687894E-1,1.2078116E0,2.1564627E-1,1.7578579E0,-1.3906944E-1,1.7578579E0,-2.2591633E-1,1.1337036E0,-3.3059853E-1,2.962508E-1,-3.6275305E-2,2.6346466E-1,-3.5365878E-3,2.3864665E0,2.521628E-1,-2.1423222E-1,1.4637762E-1],"split_indices":[91,3,56,87,73,37,0,87,0,83,0,43,0,56,0,0,0,0,0,71,0,0,0],"split_type":[0,0,0,0,0,0,0,0,0,0,0,0,0,0,0,0,0,0,0,0,0,0,0],"sum_hessian":[3.0992352E1,2.181361E1,9.1787405E0,1.6054794E1,5.758817E0,4.826682E0,4.3520584E0,1.4917171E1,1.1376227E0,4.1986694E0,1.5601475E0,3.7013853E0,1.1252971E0,9.170113E0,5.7470584E0,3.1832633E0,1.0154063E0,2.5248818E0,1.1765033E0,7.79538E0,1.3747326E0,6.4699044E0,1.3254756E0],"tree_param":{"num_deleted":"0","num_feature":"100","num_nodes":"23","size_leaf_vector":"1"}},{"base_weights":[6.0776383E-2,-2.0008194E-1,5.863141E-1,-4.2158687E-1,4.4609457E-1,7.3982257E-1,-7.3621154E-2,-6.0977376E-1,1.9368255E-1,2.3102333E-1,-1.4066328E-1,2.7150655E-1,4.431604E-2,-7.8077054E-1,7.775339E-2,-9.3736523E-1,4.3898527E-2,-3.2539618E-1,-5.267762E-2],"categories":[],"categories_nodes":[],"categories_segments":[],"categories_sizes":[],"default_left":[0,0,0,0,0,0,0,0,0,0,0,0,0,0,0,0,0,0,0],"id":5,"left_children":[1,3,5,7,9,11,-1,13,-1,-1,-1,-1,-1,15,-1,17,-1,-1,-1],"loss_changes":[4.03956E0,3.0314598E0,1.4257483E0,3.4680896E0,2.0084379E0,6.9535637E-1,0E0,2.2124367E0,0E0,0E0,0E0,0E0,0E0,1.814374E0,0E0,9.33609E-1,0E0,0E0,0E0],"parents":[2147483647,0,0,1,1,2,2,3,3,4,4,5,5,7,7,13,13,15,15],"right_children":[2,4,6,8,10,12,-1,14,-1,-1,-1,-1,-1,16,-1,18,-1,-1,-1],"split_conditions":[1.1337036E0,1.4954937E0,1.4213856E0,1.6326947E0,1.8632184E0,1.6326947E0,-7.3621154E-2,2.023561E0,1.9368255E-1,2.3102333E-1,-1.4066328E-1,2.7150655E-1,4.431604E-2,1.7578579E0,7.775339E-2,1.3978552E0,4.3898527E-2,-3.2539618E-1,-5.267762E-2],"split_indices":[3,33,14,60,11,73,0,85,0,0,0,0,0,43,0,12,0,0,0],"split_type":[0,0,0,0,0,0,0,0,0,0,0,0,0,0,0,0,0,0,0],"sum_hessian":[2.7610573E1,1.8865625E1,8.744947E0,1.4308378E1,4.557247E0,7.4756675E0,1.26928E0,1.2527863E1,1.7805153E0,3.4824896E0,1.0747577E0,5.4317083E0,2.0439591E0,1.0552723E1,1.9751394E0,9.018372E0,1.5343513E0,7.2020106E0,1.8163613E0],"tree_param":{"num_deleted":"0","num_feature":"100","num_nodes":"19","size_leaf_vector":"1"}},{"base_weights":[5.4615933E-2,2.4686469E-1,-5.1635355E-1,-5.8103446E-4,7.246282E-1,-7.9357463E-1,1.5821911E-1,-1.9010176E-1,1.9205526E-1,2.568611E-1,3.8770124E-2,-2.838812E-1,-2.111721E-2,-3.0977002E-1,1.6164368E-1,-4.5011687E-1,9.434911E-2,-1.7825933E-1,8.594574E-2],"categories":[],"categories_nodes":[],"categories_segments":[],"categories_sizes":[],"default_left":[0,0,0,0,0,0,0,0,0,0,0,0,0,0,0,0,0,0,0],"id":6,"left_children":[1,3,5,7,9,11,-1,13,-1,-1,-1,-1,-1,15,-1,17,-1,-1,-1],"loss_changes":[2.9680157E0,2.3690696E0,2.3982139E0,1.8459654E0,4.2496705E-1,5.744493E-1,0E0,1.1899817E0,0E0,0E0,0E0,0E0,0E0,1.0798788E0,0E0,1.1418761E0,0E0,0E0,0E0],"parents":[2147483647,0,0,1,1,2,2,3,3,4,4,5,5,7,7,13,13,15,15],"right_children":[2,4,6,8,10,12,-1,14,-1,-1,-1,-1,-1,16,-1,18,-1,-1,-1],"split_conditions":[1.4213856E0,1.1700712E0,1.8632184E0,1.7578579E0,1.2078116E0,1.0986123E0,1.5821911E-1,2.023561E0,1.9205526E-1,2.568611E-1,3.8770124E-2,-2.838812E-1,-2.111721E-2,1.7578579E0,1.6164368E-1,1.5755364E0,9.434911E-2,-1.7825933E-1,8.594574E-2],"split_indices":[14,17,11,41,87,44,0,7,0,0,0,0,0,43,0,4,0,0,0],"split_type":[0,0,0,0,0,0,0,0,0,0,0,0,0,0,0,0,0,0,0],"sum_hessian":[2.4877687E1,1.9035847E1,5.8418417E0,1.3198695E1,5.8371515E0,4.8052516E0,1.03659E0,1.0728747E1,2.4699476E0,4.4219146E0,1.4152368E0,3.7128313E0,1.0924203E0,9.709699E0,1.0190485E0,8.155221E0,1.554478E0,6.982715E0,1.1725054E0],"tree_param":{"num_deleted":"0","num_feature":"100","num_nodes":"19","size_leaf_vector":"1"}},{"base_weights":[6.1326645E-2,-1.6507211E-1,4.9930412E-1,-3.3111304E-1,5.53441E-1,7.1048915E-1,-1.00166865E-1,-5.1512825E-1,3.2001263E-1,2.2309785E-1,2.2927852E-2,8.0641466E-1,3.0731373E-2,-6.9141936E-1,3.9153833E-2,-3.0404836E-2,1.9753145E-1,3.0110103E-1,4.521166E-3,-2.5049692E-1,5.281559E-2,5.100097E-2,-2.8053988E-2],"categories":[],"categories_nodes":[],"categories_segments":[],"categories_sizes":[],"default_left":[0,0,0,0,0,0,0,0,0,0,0,0,0,0,0,0,0,0,0,0,0,0,0],"id":7,"left_children":[1,3,5,7,9,11,-1,13,15,-1,-1,17,-1,19,21,-1,-1,-1,-1,-1,-1,-1,-1],"loss_changes":[2.4734912E0,2.1694171E0,1.7268345E0,1.8601104E0,2.606876E-1,3.299756E-1,0E0,1.1424301E0,5.992507E-1,0E0,0E0,9.158647E-1,0E0,1.2322259E0,8.014059E-2,0E0,0E0,0E0,0E0,0E0,0E0,0E0,0E0],"parents":[2147483647,0,0,1,1,2,2,3,3,4,4,5,5,7,7,8,8,11,11,13,13,14,14],"right_children":[2,4,6,8,10,12,-1,14,16,-1,-1,18,-1,20,22,-1,-1,-1,-1,-1,-1,-1,-1],"split_conditions":[1.1337036E0,1.6625477E0,1.8632184E0,1.3748657E0,1.0319209E0,1.8632184E0,-1.00166865E-1,1.3523928E0,1.4954937E0,2.2309785E-1,2.2927852E-2,1.3748657E0,3.0731373E-2,1.8632184E0,1.116004E0,-3.0404836E-2,1.9753145E-1,3.0110103E-1,4.521166E-3,-2.5049692E-1,5.281559E-2,5.100097E-2,-2.8053988E-2],"split_indices":[56,72,92,5,9,47,0,38,33,0,0,46,0,92,67,0,0,0,0,0,0,0,0],"split_type":[0,0,0,0,0,0,0,0,0,0,0,0,0,0,0,0,0,0,0,0,0,0,0],"sum_hessian":[2.3113844E1,1.5648134E1,7.4657097E0,1.3148761E1,2.4993732E0,6.07355E0,1.3921593E0,1.0414402E1,2.7343588E0,1.3872112E0,1.1121621E0,4.964179E0,1.1093714E0,7.7136416E0,2.7007608E0,1.5299708E0,1.204388E0,3.7589006E0,1.2052782E0,6.6504126E0,1.063229E0,1.2180111E0,1.4827497E0],"tree_param":{"num_deleted":"0","num_feature":"100","num_nodes":"23","size_leaf_vector":"1"}},{"base_weights":[6.940186E-2,-1.2142323E-1,4.8044965E-1,7.4392945E-2,-5.908581E-1,6.9530356E-1,-2.8890528E-2,2.5066212E-1,-4.876128E-1,-2.4434467E-1,3.963411E-2,2.5675523E-1,1.6675955E-2,4.1623494E-1,-1.1324925E-1,-1.5479892E-2,-2.1341732E-1,6.3048875E-1,-7.17823E-2,2.254235E-1,4.4425726E-2],"categories":[],"categories_nodes":[],"categories_segments":[],"categories_sizes":[],"default_left":[0,0,0,0,0,0,0,0,0,0,0,0,0,0,0,0,0,0,0,0,0],"id":8,"left_children":[1,3,5,7,9,11,-1,13,15,-1,-1,-1,-1,17,-1,-1,-1,19,-1,-1,-1],"loss_changes":[1.8092945E0,1.5187242E0,9.689801E-1,1.3317319E0,8.8917315E-1,5.096178E-1,0E0,1.1924784E0,2.808441E-1,0E0,0E0,0E0,0E0,1.3241048E0,0E0,0E0,0E0,2.7203822E-1,0E0,0E0,0E0],"parents":[2147483647,0,0,1,1,2,2,3,3,4,4,5,5,7,7,8,8,13,13,17,17],"right_children":[2,4,6,8,10,12,-1,14,16,-1,-1,-1,-1,18,-1,-1,-1,20,-1,-1,-1],"split_conditions":[1.2078116E0,1.4213856E0,1.7917595E0,1.4454832E0,1.0986123E0,1.2078116E0,-2.8890528E-2,1.7578579E0,4.3166748E-1,-2.4434467E-1,3.963411E-2,2.5675523E-1,1.6675955E-2,1.8632184E0,-1.1324925E-1,-1.5479892E-2,-2.1341732E-1,1.3748657E0,-7.17823E-2,2.254235E-1,4.4425726E-2],"split_indices":[91,14,76,37,44,35,0,49,88,0,0,0,0,92,0,0,0,46,0,0,0],"split_type":[0,0,0,0,0,0,0,0,0,0,0,0,0,0,0,0,0,0,0,0,0],"sum_hessian":[2.1322748E1,1.504353E1,6.2792172E0,1.1209302E1,3.8342285E0,4.425179E0,1.8540384E0,8.954707E0,2.2545946E0,2.831756E0,1.0024724E0,3.267332E0,1.1578468E0,7.35375E0,1.6009569E0,1.182051E0,1.0725437E0,5.5710254E0,1.782725E0,4.008564E0,1.5624611E0],"tree_param":{"num_deleted":"0","num_feature":"100","num_nodes":"21","size_leaf_vector":"1"}},{"base_weights":[4.809892E-2,-5.2769925E-2,2.3731306E-1,-1.6328424E-1,2.2515588E-1,6.509695E-2,-6.813688E-1,2.1684112E-1,-1.5060353E-1,-2.552948E-1,-5.0311186E-4,3.9318565E-1,-3.3118218E-1,2.2161983E-1,-6.3555874E-2,-1.546301E-1,1.2377852E-2],"categories":[],"categories_nodes":[],"categories_segments":[],"categories_sizes":[],"default_left":[0,0,0,0,0,0,0,0,0,0,0,0,0,0,0,0,0],"id":9,"left_children":[1,3,-1,5,-1,7,9,11,-1,-1,-1,13,15,-1,-1,-1,-1],"loss_changes":[1.6106858E0,1.8421891E0,0E0,2.156312E0,0E0,1.2534958E0,6.3820195E-1,1.2117977E0,0E0,0E0,0E0,2.0223155E0,2.4548423E-1,0E0,0E0,0E0,0E0],"parents":[2147483647,0,0,1,1,3,3,5,5,6,6,7,7,11,11,12,12],"right_children":[2,4,-1,6,-1,8,10,12,-1,-1,-1,14,16,-1,-1,-1,-1],"split_conditions":[2.7047856E0,3.3250954E0,2.3731306E-1,1.2078116E0,2.2515588E-1,1.6625477E0,1.0319209E0,1.6326947E0,-1.5060353E-1,-2.552948E-1,-5.0311186E-4,6.157605E-1,6.157605E-1,2.2161983E-1,-6.3555874E-2,-1.546301E-1,1.2377852E-2],"split_indices":[38,72,0,35,0,15,9,73,0,0,0,63,63,0,0,0,0],"split_type":[0,0,0,0,0,0,0,0,0,0,0,0,0,0,0,0,0],"sum_hessian":[1.9935993E1,1.8370783E1,1.565211E0,1.6849419E1,1.5213649E0,1.2301182E1,4.548236E0,1.0191759E1,2.1094232E0,3.4382296E0,1.1100065E0,7.9243703E0,2.2673883E0,4.9031405E0,3.0212297E0,1.2600805E0,1.007308E0],"tree_param":{"num_deleted":"0","num_feature":"100","num_nodes":"17","size_leaf_vector":"1"}},{"base_weights":[4.1456845E-2,-1.01110466E-1,5.6551594E-1,-1.963549E-1,1.9919892E-1,6.565272E-2,2.1439673E-1,-3.6961338E-1,1.9562624E-1,-5.150025E-1,1.4966539E-1,1.6590665E-1,-9.52949E-2,-7.3419744E-1,7.6099634E-2,-2.5212407E-1,-3.0420026E-2],"categories":[],"categories_nodes":[],"categories_segments":[],"categories_sizes":[],"default_left":[0,0,0,0,0,0,0,0,0,0,0,0,0,0,0,0,0],"id":10,"left_children":[1,3,5,7,-1,-1,-1,9,11,13,-1,-1,-1,15,-1,-1,-1],"loss_changes":[1.5079609E0,1.3045986E0,6.615543E-2,1.0979015E0,0E0,0E0,0E0,1.6229882E0,1.1447604E0,1.8305585E0,0E0,0E0,0E0,4.424448E-1,0E0,0E0,0E0],"parents":[2147483647,0,0,1,1,2,2,3,3,7,7,8,8,9,9,13,13],"right_children":[2,4,6,8,-1,-1,-1,10,12,14,-1,-1,-1,16,-1,-1,-1],"split_conditions":[1.7578579E0,2.7047856E0,1.2078116E0,1.1337036E0,1.9919892E-1,6.565272E-2,2.1439673E-1,2.325842E0,1.116004E0,1.3978552E0,1.4966539E-1,1.6590665E-1,-9.52949E-2,1.1337036E0,7.6099634E-2,-2.5212407E-1,-3.0420026E-2],"split_indices":[41,38,91,3,0,0,0,78,67,12,0,0,0,56,0,0,0],"split_type":[0,0,0,0,0,0,0,0,0,0,0,0,0,0,0,0,0],"sum_hessian":[1.8417875E1,1.5113419E1,3.3044572E0,1.4101371E1,1.0120482E0,1.7361543E0,1.568303E0,9.81856E0,4.282811E0,8.7592535E0,1.0593058E0,2.4791403E0,1.8036709E0,6.850575E0,1.9086791E0,5.585026E0,1.265549E0],"tree_param":{"num_deleted":"0","num_feature":"100","num_nodes":"17","size_leaf_vector":"1"}},{"base_weights":[5.6693867E-2,1.893275E-1,-3.7330362E-1,1.6168557E-2,6.173682E-1,-1.8240672E-1,4.253277E-2,2.787474E-1,-5.243429E-1,2.2734624E-1,2.8536273E-2,4.6285272E-1,-1.7370653E-1,-1.8872601E-1,-4.5195006E-2,6.403014E-1,-4.4709176E-2,-1.1163236E-1,3.234876E-2,2.5393954E-1,8.1942156E-2],"categories":[],"categories_nodes":[],"categories_segments":[],"categories_sizes":[],"default_left":[0,0,0,0,0,0,0,0,0,0,0,0,0,0,0,0,0,0,0,0,0],"id":11,"left_children":[1,3,5,7,9,-1,-1,11,13,-1,-1,15,17,-1,-1,19,-1,-1,-1,-1,-1],"loss_changes":[1.0996685E0,1.0612278E0,6.411003E-1,1.7523154E0,2.3127759E-1,0E0,0E0,7.692474E-1,6.3645005E-2,0E0,0E0,7.632568E-1,2.143329E-1,0E0,0E0,1.4400125E-1,0E0,0E0,0E0,0E0,0E0],"parents":[2147483647,0,0,1,1,2,2,3,3,4,4,7,7,8,8,11,11,12,12,15,15],"right_children":[2,4,6,8,10,-1,-1,12,14,-1,-1,16,18,-1,-1,20,-1,-1,-1,-1,-1],"split_conditions":[1.4213856E0,1.3978552E0,1.267235E0,1.2078116E0,2.023561E0,-1.8240672E-1,4.253277E-2,1.4454832E0,1.8632184E0,2.2734624E-1,2.8536273E-2,1.7917595E0,2.2674072E0,-1.8872601E-1,-4.5195006E-2,6.157605E-1,-4.4709176E-2,-1.1163236E-1,3.234876E-2,2.5393954E-1,8.1942156E-2],"split_indices":[14,12,10,35,62,0,0,37,95,0,0,76,56,0,0,63,0,0,0,0,0],"split_type":[0,0,0,0,0,0,0,0,0,0,0,0,0,0,0,0,0,0,0,0,0],"sum_hessian":[1.7042318E1,1.3452551E1,3.5897667E0,1.0316788E1,3.135764E0,2.3420599E0,1.247707E0,7.269551E0,3.0472364E0,2.115695E0,1.020069E0,5.150719E0,2.1188316E0,1.8462985E0,1.200938E0,3.9567902E0,1.1939292E0,1.0542104E0,1.0646212E0,1.6979467E0,2.2588434E0],"tree_param":{"num_deleted":"0","num_feature":"100","num_nodes":"21","size_leaf_vector":"1"}},{"base_weights":[4.8977546E-2,-7.929816E-2,4.9258515E-1,6.131889E-2,-5.573037E-1,5.207438E-2,1.9359043E-1,-1.6525011E-1,1.6827431E-1,-1.9806583E-1,-5.520816E-2,-3.7777156E-1,1.1652371E-1,-5.020155E-1,3.6237154E-3,-1.7994443E-1,-1.9545637E-2],"categories":[],"categories_nodes":[],"categories_segments":[],"categories_sizes":[],"default_left":[0,0,0,0,0,0,0,0,0,0,0,0,0,0,0,0,0],"id":12,"left_children":[1,3,5,7,9,-1,-1,11,-1,-1,-1,13,-1,15,-1,-1,-1],"loss_changes":[1.0087808E0,9.80585E-1,8.096075E-2,1.4261665E0,5.2609444E-3,0E0,0E0,1.1912881E0,0E0,0E0,0E0,3.4133893E-1,0E0,1.8619096E-1,0E0,0E0,0E0],"parents":[2147483647,0,0,1,1,2,2,3,3,4,4,7,7,11,11,13,13],"right_children":[2,4,6,8,10,-1,-1,12,-1,-1,-1,14,-1,16,-1,-1,-1],"split_conditions":[1.7578579E0,1.8632184E0,1.2078116E0,1.1700712E0,1.1337036E0,5.207438E-2,1.9359043E-1,1.4954937E0,1.6827431E-1,-1.9806583E-1,-5.520816E-2,1.7578579E0,1.1652371E-1,1.0986123E0,3.6237154E-3,-1.7994443E-1,-1.9545637E-2],"split_indices":[41,92,91,17,3,0,0,33,0,0,0,43,0,44,0,0,0],"split_type":[0,0,0,0,0,0,0,0,0,0,0,0,0,0,0,0,0],"sum_hessian":[1.6041304E1,1.3080211E1,2.961094E0,1.0780563E1,2.2996473E0,1.6503527E0,1.3107412E0,7.8773694E0,2.9031937E0,1.2000648E0,1.0995827E0,5.9219394E0,1.95543E0,4.2725735E0,1.6493657E0,3.1862705E0,1.0863032E0],"tree_param":{"num_deleted":"0","num_feature":"100","num_nodes":"17","size_leaf_vector":"1"}},{"base_weights":[4.139679E-2,1.2095922E-1,-1.7200184E-1,-2.1892616E-3,2.125811E-1,-1.67442E-1,4.2762533E-1,2.6050417E-2,-1.8407151E-1,4.64471E-3,2.055688E-1,3.5435143E-1,-2.975355E-1,1.9558363E-1,-7.405147E-2,-1.3206571E-1,2.2763235E-2],"categories":[],"categories_nodes":[],"categories_segments":[],"categories_sizes":[],"default_left":[0,0,0,0,0,0,0,0,0,0,0,0,0,0,0,0,0],"id":13,"left_children":[1,3,-1,5,-1,7,9,11,-1,-1,-1,13,15,-1,-1,-1,-1],"loss_changes":[8.5984015E-1,1.0968953E0,0E0,1.0312202E0,0E0,9.2039776E-1,4.1760308E-1,9.8366076E-1,0E0,0E0,0E0,9.767571E-1,2.8418872E-1,0E0,0E0,0E0,0E0],"parents":[2147483647,0,0,1,1,3,3,5,5,6,6,7,7,11,11,12,12],"right_children":[2,4,-1,6,-1,8,10,12,-1,-1,-1,14,16,-1,-1,-1,-1],"split_conditions":[2.7497313E0,1.8632184E0,-1.7200184E-1,1.2078116E0,2.125811E-1,1.6326947E0,1.1337036E0,6.157605E-1,-1.8407151E-1,4.64471E-3,2.055688E-1,1.116004E0,1.9810015E0,1.9558363E-1,-7.405147E-2,-1.3206571E-1,2.2763235E-2],"split_indices":[46,22,0,91,0,73,56,63,0,0,0,67,97,0,0,0,0],"split_type":[0,0,0,0,0,0,0,0,0,0,0,0,0,0,0,0,0],"sum_hessian":[1.5162153E1,1.4135851E1,1.0263029E0,1.2510407E1,1.6254431E0,9.477126E0,3.0332808E0,7.2669578E0,2.2101686E0,1.5744326E0,1.4588482E0,3.5600033E0,3.7069545E0,2.324788E0,1.2352153E0,2.5526597E0,1.1542948E0],"tree_param":{"num_deleted":"0","num_feature":"100","num_nodes":"17","size_leaf_vector":"1"}},{"base_weights":[3.829344E-2,1.605376E-1,-3.4697184E-1,5.2640075E-3,1.6270643E-1,-1.5668371E-1,1.7527733E-2,2.3066565E-1,-1.3730127E-1,3.935158E-1,-4.561856E-2,6.081268E-1,-4.0574692E-2,2.4725534E-1,-7.514514E-4],"categories":[],"categories_nodes":[],"categories_segments":[],"categories_sizes":[],"default_left":[0,0,0,0,0,0,0,0,0,0,0,0,0,0,0],"id":14,"left_children":[1,3,5,7,-1,-1,-1,9,-1,11,-1,13,-1,-1,-1],"loss_changes":[7.66396E-1,7.168238E-1,3.1131634E-1,1.1114105E0,0E0,0E0,0E0,5.053431E-1,0E0,6.8288964E-1,0E0,5.227784E-1,0E0,0E0,0E0],"parents":[2147483647,0,0,1,1,2,2,3,3,7,7,9,9,11,11],"right_children":[2,4,6,8,-1,-1,-1,10,-1,12,-1,14,-1,-1,-1],"split_conditions":[1.4213856E0,1.3978552E0,1.267235E0,1.2078116E0,1.6270643E-1,-1.5668371E-1,1.7527733E-2,1.4454832E0,-1.3730127E-1,1.3748657E0,-4.561856E-2,1.2470323E0,-4.0574692E-2,2.4725534E-1,-7.514514E-4],"split_indices":[14,12,10,35,0,0,0,37,0,46,0,82,0,0,0],"split_type":[0,0,0,0,0,0,0,0,0,0,0,0,0,0,0],"sum_hessian":[1.4090187E1,1.1139078E1,2.9511085E0,8.639457E0,2.4996216E0,1.8589321E0,1.0921762E0,6.147829E0,2.491628E0,4.292982E0,1.8548468E0,2.9468482E0,1.3461338E0,1.9183581E0,1.0284901E0],"tree_param":{"num_deleted":"0","num_feature":"100","num_nodes":"15","size_leaf_vector":"1"}},{"base_weights":[3.3341706E-2,-6.8402015E-2,1.5196773E-1,-1.8508053E-1,1.13079004E-1,-2.4821395E-2,-4.7558543E-1,1.4294754E-1,-1.1876163E-1,-3.920248E-2,-1.9043447E-1,4.0680012E-1,-1.156123E-1,1.8661527E-1,-5.4927498E-2],"categories":[],"categories_nodes":[],"categories_segments":[],"categories_sizes":[],"default_left":[0,0,0,0,0,0,0,0,0,0,0,0,0,0,0],"id":15,"left_children":[1,3,-1,5,-1,7,9,11,-1,-1,-1,13,-1,-1,-1],"loss_changes":[7.249844E-1,7.287223E-1,0E0,4.872623E-1,0E0,5.523301E-1,1.2329066E-1,1.0236561E0,0E0,0E0,0E0,7.022818E-1,0E0,0E0,0E0],"parents":[2147483647,0,0,1,1,3,3,5,5,6,6,7,7,11,11],"right_children":[2,4,-1,6,-1,8,10,12,-1,-1,-1,14,-1,-1,-1],"split_conditions":[2.3401425E0,1.3748657E0,1.5196773E-1,1.2078116E0,1.13079004E-1,1.3748657E0,1.116004E0,1.6326947E0,-1.1876163E-1,-3.920248E-2,-1.9043447E-1,1.4954937E0,-1.156123E-1,1.8661527E-1,-5.4927498E-2],"split_indices":[17,5,0,35,0,46,67,73,0,0,0,33,0,0,0],"split_type":[0,0,0,0,0,0,0,0,0,0,0,0,0,0,0],"sum_hessian":[1.3338097E1,1.1681893E1,1.6562027E0,9.719698E0,1.9621955E0,6.9636126E0,2.7560852E0,5.2187343E0,1.7448784E0,1.445387E0,1.3106983E0,3.6339133E0,1.584821E0,2.622463E0,1.0114503E0],"tree_param":{"num_deleted":"0","num_feature":"100","num_nodes":"15","size_leaf_vector":"1"}},{"base_weights":[2.0133473E-2,-1.4081623E-1,3.4311354E-1,-2.7286947E-1,9.366157E-2,1.5114306E-1,-3.4952365E-2,-4.2376947E-1,5.398682E-2,-5.8048004E-1,4.129143E-2,-2.3646279E-1,3.7776485E-2],"categories":[],"categories_nodes":[],"categories_segments":[],"categories_sizes":[],"default_left":[0,0,0,0,0,0,0,0,0,0,0,0,0],"id":16,"left_children":[1,3,5,7,-1,-1,-1,9,-1,11,-1,-1,-1],"loss_changes":[7.57392E-1,6.7221975E-1,4.1526473E-1,6.31904E-1,0E0,0E0,0E0,6.427125E-1,0E0,8.6125207E-1,0E0,0E0,0E0],"parents":[2147483647,0,0,1,1,2,2,3,3,7,7,9,9],"right_children":[2,4,6,8,-1,-1,-1,10,-1,12,-1,-1,-1],"split_conditions":[1.1337036E0,1.4954937E0,1.5481374E0,1.1337036E0,9.366157E-2,1.5114306E-1,-3.4952365E-2,2.023561E0,5.398682E-2,1.3523928E0,4.129143E-2,-2.3646279E-1,3.7776485E-2],"split_indices":[56,33,52,3,0,0,0,81,0,38,0,0,0],"split_type":[0,0,0,0,0,0,0,0,0,0,0,0,0],"sum_hessian":[1.2640394E1,8.812765E0,3.8276296E0,7.1316085E0,1.6811566E0,2.7648263E0,1.0628031E0,5.397205E0,1.7344035E0,4.192847E0,1.2043585E0,3.1505623E0,1.0422844E0],"tree_param":{"num_deleted":"0","num_feature":"100","num_nodes":"13","size_leaf_vector":"1"}},{"base_weights":[2.0030743E-2,-9.5704675E-2,1.2195091E-1,3.3230793E-2,-1.489926E-1,-1.523004E-1,1.3609578E-1,-2.9412386E-1,8.578293E-2,-4.288105E-1,2.9810756E-2,-1.7206666E-1,-1.6764957E-2],"categories":[],"categories_nodes":[],"categories_segments":[],"categories_sizes":[],"default_left":[0,0,0,0,0,0,0,0,0,0,0,0,0],"id":17,"left_children":[1,3,-1,5,-1,7,-1,9,-1,11,-1,-1,-1],"loss_changes":[6.1457396E-1,5.703506E-1,0E0,7.745368E-1,0E0,5.2064013E-1,0E0,3.4996283E-1,0E0,2.1131909E-1,0E0,0E0,0E0],"parents":[2147483647,0,0,1,1,3,3,5,5,7,7,9,9],"right_children":[2,4,-1,6,-1,8,-1,10,-1,12,-1,-1,-1],"split_conditions":[1.7578579E0,1.8632184E0,1.2195091E-1,1.3523928E0,-1.489926E-1,1.3748657E0,1.3609578E-1,1.1337036E0,8.578293E-2,1.1337036E0,2.9810756E-2,-1.7206666E-1,-1.6764957E-2],"split_indices":[41,92,0,38,0,5,0,56,0,66,0,0,0],"split_type":[0,0,0,0,0,0,0,0,0,0,0,0,0],"sum_hessian":[1.1870302E1,9.713731E0,2.1565714E0,8.044014E0,1.6697176E0,6.0235696E0,2.0204442E0,4.79929E0,1.224279E0,3.5085974E0,1.2906929E0,2.1400094E0,1.3685881E0],"tree_param":{"num_deleted":"0","num_feature":"100","num_nodes":"13","size_leaf_vector":"1"}},{"base_weights":[1.6785666E-2,-7.4005164E-2,1.3109958E-1,-2.0023549E-1,2.8085518E-1,-3.3797023E-1,5.1110826E-2,1.7934237E-1,-4.1170154E-2,-4.8855874E-1,6.566611E-2,-1.842493E-1,-2.3654016E-2],"categories":[],"categories_nodes":[],"categories_segments":[],"categories_sizes":[],"default_left":[0,0,0,0,0,0,0,0,0,0,0,0,0],"id":18,"left_children":[1,3,-1,5,7,9,-1,-1,-1,11,-1,-1,-1],"loss_changes":[5.0312895E-1,5.4909354E-1,0E0,5.0165033E-1,5.197532E-1,6.668947E-1,0E0,0E0,0E0,2.3799086E-1,0E0,0E0,0E0],"parents":[2147483647,0,0,1,1,3,3,4,4,5,5,9,9],"right_children":[2,4,-1,6,8,10,-1,-1,-1,12,-1,-1,-1],"split_conditions":[2.3401425E0,1.5755364E0,1.3109958E-1,1.267235E0,1.267235E0,1.231521E0,5.1110826E-2,1.7934237E-1,-4.1170154E-2,1.1337036E0,6.566611E-2,-1.842493E-1,-2.3654016E-2],"split_indices":[17,4,0,36,10,63,0,0,0,3,0,0,0],"split_type":[0,0,0,0,0,0,0,0,0,0,0,0,0],"sum_hessian":[1.1339988E1,1.00027E1,1.337288E0,7.69956E0,2.30314E0,5.677561E0,2.0219991E0,1.0655159E0,1.2376242E0,4.565565E0,1.1119959E0,3.1123853E0,1.4531797E0],"tree_param":{"num_deleted":"0","num_feature":"100","num_nodes":"13","size_leaf_vector":"1"}},{"base_weights":[2.6605325E-2,-8.107637E-2,3.2183424E-1,-2.728125E-1,1.2076144E-1,3.149007E-2,1.23770475E-1,-4.4146037E-1,8.9670084E-2,-5.5284405E-1,-1.3858524E-2,-2.0041077E-1,-2.0213502E-2],"categories":[],"categories_nodes":[],"categories_segments":[],"categories_sizes":[],"default_left":[0,0,0,0,0,0,0,0,0,0,0,0,0],"id":19,"left_children":[1,3,5,7,-1,-1,-1,9,-1,11,-1,-1,-1],"loss_changes":[3.9984205E-1,9.826747E-1,2.2480339E-2,8.393553E-1,0E0,0E0,0E0,2.416681E-1,0E0,2.1467817E-1,0E0,0E0,0E0],"parents":[2147483647,0,0,1,1,2,2,3,3,7,7,9,9],"right_children":[2,4,6,8,-1,-1,-1,10,-1,12,-1,-1,-1],"split_conditions":[1.6326947E0,1.4954937E0,1.1700712E0,1.7578579E0,1.2076144E-1,3.149007E-2,1.23770475E-1,1.3978552E0,8.9670084E-2,1.1337036E0,-1.3858524E-2,-2.0041077E-1,-2.0213502E-2],"split_indices":[60,33,17,43,0,0,0,12,0,3,0,0,0],"split_type":[0,0,0,0,0,0,0,0,0,0,0,0,0],"sum_hessian":[1.0756531E1,8.4132595E0,2.3432713E0,6.336821E0,2.076438E0,1.3274169E0,1.0158544E0,5.0692782E0,1.2675431E0,3.6438065E0,1.4254718E0,2.6410608E0,1.0027455E0],"tree_param":{"num_deleted":"0","num_feature":"100","num_nodes":"13","size_leaf_vector":"1"}},{"base_weights":[2.9396746E-2,-6.648453E-2,1.1594182E-1,5.931518E-2,-1.3856259E-1,-9.312972E-2,1.1487742E-1,3.4030184E-2,-1.0472941E-1,2.4401566E-1,-8.544579E-2,8.588579E-2,2.0333575E-2],"categories":[],"categories_nodes":[],"categories_segments":[],"categories_sizes":[],"default_left":[0,0,0,0,0,0,0,0,0,0,0,0,0],"id":20,"left_children":[1,3,-1,5,-1,7,-1,9,-1,11,-1,-1,-1],"loss_changes":[4.0982577E-1,5.0977683E-1,0E0,4.4233084E-1,0E0,2.2045422E-1,0E0,4.171504E-1,0E0,7.930115E-3,0E0,0E0,0E0],"parents":[2147483647,0,0,1,1,3,3,5,5,7,7,9,9],"right_children":[2,4,-1,6,-1,8,-1,10,-1,12,-1,-1,-1],"split_conditions":[2.023561E0,1.4213856E0,1.1594182E-1,1.1700712E0,-1.3856259E-1,1.6326947E0,1.1487742E-1,1.2078116E0,-1.0472941E-1,6.157605E-1,-8.544579E-2,8.588579E-2,2.0333575E-2],"split_indices":[85,14,0,17,0,73,0,35,0,63,0,0,0],"split_type":[0,0,0,0,0,0,0,0,0,0,0,0,0],"sum_hessian":[1.0219803E1,8.698034E0,1.5217689E0,7.2434125E0,1.4546211E0,5.408031E0,1.8353815E0,4.1923895E0,1.2156416E0,2.6692166E0,1.5231729E0,1.6492169E0,1.0199997E0],"tree_param":{"num_deleted":"0","num_feature":"100","num_nodes":"13","size_leaf_vector":"1"}},{"base_weights":[2.2162192E-2,-7.971901E-2,1.0417091E-1,3.6532573E-2,-1.267576E-1,-1.0568035E-1,1.2149814E-1,-2.6019815E-1,8.054863E-2,-4.545491E-1,5.2609887E-2,-1.6867666E-1,-3.164797E-2],"categories":[],"categories_nodes":[],"categories_segments":[],"categories_sizes":[],"default_left":[0,0,0,0,0,0,0,0,0,0,0,0,0],"id":21,"left_children":[1,3,-1,5,-1,7,-1,9,-1,11,-1,-1,-1],"loss_changes":[3.8573238E-1,3.7587875E-1,0E0,4.4494626E-1,0E0,4.3586543E-1,0E0,5.019671E-1,0E0,8.082312E-2,0E0,0E0,0E0],"parents":[2147483647,0,0,1,1,3,3,5,5,7,7,9,9],"right_children":[2,4,-1,6,-1,8,-1,10,-1,12,-1,-1,-1],"split_conditions":[1.7578579E0,1.8632184E0,1.0417091E-1,1.3978552E0,-1.267576E-1,1.3523928E0,1.2149814E-1,1.2470323E0,8.054863E-2,1.1337036E0,5.2609887E-2,-1.6867666E-1,-3.164797E-2],"split_indices":[41,92,0,12,0,38,0,82,0,3,0,0,0],"split_type":[0,0,0,0,0,0,0,0,0,0,0,0,0],"sum_hessian":[9.811065E0,8.044585E0,1.7664793E0,6.6745577E0,1.3700274E0,5.330398E0,1.3441596E0,3.9881012E0,1.342297E0,2.727494E0,1.2606074E0,1.617577E0,1.1099169E0],"tree_param":{"num_deleted":"0","num_feature":"100","num_nodes":"13","size_leaf_vector":"1"}},{"base_weights":[1.8374734E-2,-8.412345E-2,8.746683E-2,-2.4633613E-1,9.522844E-2,-3.94403E-1,7.380642E-2,-1.472496E-1,-1.495403E-2],"categories":[],"categories_nodes":[],"categories_segments":[],"categories_sizes":[],"default_left":[0,0,0,0,0,0,0,0,0],"id":22,"left_children":[1,3,-1,5,-1,7,-1,-1,-1],"loss_changes":[3.1572744E-1,6.213343E-1,0E0,5.7105947E-1,0E0,1.5438801E-1,0E0,0E0,0E0],"parents":[2147483647,0,0,1,1,3,3,5,5],"right_children":[2,4,-1,6,-1,8,-1,-1,-1],"split_conditions":[1.6326947E0,1.4954937E0,8.746683E-2,1.7578579E0,9.522844E-2,1.3978552E0,7.380642E-2,-1.472496E-1,-1.495403E-2],"split_indices":[60,33,0,43,0,12,0,0,0],"split_type":[0,0,0,0,0,0,0,0,0],"sum_hessian":[9.399806E0,7.338461E0,2.0613449E0,5.502275E0,1.836186E0,4.383095E0,1.1191801E0,3.0929544E0,1.2901405E0],"tree_param":{"num_deleted":"0","num_feature":"100","num_nodes":"9","size_leaf_vector":"1"}},{"base_weights":[2.1968663E-2,-9.675383E-2,2.4563664E-1,4.604558E-2,-1.22354485E-1,1.1872076E-1,-1.2494647E-2,-1.4254571E-1,1.0508057E-1,4.122644E-2,-1.1205703E-1,3.3759177E-2,-1.7835286E-2],"categories":[],"categories_nodes":[],"categories_segments":[],"categories_sizes":[],"default_left":[0,0,0,0,0,0,0,0,0,0,0,0,0],"id":23,"left_children":[1,3,5,7,-1,-1,-1,9,-1,11,-1,-1,-1],"loss_changes":[2.9141906E-1,3.4315684E-1,1.7937599E-1,3.886159E-1,0E0,0E0,0E0,2.002516E-1,0E0,3.0565493E-2,0E0,0E0,0E0],"parents":[2147483647,0,0,1,1,2,2,3,3,7,7,9,9],"right_children":[2,4,6,8,-1,-1,-1,10,-1,12,-1,-1,-1],"split_conditions":[1.1337036E0,1.6326947E0,1.4454832E0,1.1337036E0,-1.22354485E-1,1.1872076E-1,-1.2494647E-2,1.0319209E0,1.0508057E-1,1.116004E0,-1.1205703E-1,3.3759177E-2,-1.7835286E-2],"split_indices":[66,73,50,3,0,0,0,9,0,67,0,0,0],"split_type":[0,0,0,0,0,0,0,0,0,0,0,0,0],"sum_hessian":[9.079406E0,6.30183E0,2.7775757E0,4.9031577E0,1.3986722E0,1.5764309E0,1.2011449E0,3.354875E0,1.5482823E0,2.325866E0,1.0290091E0,1.2926326E0,1.0332335E0],"tree_param":{"num_deleted":"0","num_feature":"100","num_nodes":"13","size_leaf_vector":"1"}},{"base_weights":[1.51958745E-2,-1.0047506E-1,2.402298E-1,-2.0257999E-1,7.913591E-2,8.985292E-2,2.0235594E-2,-3.2244006E-1,4.2219374E-2,-1.5710756E-1,2.5743615E-2],"categories":[],"categories_nodes":[],"categories_segments":[],"categories_sizes":[],"default_left":[0,0,0,0,0,0,0,0,0,0,0],"id":24,"left_children":[1,3,5,7,-1,-1,-1,9,-1,-1,-1],"loss_changes":[2.7915797E-1,3.2033852E-1,1.6885832E-2,2.9929423E-1,0E0,0E0,0E0,4.4569182E-1,0E0,0E0,0E0],"parents":[2147483647,0,0,1,1,2,2,3,3,7,7],"right_children":[2,4,6,8,-1,-1,-1,10,-1,-1,-1],"split_conditions":[1.1337036E0,1.6625477E0,2.2674072E0,1.1337036E0,7.913591E-2,8.985292E-2,2.0235594E-2,1.267235E0,4.2219374E-2,-1.5710756E-1,2.5743615E-2],"split_indices":[56,72,56,3,0,0,0,36,0,0,0],"split_type":[0,0,0,0,0,0,0,0,0,0,0],"sum_hessian":[8.797234E0,6.1761227E0,2.6211112E0,5.170623E0,1.0054995E0,1.4054173E0,1.2156938E0,3.8776238E0,1.292999E0,2.4078736E0,1.4697502E0],"tree_param":{"num_deleted":"0","num_feature":"100","num_nodes":"11","size_leaf_vector":"1"}},{"base_weights":[2.0309685E-2,1.1305642E-1,-7.995131E-2,-2.6981283E-2,1.1790865E-1,9.312022E-2,-8.946198E-2,2.3613739E-1,-4.9916472E-2,1.2747742E-1,-1.2642328E-2],"categories":[],"categories_nodes":[],"categories_segments":[],"categories_sizes":[],"default_left":[0,0,0,0,0,0,0,0,0,0,0],"id":25,"left_children":[1,3,-1,5,-1,7,-1,9,-1,-1,-1],"loss_changes":[2.8296107E-1,3.1971872E-1,0E0,2.2944683E-1,0E0,2.2683403E-1,0E0,2.1077129E-1,0E0,0E0,0E0],"parents":[2147483647,0,0,1,1,3,3,5,5,7,7],"right_children":[2,4,-1,6,-1,8,-1,10,-1,-1,-1],"split_conditions":[1.4213856E0,1.1700712E0,-7.995131E-2,1.267235E0,1.1790865E-1,1.4454832E0,-8.946198E-2,1.2078116E0,-4.9916472E-2,1.2747742E-1,-1.2642328E-2],"split_indices":[14,17,0,10,0,37,0,35,0,0,0],"split_type":[0,0,0,0,0,0,0,0,0,0,0],"sum_hessian":[8.504546E0,6.884223E0,1.6203237E0,5.1912646E0,1.6929584E0,4.053153E0,1.1381115E0,2.6711307E0,1.3820224E0,1.27749E0,1.3936406E0],"tree_param":{"num_deleted":"0","num_feature":"100","num_nodes":"11","size_leaf_vector":"1"}},{"base_weights":[1.687962E-2,-7.0579045E-2,9.428426E-2,3.4025475E-2,-1.1316046E-1,-7.744388E-2,9.604072E-2,-2.4457185E-1,7.599822E-2,-1.0169847E-1,9.242537E-3],"categories":[],"categories_nodes":[],"categories_segments":[],"categories_sizes":[],"default_left":[0,0,0,0,0,0,0,0,0,0,0],"id":26,"left_children":[1,3,-1,5,-1,7,-1,9,-1,-1,-1],"loss_changes":[2.629592E-1,2.6846433E-1,0E0,2.4357209E-1,0E0,3.7937003E-1,0E0,1.22858554E-1,0E0,0E0,0E0],"parents":[2147483647,0,0,1,1,3,3,5,5,7,7],"right_children":[2,4,-1,6,-1,8,-1,10,-1,-1,-1],"split_conditions":[2.023561E0,1.4213856E0,9.428426E-2,1.3978552E0,-1.1316046E-1,1.1337036E0,9.604072E-2,1.2470323E0,7.599822E-2,-1.0169847E-1,9.242537E-3],"split_indices":[85,14,0,12,0,3,0,82,0,0,0],"split_type":[0,0,0,0,0,0,0,0,0,0,0],"sum_hessian":[8.257005E0,6.96998E0,1.2870255E0,5.859901E0,1.1100787E0,4.7418027E0,1.1180981E0,3.3232658E0,1.418537E0,2.3027031E0,1.0205625E0],"tree_param":{"num_deleted":"0","num_feature":"100","num_nodes":"11","size_leaf_vector":"1"}},{"base_weights":[1.8794507E-2,-7.4695885E-2,8.924483E-2,4.324428E-2,-1.1736213E-1,-1.04664184E-1,9.8582655E-2,-2.0293641E-1,4.1337788E-2,-8.735221E-2,-4.9817907E-3],"categories":[],"categories_nodes":[],"categories_segments":[],"categories_sizes":[],"default_left":[0,0,0,0,0,0,0,0,0,0,0],"id":27,"left_children":[1,3,-1,5,-1,7,-1,9,-1,-1,-1],"loss_changes":[2.5590536E-1,2.9745966E-1,0E0,3.0349398E-1,0E0,1.4608592E-1,0E0,5.9814215E-2,0E0,0E0,0E0],"parents":[2147483647,0,0,1,1,3,3,5,5,7,7],"right_children":[2,4,-1,6,-1,8,-1,10,-1,-1,-1],"split_conditions":[1.7578579E0,1.8632184E0,8.924483E-2,1.3523928E0,-1.1736213E-1,1.2078116E0,9.8582655E-2,1.0986123E0,4.1337788E-2,-8.735221E-2,-4.9817907E-3],"split_indices":[41,92,0,38,0,87,0,44,0,0,0],"split_type":[0,0,0,0,0,0,0,0,0,0,0],"sum_hessian":[7.9690113E0,6.515318E0,1.4536933E0,5.3756027E0,1.1397151E0,3.9575667E0,1.4180361E0,2.932123E0,1.0254439E0,1.6079807E0,1.3241422E0],"tree_param":{"num_deleted":"0","num_feature":"100","num_nodes":"11","size_leaf_vector":"1"}},{"base_weights":[1.5658924E-2,-8.975072E-2,2.1538466E-1,6.828994E-2,-9.241541E-2,7.899725E-2,1.789642E-2,7.79441E-2,-1.0672853E-1,-7.6508716E-2,3.0069852E-2],"categories":[],"categories_nodes":[],"categories_segments":[],"categories_sizes":[],"default_left":[0,0,0,0,0,0,0,0,0,0,0],"id":28,"left_children":[1,3,5,7,-1,-1,-1,-1,9,-1,-1],"loss_changes":[2.0401648E-1,2.4348913E-1,9.111464E-3,1.8053696E-1,0E0,0E0,0E0,0E0,1.20426446E-1,0E0,0E0],"parents":[2147483647,0,0,1,1,2,2,3,3,8,8],"right_children":[2,4,6,8,-1,-1,-1,-1,10,-1,-1],"split_conditions":[1.1337036E0,1.116004E0,2.2674072E0,6.157605E-1,-9.241541E-2,7.899725E-2,1.789642E-2,7.79441E-2,1.2078116E0,-7.6508716E-2,3.0069852E-2],"split_indices":[56,67,56,63,0,0,0,0,35,0,0],"split_type":[0,0,0,0,0,0,0,0,0,0,0],"sum_hessian":[7.772402E0,5.4478235E0,2.3245785E0,3.5586686E0,1.8891548E0,1.2491431E0,1.0754353E0,1.4678736E0,2.090795E0,1.0827116E0,1.0080836E0],"tree_param":{"num_deleted":"0","num_feature":"100","num_nodes":"11","size_leaf_vector":"1"}},{"base_weights":[1.5270423E-2,-7.347596E-2,8.054065E-2,1.6296259E-1,-2.4744074E-1,7.5430945E-2,7.6385755E-3,-4.5428246E-1,5.3736154E-2,-1.7131719E-1,-2.7691586E-2],"categories":[],"categories_nodes":[],"categories_segments":[],"categories_sizes":[],"default_left":[0,0,0,0,0,0,0,0,0,0,0],"id":29,"left_children":[1,3,-1,5,7,-1,-1,9,-1,-1,-1],"loss_changes":[2.1343186E-1,3.351695E-1,0E0,3.7897207E-2,4.8077574E-1,0E0,0E0,8.810389E-2,0E0,0E0,0E0],"parents":[2147483647,0,0,1,1,3,3,4,4,7,7],"right_children":[2,4,-1,6,8,-1,-1,10,-1,-1,-1],"split_conditions":[1.3748657E0,4.3166748E-1,8.054065E-2,6.157605E-1,1.267235E0,7.5430945E-2,7.6385755E-3,9.395476E-1,5.3736154E-2,-1.7131719E-1,-2.7691586E-2],"split_indices":[5,88,0,63,36,0,0,99,0,0,0],"split_type":[0,0,0,0,0,0,0,0,0,0,0],"sum_hessian":[7.620474E0,6.168289E0,1.452185E0,2.641468E0,3.5268211E0,1.1030792E0,1.5383888E0,2.33135E0,1.195471E0,1.3259796E0,1.0053704E0],"tree_param":{"num_deleted":"0","num_feature":"100","num_nodes":"11","size_leaf_vector":"1"}},{"base_weights":[1.2114363E-2,-6.683051E-2,7.504923E-2,3.507868E-2,-1.011407E-1,-1.0401024E-1,9.093307E-2,-1.7823589E-1,1.6388485E-2,-1.0894386E-2,-7.0521176E-2],"categories":[],"categories_nodes":[],"categories_segments":[],"categories_sizes":[],"default_left":[0,0,0,0,0,0,0,0,0,0,0],"id":30,"left_children":[1,3,-1,5,-1,7,-1,9,-1,-1,-1],"loss_changes":[1.7422515E-1,2.069419E-1,0E0,2.5705606E-1,0E0,6.54011E-2,0E0,1.9332312E-2,0E0,0E0,0E0],"parents":[2147483647,0,0,1,1,3,3,5,5,7,7],"right_children":[2,4,-1,6,-1,8,-1,10,-1,-1,-1],"split_conditions":[1.7578579E0,1.8632184E0,7.504923E-2,1.3523928E0,-1.011407E-1,1.1337036E0,9.093307E-2,4.3166748E-1,1.6388485E-2,-1.0894386E-2,-7.0521176E-2],"split_indices":[41,92,0,38,0,66,0,88,0,0,0],"split_type":[0,0,0,0,0,0,0,0,0,0,0],"sum_hessian":[7.381215E0,6.083118E0,1.2980973E0,5.049576E0,1.033542E0,3.7273166E0,1.3222592E0,2.4550734E0,1.2722433E0,1.170695E0,1.2843784E0],"tree_param":{"num_deleted":"0","num_feature":"100","num_nodes":"11","size_leaf_vector":"1"}},{"base_weights":[8.638515E-3,-7.086336E-2,7.016419E-2,1.2854892E-1,-2.1879767E-1,6.432106E-2,1.7855527E-3,-1.2222025E-1,4.8261717E-2],"categories":[],"categories_nodes":[],"categories_segments":[],"categories_sizes":[],"default_left":[0,0,0,0,0,0,0,0,0],"id":31,"left_children":[1,3,-1,5,7,-1,-1,-1,-1],"loss_changes":[1.6408436E-1,2.3037708E-1,0E0,3.608805E-2,3.7388754E-1,0E0,0E0,0E0,0E0],"parents":[2147483647,0,0,1,1,3,3,4,4],"right_children":[2,4,-1,6,8,-1,-1,-1,-1],"split_conditions":[1.3748657E0,4.3166748E-1,7.016419E-2,6.157605E-1,1.267235E0,6.432106E-2,1.7855527E-3,-1.2222025E-1,4.8261717E-2],"split_indices":[5,88,0,63,36,0,0,0,0],"split_type":[0,0,0,0,0,0,0,0,0],"sum_hessian":[7.2375274E0,5.85598E0,1.3815473E0,2.5498617E0,3.3061185E0,1.0592343E0,1.4906274E0,2.1600587E0,1.1460598E0],"tree_param":{"num_deleted":"0","num_feature":"100","num_nodes":"9","size_leaf_vector":"1"}},{"base_weights":[1.3383621E-2,9.44883E-2,-6.331111E-2,-4.5955844E-2,1.11842014E-1,8.340572E-2,-7.582102E-2,6.956324E-2,-4.923231E-2],"categories":[],"categories_nodes":[],"categories_segments":[],"categories_sizes":[],"default_left":[0,0,0,0,0,0,0,0,0],"id":32,"left_children":[1,3,-1,5,-1,7,-1,-1,-1],"loss_changes":[1.6663945E-1,2.7554074E-1,0E0,1.6242404E-1,0E0,1.8513502E-1,0E0,0E0,0E0],"parents":[2147483647,0,0,1,1,3,3,5,5],"right_children":[2,4,-1,6,-1,8,-1,-1,-1],"split_conditions":[1.6326947E0,1.1337036E0,-6.331111E-2,1.3748657E0,1.11842014E-1,1.116004E0,-7.582102E-2,6.956324E-2,-4.923231E-2],"split_indices":[73,3,0,46,0,67,0,0,0],"split_type":[0,0,0,0,0,0,0,0,0],"sum_hessian":[7.0596886E0,5.6109004E0,1.4487882E0,4.2840014E0,1.3268989E0,3.002372E0,1.2816293E0,1.9161409E0,1.0862312E0],"tree_param":{"num_deleted":"0","num_feature":"100","num_nodes":"9","size_leaf_vector":"1"}},{"base_weights":[9.141299E-3,-8.673471E-2,1.8791476E-1,-1.8042135E-1,4.9559876E-2,6.752018E-2,1.7777255E-2,-2.7852428E-1,2.2657346E-2,-1.1228806E-1,-2.2648236E-2],"categories":[],"categories_nodes":[],"categories_segments":[],"categories_sizes":[],"default_left":[0,0,0,0,0,0,0,0,0,0,0],"id":33,"left_children":[1,3,5,7,-1,-1,-1,9,-1,-1,-1],"loss_changes":[1.5153019E-1,1.6716892E-1,1.3375133E-3,1.3955511E-1,0E0,0E0,0E0,4.2239368E-2,0E0,0E0,0E0],"parents":[2147483647,0,0,1,1,2,2,3,3,7,7],"right_children":[2,4,6,8,-1,-1,-1,10,-1,-1,-1],"split_conditions":[1.1337036E0,1.1337036E0,1.1337036E0,9.395476E-1,4.9559876E-2,6.752018E-2,1.7777255E-2,1.267235E0,2.2657346E-2,-1.1228806E-1,-2.2648236E-2],"split_indices":[56,3,3,99,0,0,0,36,0,0,0],"split_type":[0,0,0,0,0,0,0,0,0,0,0],"sum_hessian":[6.8897777E0,4.819773E0,2.0700045E0,3.7202E0,1.099573E0,1.0247351E0,1.0452693E0,2.6256025E0,1.0945977E0,1.2108898E0,1.4147127E0],"tree_param":{"num_deleted":"0","num_feature":"100","num_nodes":"11","size_leaf_vector":"1"}},{"base_weights":[9.035616E-3,-6.355917E-2,6.866707E-2,-1.4576197E-1,5.1342495E-2,-2.5802183E-1,5.244281E-2,-1.2566802E-1,2.0145116E-2],"categories":[],"categories_nodes":[],"categories_segments":[],"categories_sizes":[],"default_left":[0,0,0,0,0,0,0,0,0],"id":34,"left_children":[1,3,-1,5,-1,7,-1,-1,-1],"loss_changes":[1.3863693E-1,1.5281187E-1,0E0,2.4117982E-1,0E0,2.603482E-1,0E0,0E0,0E0],"parents":[2147483647,0,0,1,1,3,3,5,5],"right_children":[2,4,-1,6,-1,8,-1,-1,-1],"split_conditions":[1.7578579E0,1.3978552E0,6.866707E-2,1.7578579E0,5.1342495E-2,1.1337036E0,5.244281E-2,-1.2566802E-1,2.0145116E-2],"split_indices":[41,12,0,43,0,3,0,0,0],"split_type":[0,0,0,0,0,0,0,0,0],"sum_hessian":[6.7748466E0,5.6275606E0,1.147286E0,4.4484563E0,1.1791042E0,3.4392092E0,1.009247E0,2.1080694E0,1.3311398E0],"tree_param":{"num_deleted":"0","num_feature":"100","num_nodes":"9","size_leaf_vector":"1"}},{"base_weights":[1.4488533E-2,-7.691874E-2,6.132092E-2,-2.2412105E-1,9.480243E-2,-9.671886E-2,1.6921962E-2],"categories":[],"categories_nodes":[],"categories_segments":[],"categories_sizes":[],"default_left":[0,0,0,0,0,0,0],"id":35,"left_children":[1,3,-1,5,-1,-1,-1],"loss_changes":[1.4766741E-1,4.0962955E-1,0E0,1.5179291E-1,0E0,0E0,0E0],"parents":[2147483647,0,0,1,1,3,3],"right_children":[2,4,-1,6,-1,-1,-1],"split_conditions":[1.4954937E0,1.6326947E0,6.132092E-2,1.3523928E0,9.480243E-2,-9.671886E-2,1.6921962E-2],"split_indices":[33,60,0,38,0,0,0],"split_type":[0,0,0,0,0,0,0],"sum_hessian":[6.6007047E0,4.8576593E0,1.7430454E0,3.846322E0,1.0113375E0,2.7379181E0,1.1084039E0],"tree_param":{"num_deleted":"0","num_feature":"100","num_nodes":"7","size_leaf_vector":"1"}},{"base_weights":[2.0506553E-2,9.250529E-2,-5.5012234E-2,-6.376396E-2,1.1869782E-1,-2.0886487E-1,6.844576E-2,-1.1175305E-1,3.069183E-2],"categories":[],"categories_nodes":[],"categories_segments":[],"categories_sizes":[],"default_left":[0,0,0,0,0,0,0,0,0],"id":36,"left_children":[1,3,-1,5,-1,7,-1,-1,-1],"loss_changes":[1.2628041E-1,3.1744212E-1,0E0,2.565335E-1,0E0,2.3243257E-1,0E0,0E0,0E0],"parents":[2147483647,0,0,1,1,3,3,5,5],"right_children":[2,4,-1,6,-1,8,-1,-1,-1],"split_conditions":[1.8632184E0,1.1700712E0,-5.5012234E-2,1.4954937E0,1.1869782E-1,1.0986123E0,6.844576E-2,-1.1175305E-1,3.069183E-2],"split_indices":[92,17,0,33,0,44,0,0,0],"split_type":[0,0,0,0,0,0,0,0,0],"sum_hessian":[6.4471173E0,5.1682653E0,1.2788521E0,3.931387E0,1.2368783E0,2.816108E0,1.1152788E0,1.7163523E0,1.0997558E0],"tree_param":{"num_deleted":"0","num_feature":"100","num_nodes":"9","size_leaf_vector":"1"}},{"base_weights":[2.2001065E-2,9.131493E-2,-5.8059778E-2,1.8785211E-1,-4.293844E-2,6.353397E-3,1.2521078E-1,2.210537E-2,-1.43927485E-2],"categories":[],"categories_nodes":[],"categories_segments":[],"categories_sizes":[],"default_left":[0,0,0,0,0,0,0,0,0],"id":37,"left_children":[1,3,-1,5,-1,7,-1,-1,-1],"loss_changes":[1.2586202E-1,1.6628206E-1,0E0,1.970978E-1,0E0,1.7044645E-2,0E0,0E0,0E0],"parents":[2147483647,0,0,1,1,3,3,5,5],"right_children":[2,4,-1,6,-1,8,-1,-1,-1],"split_conditions":[1.4213856E0,1.4454832E0,-5.8059778E-2,9.395476E-1,-4.293844E-2,4.3166748E-1,1.2521078E-1,2.210537E-2,-1.43927485E-2],"split_indices":[14,37,0,99,0,88,0,0,0],"split_type":[0,0,0,0,0,0,0,0,0],"sum_hessian":[6.2418633E0,5.159077E0,1.0827861E0,3.7950928E0,1.3639843E0,2.6931064E0,1.1019865E0,1.0435528E0,1.6495535E0],"tree_param":{"num_deleted":"0","num_feature":"100","num_nodes":"9","size_leaf_vector":"1"}},{"base_weights":[2.0696431E-2,9.0184115E-2,-5.14611E-2,1.8138714E-1,-4.1506056E-2,1.1305105E-1,-4.530308E-2],"categories":[],"categories_nodes":[],"categories_segments":[],"categories_sizes":[],"default_left":[0,0,0,0,0,0,0],"id":38,"left_children":[1,3,-1,5,-1,-1,-1],"loss_changes":[1.107944E-1,1.4800754E-1,0E0,3.588469E-1,0E0,0E0,0E0],"parents":[2147483647,0,0,1,1,3,3],"right_children":[2,4,-1,6,-1,-1,-1],"split_conditions":[1.6326947E0,1.3748657E0,-5.14611E-2,1.116004E0,-4.1506056E-2,1.1305105E-1,-4.530308E-2],"split_indices":[73,46,0,67,0,0,0],"split_type":[0,0,0,0,0,0,0],"sum_hessian":[6.1362123E0,4.8969474E0,1.2392653E0,3.6476038E0,1.2493435E0,2.2127898E0,1.434814E0],"tree_param":{"num_deleted":"0","num_feature":"100","num_nodes":"7","size_leaf_vector":"1"}},{"base_weights":[1.1828677E-2,-8.123823E-2,5.399152E-2,-1.6522743E-1,2.2145769E-2,-1.1838662E-2,-6.8393484E-2],"categories":[],"categories_nodes":[],"categories_segments":[],"categories_sizes":[],"default_left":[0,0,0,0,0,0,0],"id":39,"left_children":[1,3,-1,5,-1,-1,-1],"loss_changes":[1.243396E-1,7.9947576E-2,0E0,2.0071514E-2,0E0,0E0,0E0],"parents":[2147483647,0,0,1,1,3,3],"right_children":[2,4,-1,6,-1,-1,-1],"split_conditions":[1.1337036E0,1.1337036E0,5.399152E-2,1.116004E0,2.2145769E-2,-1.1838662E-2,-6.8393484E-2],"split_indices":[56,66,0,67,0,0,0],"split_type":[0,0,0,0,0,0,0],"sum_hessian":[6.011448E0,4.2023206E0,1.8091273E0,2.6832888E0,1.519032E0,1.4353775E0,1.2479113E0],"tree_param":{"num_deleted":"0","num_feature":"100","num_nodes":"7","size_leaf_vector":"1"}},{"base_weights":[7.726363E-3,-6.305171E-2,6.1313055E-2,7.345648E-2,-9.184019E-2,1.901211E-1,-4.1233175E-2,2.0533815E-2,6.9255576E-2],"categories":[],"categories_nodes":[],"categories_segments":[],"categories_sizes":[],"default_left":[0,0,0,0,0,0,0,0,0],"id":40,"left_children":[1,3,-1,5,-1,7,-1,-1,-1],"loss_changes":[1.09718345E-1,2.1760249E-1,0E0,1.3862163E-1,0E0,8.668676E-4,0E0,0E0,0E0],"parents":[2147483647,0,0,1,1,3,3,5,5],"right_children":[2,4,-1,6,-1,8,-1,-1,-1],"split_conditions":[1.3748657E0,1.2078116E0,6.1313055E-2,1.4454832E0,-9.184019E-2,6.157605E-1,-4.1233175E-2,2.0533815E-2,6.9255576E-2],"split_indices":[5,35,0,37,0,63,0,0,0],"split_type":[0,0,0,0,0,0,0,0,0],"sum_hessian":[5.957053E0,4.880018E0,1.0770351E0,3.5719328E0,1.3080853E0,2.3631992E0,1.2087337E0,1.2649292E0,1.09827E0],"tree_param":{"num_deleted":"0","num_feature":"100","num_nodes":"9","size_leaf_vector":"1"}},{"base_weights":[7.979655E-3,7.465154E-2,-5.6655973E-2,-2.8908063E-2,8.531423E-2,-1.700431E-1,6.8099625E-2,-1.6499937E-2,-6.004405E-2],"categories":[],"categories_nodes":[],"categories_segments":[],"categories_sizes":[],"default_left":[0,0,0,0,0,0,0,0,0],"id":41,"left_children":[1,3,-1,5,-1,7,-1,-1,-1],"loss_changes":[1.0408683E-1,1.3503869E-1,0E0,2.1256053E-1,0E0,1.7233044E-3,0E0,0E0,0E0],"parents":[2147483647,0,0,1,1,3,3,5,5],"right_children":[2,4,-1,6,-1,8,-1,-1,-1],"split_conditions":[1.4213856E0,1.3978552E0,-5.6655973E-2,1.1337036E0,8.531423E-2,6.157605E-1,6.8099625E-2,-1.6499937E-2,-6.004405E-2],"split_indices":[14,12,0,3,0,63,0,0,0],"split_type":[0,0,0,0,0,0,0,0,0],"sum_hessian":[5.857208E0,4.838897E0,1.0183108E0,3.8165398E0,1.0223572E0,2.6761465E0,1.1403931E0,1.141363E0,1.5347835E0],"tree_param":{"num_deleted":"0","num_feature":"100","num_nodes":"9","size_leaf_vector":"1"}},{"base_weights":[8.894464E-3,-6.298951E-2,5.887573E-2,4.7236316E-2,-7.277237E-2,1.6547272E-1,-4.402532E-2,7.270489E-2,6.543668E-4],"categories":[],"categories_nodes":[],"categories_segments":[],"categories_sizes":[],"default_left":[0,0,0,0,0,0,0,0,0],"id":42,"left_children":[1,3,-1,5,-1,7,-1,-1,-1],"loss_changes":[1.03152454E-1,1.2288354E-1,0E0,1.2348497E-1,0E0,3.9105162E-2,0E0,0E0,0E0],"parents":[2147483647,0,0,1,1,3,3,5,5],"right_children":[2,4,-1,6,-1,8,-1,-1,-1],"split_conditions":[1.7578579E0,1.4454832E0,5.887573E-2,1.0319209E0,-7.277237E-2,6.157605E-1,-4.402532E-2,7.270489E-2,6.543668E-4],"split_indices":[43,37,0,9,0,63,0,0,0],"split_type":[0,0,0,0,0,0,0,0,0],"sum_hessian":[5.7411914E0,4.6289825E0,1.1122091E0,3.3250816E0,1.3039011E0,2.15723E0,1.1678516E0,1.1375319E0,1.019698E0],"tree_param":{"num_deleted":"0","num_feature":"100","num_nodes":"9","size_leaf_vector":"1"}},{"base_weights":[8.690363E-3,-7.6294445E-2,4.9108885E-2,-1.6115926E-1,2.3169925E-2,-1.4606043E-2,-6.301183E-2],"categories":[],"categories_nodes":[],"categories_segments":[],"categories_sizes":[],"default_left":[0,0,0,0,0,0,0],"id":43,"left_children":[1,3,-1,5,-1,-1,-1],"loss_changes":[1.0018634E-1,7.73566E-2,0E0,9.193756E-3,0E0,0E0,0E0],"parents":[2147483647,0,0,1,1,3,3],"right_children":[2,4,-1,6,-1,-1,-1],"split_conditions":[1.1337036E0,1.1337036E0,4.9108885E-2,1.116004E0,2.3169925E-2,-1.4606043E-2,-6.301183E-2],"split_indices":[56,66,0,67,0,0,0],"split_type":[0,0,0,0,0,0,0],"sum_hessian":[5.657273E0,3.981913E0,1.6753597E0,2.5323865E0,1.4495265E0,1.3718431E0,1.1605433E0],"tree_param":{"num_deleted":"0","num_feature":"100","num_nodes":"7","size_leaf_vector":"1"}},{"base_weights":[5.289054E-3,-6.975038E-2,4.8414797E-2,5.3830173E-2,-8.5828274E-2,4.7874678E-2,-3.7471477E-2],"categories":[],"categories_nodes":[],"categories_segments":[],"categories_sizes":[],"default_left":[0,0,0,0,0,0,0],"id":44,"left_children":[1,3,-1,5,-1,-1,-1],"loss_changes":[8.868985E-2,1.5343156E-1,0E0,9.794833E-2,0E0,0E0,0E0],"parents":[2147483647,0,0,1,1,3,3],"right_children":[2,4,-1,6,-1,-1,-1],"split_conditions":[1.5755364E0,1.4454832E0,4.8414797E-2,1.2078116E0,-8.5828274E-2,4.7874678E-2,-3.7471477E-2],"split_indices":[4,37,0,35,0,0,0],"split_type":[0,0,0,0,0,0,0],"sum_hessian":[5.6107903E0,4.162761E0,1.4480292E0,3.1274643E0,1.0352968E0,2.0322196E0,1.0952446E0],"tree_param":{"num_deleted":"0","num_feature":"100","num_nodes":"7","size_leaf_vector":"1"}},{"base_weights":[-5.0798495E-4,6.665574E-2,-5.104393E-2,1.6352575E-1,-4.6266377E-2,9.056765E-2,-2.7103528E-2],"categories":[],"categories_nodes":[],"categories_segments":[],"categories_sizes":[],"default_left":[0,0,0,0,0,0,0],"id":45,"left_children":[1,3,-1,5,-1,-1,-1],"loss_changes":[8.586276E-2,1.4084664E-1,0E0,1.7628118E-1,0E0,0E0,0E0],"parents":[2147483647,0,0,1,1,3,3],"right_children":[2,4,-1,6,-1,-1,-1],"split_conditions":[1.6326947E0,1.3748657E0,-5.104393E-2,1.116004E0,-4.6266377E-2,9.056765E-2,-2.7103528E-2],"split_indices":[73,46,0,67,0,0,0],"split_type":[0,0,0,0,0,0,0],"sum_hessian":[5.5406766E0,4.4040747E0,1.1366017E0,3.241919E0,1.1621557E0,1.9758638E0,1.2660551E0],"tree_param":{"num_deleted":"0","num_feature":"100","num_nodes":"7","size_leaf_vector":"1"}},{"base_weights":[-5.2676466E-3,-9.1146626E-2,4.732593E-2,-1.5111934E-1,1.8983262E-2,-5.7726003E-2,-6.2267827E-3],"categories":[],"categories_nodes":[],"categories_segments":[],"categories_sizes":[],"default_left":[0,0,0,0,0,0,0],"id":46,"left_children":[1,3,-1,5,-1,-1,-1],"loss_changes":[1.04785E-1,5.460252E-2,0E0,1.6455114E-2,0E0,0E0,0E0],"parents":[2147483647,0,0,1,1,3,3],"right_children":[2,4,-1,6,-1,-1,-1],"split_conditions":[1.1337036E0,9.395476E-1,4.732593E-2,1.1337036E0,1.8983262E-2,-5.7726003E-2,-6.2267827E-3],"split_indices":[56,99,0,66,0,0,0],"split_type":[0,0,0,0,0,0,0],"sum_hessian":[5.457571E0,3.8632884E0,1.5942827E0,2.7980347E0,1.0652537E0,1.7633551E0,1.0346794E0],"tree_param":{"num_deleted":"0","num_feature":"100","num_nodes":"7","size_leaf_vector":"1"}},{"base_weights":[-3.3575306E-3,-7.563777E-2,4.6940573E-2,-1.4766277E-1,2.946071E-2,-1.047442E-2,-5.711537E-2],"categories":[],"categories_nodes":[],"categories_segments":[],"categories_sizes":[],"default_left":[0,0,0,0,0,0,0],"id":47,"left_children":[1,3,-1,5,-1,-1,-1],"loss_changes":[8.600445E-2,7.829583E-2,0E0,1.2629293E-2,0E0,0E0,0E0],"parents":[2147483647,0,0,1,1,3,3],"right_children":[2,4,-1,6,-1,-1,-1],"split_conditions":[1.2078116E0,1.4954937E0,4.6940573E-2,4.3166748E-1,2.946071E-2,-1.047442E-2,-5.711537E-2],"split_indices":[91,33,0,88,0,0,0],"split_type":[0,0,0,0,0,0,0],"sum_hessian":[5.420341E0,4.095107E0,1.325234E0,3.0019357E0,1.0931714E0,1.3242736E0,1.6776621E0],"tree_param":{"num_deleted":"0","num_feature":"100","num_nodes":"7","size_leaf_vector":"1"}},{"base_weights":[-1.029397E-3,-7.08569E-2,4.560184E-2,-1.403461E-1,2.68464E-2,-7.692459E-2,2.957234E-2],"categories":[],"categories_nodes":[],"categories_segments":[],"categories_sizes":[],"default_left":[0,0,0,0,0,0,0],"id":48,"left_children":[1,3,-1,5,-1,-1,-1],"loss_changes":[7.88319E-2,6.889024E-2,0E0,1.3388401E-1,0E0,0E0,0E0],"parents":[2147483647,0,0,1,1,3,3],"right_children":[2,4,-1,6,-1,-1,-1],"split_conditions":[1.1700712E0,1.4954937E0,4.560184E-2,1.0986123E0,2.68464E-2,-7.692459E-2,2.957234E-2],"split_indices":[17,33,0,44,0,0,0],"split_type":[0,0,0,0,0,0,0],"sum_hessian":[5.3691425E0,4.055622E0,1.3135206E0,2.9164388E0,1.1391833E0,1.9135832E0,1.0028557E0],"tree_param":{"num_deleted":"0","num_feature":"100","num_nodes":"7","size_leaf_vector":"1"}},{"base_weights":[3.0687533E-3,-7.315477E-2,4.168658E-2,-1.6917965E-1,2.9161146E-2,-1.5866172E-2,-5.9881616E-2],"categories":[],"categories_nodes":[],"categories_segments":[],"categories_sizes":[],"default_left":[0,0,0,0,0,0,0],"id":49,"left_children":[1,3,-1,5,-1,-1,-1],"loss_changes":[7.5487144E-2,9.325476E-2,0E0,1.3592914E-3,0E0,0E0,0E0],"parents":[2147483647,0,0,1,1,3,3],"right_children":[2,4,-1,6,-1,-1,-1],"split_conditions":[1.3523928E0,1.1337036E0,4.168658E-2,4.3166748E-1,2.9161146E-2,-1.5866172E-2,-5.9881616E-2],"split_indices":[38,66,0,88,0,0,0],"split_type":[0,0,0,0,0,0,0],"sum_hessian":[5.306574E0,3.6953628E0,1.611211E0,2.3676984E0,1.3276645E0,1.0588458E0,1.3088527E0],"tree_param":{"num_deleted":"0","num_feature":"100","num_nodes":"7","size_leaf_vector":"1"}},{"base_weights":[1.337781E-3,-5.962079E-2,4.816058E-2,-1.4605582E-1,4.5445222E-2,-8.094869E-2,3.272722E-2],"categories":[],"categories_nodes":[],"categories_segments":[],"categories_sizes":[],"default_left":[0,0,0,0,0,0,0],"id":50,"left_children":[1,3,-1,5,-1,-1,-1],"loss_changes":[7.042892E-2,1.181748E-1,0E0,1.6345838E-1,0E0,0E0,0E0],"parents":[2147483647,0,0,1,1,3,3],"right_children":[2,4,-1,6,-1,-1,-1],"split_conditions":[1.7578579E0,1.3978552E0,4.816058E-2,1.1337036E0,4.5445222E-2,-8.094869E-2,3.272722E-2],"split_indices":[43,12,0,3,0,0,0],"split_type":[0,0,0,0,0,0,0],"sum_hessian":[5.27111E0,4.2639036E0,1.0072067E0,3.243867E0,1.0200365E0,2.145518E0,1.0983489E0],"tree_param":{"num_deleted":"0","num_feature":"100","num_nodes":"7","size_leaf_vector":"1"}},{"base_weights":[8.0401795E-3,7.102405E-2,-4.6802726E-2,1.5408535E-1,-3.7759215E-2,8.529397E-2,-2.5148263E-2],"categories":[],"categories_nodes":[],"categories_segments":[],"categories_sizes":[],"default_left":[0,0,0,0,0,0,0],"id":51,"left_children":[1,3,-1,5,-1,-1,-1],"loss_changes":[7.504065E-2,1.0378078E-1,0E0,1.5020259E-1,0E0,0E0,0E0],"parents":[2147483647,0,0,1,1,3,3],"right_children":[2,4,-1,6,-1,-1,-1],"split_conditions":[1.6326947E0,1.3748657E0,-4.6802726E-2,1.116004E0,-3.7759215E-2,8.529397E-2,-2.5148263E-2],"split_indices":[73,46,0,67,0,0,0],"split_type":[0,0,0,0,0,0,0],"sum_hessian":[5.1902275E0,4.16009E0,1.0301379E0,3.078681E0,1.0814089E0,1.8635739E0,1.215107E0],"tree_param":{"num_deleted":"0","num_feature":"100","num_nodes":"7","size_leaf_vector":"1"}},{"base_weights":[2.001185E-3,-6.320316E-2,4.2605747E-2,2.4785511E-2,-5.4599434E-2,-1.2524704E-2,3.0232778E-2],"categories":[],"categories_nodes":[],"categories_segments":[],"categories_sizes":[],"default_left":[0,0,0,0,0,0,0],"id":52,"left_children":[1,3,-1,5,-1,-1,-1],"loss_changes":[6.4857535E-2,5.5395123E-2,0E0,2.2797143E-2,0E0,0E0,0E0],"parents":[2147483647,0,0,1,1,3,3],"right_children":[2,4,-1,6,-1,-1,-1],"split_conditions":[1.1700712E0,1.2078116E0,4.2605747E-2,1.116004E0,-5.4599434E-2,-1.2524704E-2,3.0232778E-2],"split_indices":[17,35,0,67,0,0,0],"split_type":[0,0,0,0,0,0,0],"sum_hessian":[5.1207914E0,3.868086E0,1.2527052E0,2.6768005E0,1.1912857E0,1.6674455E0,1.009355E0],"tree_param":{"num_deleted":"0","num_feature":"100","num_nodes":"7","size_leaf_vector":"1"}},{"base_weights":[2.3283632E-3,6.185133E-2,-4.4266094E-2,-6.7493916E-2,8.088729E-2,-3.579326E-2,9.389196E-3],"categories":[],"categories_nodes":[],"categories_segments":[],"categories_sizes":[],"default_left":[0,0,0,0,0,0,0],"id":53,"left_children":[1,3,-1,5,-1,-1,-1],"loss_changes":[6.344037E-2,1.5424076E-1,0E0,2.3799317E-2,0E0,0E0,0E0],"parents":[2147483647,0,0,1,1,3,3],"right_children":[2,4,-1,6,-1,-1,-1],"split_conditions":[1.8632184E0,1.3523928E0,-4.4266094E-2,1.1337036E0,8.088729E-2,-3.579326E-2,9.389196E-3],"split_indices":[92,38,0,66,0,0,0],"split_type":[0,0,0,0,0,0,0],"sum_hessian":[5.0880413E0,4.06216E0,1.0258813E0,2.9197059E0,1.1424539E0,1.7789323E0,1.1407737E0],"tree_param":{"num_deleted":"0","num_feature":"100","num_nodes":"7","size_leaf_vector":"1"}},{"base_weights":[3.510872E-3,-6.566608E-2,3.980605E-2,4.3221824E-3,-4.344573E-2,-1.1298027E-2,1.4803038E-2],"categories":[],"categories_nodes":[],"categories_segments":[],"categories_sizes":[],"default_left":[0,0,0,0,0,0,0],"id":54,"left_children":[1,3,-1,5,-1,-1,-1],"loss_changes":[6.265961E-2,2.6111672E-2,0E0,8.308452E-3,0E0,0E0,0E0],"parents":[2147483647,0,0,1,1,3,3],"right_children":[2,4,-1,6,-1,-1,-1],"split_conditions":[1.1337036E0,1.116004E0,3.980605E-2,1.267235E0,-4.344573E-2,-1.1298027E-2,1.4803038E-2],"split_indices":[56,67,0,36,0,0,0],"split_type":[0,0,0,0,0,0,0],"sum_hessian":[5.0369954E0,3.6004946E0,1.4365007E0,2.4126174E0,1.187877E0,1.3330525E0,1.0795649E0],"tree_param":{"num_deleted":"0","num_feature":"100","num_nodes":"7","size_leaf_vector":"1"}},{"base_weights":[2.447234E-3,-5.9150103E-2,3.9557196E-2,-1.297384E-1,2.9386424E-2,-3.5336812E-3,-5.1588565E-2],"categories":[],"categories_nodes":[],"categories_segments":[],"categories_sizes":[],"default_left":[0,0,0,0,0,0,0],"id":55,"left_children":[1,3,-1,5,-1,-1,-1],"loss_changes":[5.5718463E-2,6.553077E-2,0E0,1.6486138E-2,0E0,0E0,0E0],"parents":[2147483647,0,0,1,1,3,3],"right_children":[2,4,-1,6,-1,-1,-1],"split_conditions":[1.5755364E0,1.0986123E0,3.9557196E-2,4.3166748E-1,2.9386424E-2,-3.5336812E-3,-5.1588565E-2],"split_indices":[4,44,0,88,0,0,0],"split_type":[0,0,0,0,0,0,0],"sum_hessian":[5.011439E0,3.763156E0,1.2482828E0,2.716711E0,1.046445E0,1.0532417E0,1.6634692E0],"tree_param":{"num_deleted":"0","num_feature":"100","num_nodes":"7","size_leaf_vector":"1"}},{"base_weights":[4.000131E-3,-5.263205E-2,4.1910607E-2,-1.3885029E-1,3.6492597E-2,3.3364566E-3,-7.757067E-2],"categories":[],"categories_nodes":[],"categories_segments":[],"categories_sizes":[],"default_left":[0,0,0,0,0,0,0],"id":56,"left_children":[1,3,-1,5,-1,-1,-1],"loss_changes":[5.3300437E-2,9.118727E-2,0E0,7.0654854E-2,0E0,0E0,0E0],"parents":[2147483647,0,0,1,1,3,3],"right_children":[2,4,-1,6,-1,-1,-1],"split_conditions":[1.3978552E0,1.3523928E0,4.1910607E-2,6.157605E-1,3.6492597E-2,3.3364566E-3,-7.757067E-2],"split_indices":[12,38,0,63,0,0,0],"split_type":[0,0,0,0,0,0,0],"sum_hessian":[4.9787993E0,3.944711E0,1.0340883E0,2.7750707E0,1.1696404E0,1.634558E0,1.1405126E0],"tree_param":{"num_deleted":"0","num_feature":"100","num_nodes":"7","size_leaf_vector":"1"}},{"base_weights":[3.3576188E-3,-5.208951E-2,3.6329046E-2,-1.08457275E-1,2.2923969E-2,-8.529791E-3,-4.0908404E-2],"categories":[],"categories_nodes":[],"categories_segments":[],"categories_sizes":[],"default_left":[0,0,0,0,0,0,0],"id":57,"left_children":[1,3,-1,5,-1,-1,-1],"loss_changes":[4.5007706E-2,4.2544086E-2,0E0,4.386548E-3,0E0,0E0,0E0],"parents":[2147483647,0,0,1,1,3,3],"right_children":[2,4,-1,6,-1,-1,-1],"split_conditions":[1.2078116E0,1.4954937E0,3.6329046E-2,4.3166748E-1,2.2923969E-2,-8.529791E-3,-4.0908404E-2],"split_indices":[91,33,0,88,0,0,0],"split_type":[0,0,0,0,0,0,0],"sum_hessian":[4.92801E0,3.729334E0,1.198676E0,2.7006748E0,1.0286593E0,1.2202178E0,1.4804568E0],"tree_param":{"num_deleted":"0","num_feature":"100","num_nodes":"7","size_leaf_vector":"1"}},{"base_weights":[4.016368E-3,6.1305393E-2,-3.391336E-2,1.2823845E-1,-2.4293832E-2,7.2308354E-2,-1.5121364E-2],"categories":[],"categories_nodes":[],"categories_segments":[],"categories_sizes":[],"default_left":[0,0,0,0,0,0,0],"id":58,"left_children":[1,3,-1,5,-1,-1,-1],"loss_changes":[4.648193E-2,5.427081E-2,0E0,8.3093174E-2,0E0,0E0,0E0],"parents":[2147483647,0,0,1,1,3,3],"right_children":[2,4,-1,6,-1,-1,-1],"split_conditions":[1.4454832E0,1.2078116E0,-3.391336E-2,1.267235E0,-2.4293832E-2,7.2308354E-2,-1.5121364E-2],"split_indices":[37,35,0,36,0,0,0],"split_type":[0,0,0,0,0,0,0],"sum_hessian":[4.897687E0,3.6081643E0,1.2895229E0,2.5209765E0,1.0871876E0,1.3312522E0,1.1897244E0],"tree_param":{"num_deleted":"0","num_feature":"100","num_nodes":"7","size_leaf_vector":"1"}},{"base_weights":[2.809912E-3,5.73325E-2,-3.829562E-2,1.6942912E-1,-5.3698465E-2,8.86276E-2,-2.625296E-2],"categories":[],"categories_nodes":[],"categories_segments":[],"categories_sizes":[],"default_left":[0,0,0,0,0,0,0],"id":59,"left_children":[1,3,-1,5,-1,-1,-1],"loss_changes":[4.9006835E-2,1.5810639E-1,0E0,1.483963E-1,0E0,0E0,0E0],"parents":[2147483647,0,0,1,1,3,3],"right_children":[2,4,-1,6,-1,-1,-1],"split_conditions":[1.2878543E0,1.4454832E0,-3.829562E-2,1.2078116E0,-5.3698465E-2,8.86276E-2,-2.625296E-2],"split_indices":[68,37,0,35,0,0,0],"split_type":[0,0,0,0,0,0,0],"sum_hessian":[4.860747E0,3.8234117E0,1.0373354E0,2.785328E0,1.0380838E0,1.7683752E0,1.0169529E0],"tree_param":{"num_deleted":"0","num_feature":"100","num_nodes":"7","size_leaf_vector":"1"}},{"base_weights":[-2.8132796E-3,5.385514E-2,-4.036802E-2,5.52803E-2,-4.0594358E-2],"categories":[],"categories_nodes":[],"categories_segments":[],"categories_sizes":[],"default_left":[0,0,0,0,0],"id":60,"left_children":[1,3,-1,-1,-1],"loss_changes":[5.0450936E-2,1.4237775E-1,0E0,0E0,0E0],"parents":[2147483647,0,0,1,1],"right_children":[2,4,-1,-1,-1],"split_conditions":[1.3748657E0,1.116004E0,-4.036802E-2,5.52803E-2,-4.0594358E-2],"split_indices":[46,67,0,0,0],"split_type":[0,0,0,0,0],"sum_hessian":[4.7868824E0,3.7605672E0,1.0263155E0,2.241324E0,1.5192432E0],"tree_param":{"num_deleted":"0","num_feature":"100","num_nodes":"5","size_leaf_vector":"1"}},{"base_weights":[-6.392636E-3,-7.131004E-2,3.5749383E-2,-3.764134E-2,1.074948E-2],"categories":[],"categories_nodes":[],"categories_segments":[],"categories_sizes":[],"default_left":[0,0,0,0,0],"id":61,"left_children":[1,3,-1,-1,-1],"loss_changes":[5.533063E-2,3.0104801E-2,0E0,0E0,0E0],"parents":[2147483647,0,0,1,1],"right_children":[2,4,-1,-1,-1],"split_conditions":[1.1337036E0,1.1337036E0,3.5749383E-2,-3.764134E-2,1.074948E-2],"split_indices":[56,66,0,0,0],"split_type":[0,0,0,0,0],"sum_hessian":[4.7457805E0,3.4131274E0,1.3326528E0,2.1534576E0,1.2596698E0],"tree_param":{"num_deleted":"0","num_feature":"100","num_nodes":"5","size_leaf_vector":"1"}},{"base_weights":[-2.952815E-3,-6.0456E-2,3.6791153E-2,-1.1560792E-1,1.817525E-2,6.8136235E-3,-5.632158E-2],"categories":[],"categories_nodes":[],"categories_segments":[],"categories_sizes":[],"default_left":[0,0,0,0,0,0,0],"id":62,"left_children":[1,3,-1,5,-1,-1,-1],"loss_changes":[4.8745528E-2,3.7681684E-2,0E0,3.9192412E-2,0E0,0E0,0E0],"parents":[2147483647,0,0,1,1,3,3],"right_children":[2,4,-1,6,-1,-1,-1],"split_conditions":[1.2078116E0,1.0986123E0,3.6791153E-2,4.3166748E-1,1.817525E-2,6.8136235E-3,-5.632158E-2],"split_indices":[91,44,0,88,0,0,0],"split_type":[0,0,0,0,0,0,0],"sum_hessian":[4.7231207E0,3.5954955E0,1.1276252E0,2.5008593E0,1.0946361E0,1.091977E0,1.4088824E0],"tree_param":{"num_deleted":"0","num_feature":"100","num_nodes":"7","size_leaf_vector":"1"}},{"base_weights":[-1.1922502E-3,-5.506126E-2,3.1936556E-2,-1.2465699E-1,2.0819368E-2,-1.1083616E-2,-4.4936962E-2],"categories":[],"categories_nodes":[],"categories_segments":[],"categories_sizes":[],"default_left":[0,0,0,0,0,0,0],"id":63,"left_children":[1,3,-1,5,-1,-1,-1],"loss_changes":[3.8850997E-2,4.7201857E-2,0E0,1.5468597E-3,0E0,0E0,0E0],"parents":[2147483647,0,0,1,1,3,3],"right_children":[2,4,-1,6,-1,-1,-1],"split_conditions":[1.4954937E0,9.395476E-1,3.1936556E-2,1.267235E0,2.0819368E-2,-1.1083616E-2,-4.4936962E-2],"split_indices":[33,99,0,36,0,0,0],"split_type":[0,0,0,0,0,0,0],"sum_hessian":[4.688953E0,3.4506698E0,1.238283E0,2.2121038E0,1.2385657E0,1.0428051E0,1.1692989E0],"tree_param":{"num_deleted":"0","num_feature":"100","num_nodes":"7","size_leaf_vector":"1"}},{"base_weights":[-1.4327038E-3,-5.4032914E-2,3.3059407E-2,-1.11137085E-1,2.1589879E-2,-4.95138E-4,-5.2003816E-2],"categories":[],"categories_nodes":[],"categories_segments":[],"categories_sizes":[],"default_left":[0,0,0,0,0,0,0],"id":64,"left_children":[1,3,-1,5,-1,-1,-1],"loss_changes":[3.923109E-2,4.0542215E-2,0E0,2.3590207E-2,0E0,0E0,0E0],"parents":[2147483647,0,0,1,1,3,3],"right_children":[2,4,-1,6,-1,-1,-1],"split_conditions":[1.5755364E0,1.267235E0,3.3059407E-2,4.3166748E-1,2.1589879E-2,-4.95138E-4,-5.2003816E-2],"split_indices":[4,36,0,88,0,0,0],"split_type":[0,0,0,0,0,0,0],"sum_hessian":[4.6672187E0,3.523105E0,1.1441137E0,2.505527E0,1.0175778E0,1.2797396E0,1.2257874E0],"tree_param":{"num_deleted":"0","num_feature":"100","num_nodes":"7","size_leaf_vector":"1"}},{"base_weights":[-6.8253424E-4,-5.0784674E-2,3.2773778E-2,3.69008E-3,-3.908376E-2],"categories":[],"categories_nodes":[],"categories_segments":[],"categories_sizes":[],"default_left":[0,0,0,0,0],"id":65,"left_children":[1,3,-1,-1,-1],"loss_changes":[3.660701E-2,2.4452265E-2,0E0,0E0,0E0],"parents":[2147483647,0,0,1,1],"right_children":[2,4,-1,-1,-1],"split_conditions":[1.1700712E0,1.2078116E0,3.2773778E-2,3.69008E-3,-3.908376E-2],"split_indices":[17,35,0,0,0],"split_type":[0,0,0,0,0],"sum_hessian":[4.639244E0,3.5563745E0,1.0828696E0,2.4541163E0,1.1022583E0],"tree_param":{"num_deleted":"0","num_feature":"100","num_nodes":"5","size_leaf_vector":"1"}},{"base_weights":[-9.512271E-4,-5.6167856E-2,2.7585955E-2,-4.109432E-2,2.7970627E-2],"categories":[],"categories_nodes":[],"categories_segments":[],"categories_sizes":[],"default_left":[0,0,0,0,0],"id":66,"left_children":[1,3,-1,-1,-1],"loss_changes":[3.4013547E-2,6.2854394E-2,0E0,0E0,0E0],"parents":[2147483647,0,0,1,1],"right_children":[2,4,-1,-1,-1],"split_conditions":[1.1337036E0,1.3523928E0,2.7585955E-2,-4.109432E-2,2.7970627E-2],"split_indices":[66,38,0,0,0],"split_type":[0,0,0,0,0],"sum_hessian":[4.6236796E0,3.1480794E0,1.4756002E0,2.0969634E0,1.0511159E0],"tree_param":{"num_deleted":"0","num_feature":"100","num_nodes":"5","size_leaf_vector":"1"}},{"base_weights":[1.8910897E-3,-4.7340162E-2,3.2195542E-2,-2.9935962E-2,1.4730272E-2],"categories":[],"categories_nodes":[],"categories_segments":[],"categories_sizes":[],"default_left":[0,0,0,0,0],"id":67,"left_children":[1,3,-1,-1,-1],"loss_changes":[3.4159392E-2,2.7726416E-2,0E0,0E0,0E0],"parents":[2147483647,0,0,1,1],"right_children":[2,4,-1,-1,-1],"split_conditions":[1.2078116E0,1.267235E0,3.2195542E-2,-2.9935962E-2,1.4730272E-2],"split_indices":[91,36,0,0,0],"split_type":[0,0,0,0,0],"sum_hessian":[4.6025267E0,3.5130243E0,1.0895023E0,2.2530735E0,1.2599509E0],"tree_param":{"num_deleted":"0","num_feature":"100","num_nodes":"5","size_leaf_vector":"1"}},{"base_weights":[4.3739164E-3,-4.955864E-2,2.886573E-2,-2.5125002E-2,5.594875E-3],"categories":[],"categories_nodes":[],"categories_segments":[],"categories_sizes":[],"default_left":[0,0,0,0,0],"id":68,"left_children":[1,3,-1,-1,-1],"loss_changes":[3.2430984E-2,1.130665E-2,0E0,0E0,0E0],"parents":[2147483647,0,0,1,1],"right_children":[2,4,-1,-1,-1],"split_conditions":[1.1337036E0,1.267235E0,2.886573E-2,-2.5125002E-2,5.594875E-3],"split_indices":[3,36,0,0,0],"split_type":[0,0,0,0,0],"sum_hessian":[4.5844955E0,3.1784716E0,1.4060242E0,1.9653996E0,1.2130718E0],"tree_param":{"num_deleted":"0","num_feature":"100","num_nodes":"5","size_leaf_vector":"1"}},{"base_weights":[4.7515505E-3,-4.4795133E-2,2.9159114E-2,5.4692896E-3,-3.4614444E-2],"categories":[],"categories_nodes":[],"categories_segments":[],"categories_sizes":[],"default_left":[0,0,0,0,0],"id":69,"left_children":[1,3,-1,-1,-1],"loss_changes":[2.9867854E-2,2.1282699E-2,0E0,0E0,0E0],"parents":[2147483647,0,0,1,1],"right_children":[2,4,-1,-1,-1],"split_conditions":[1.1337036E0,1.267235E0,2.9159114E-2,5.4692896E-3,-3.4614444E-2],"split_indices":[56,10,0,0,0],"split_type":[0,0,0,0,0],"sum_hessian":[4.570274E0,3.3111088E0,1.2591648E0,2.1410766E0,1.1700325E0],"tree_param":{"num_deleted":"0","num_feature":"100","num_nodes":"5","size_leaf_vector":"1"}},{"base_weights":[3.3392054E-3,5.153134E-2,-2.8036864E-2,3.4645073E-2,-2.2336662E-2],"categories":[],"categories_nodes":[],"categories_segments":[],"categories_sizes":[],"default_left":[0,0,0,0,0],"id":70,"left_children":[1,3,-1,-1,-1],"loss_changes":[3.0748917E-2,4.3695696E-2,0E0,0E0,0E0],"parents":[2147483647,0,0,1,1],"right_children":[2,4,-1,-1,-1],"split_conditions":[1.4454832E0,1.0319209E0,-2.8036864E-2,3.4645073E-2,-2.2336662E-2],"split_indices":[37,9,0,0,0],"split_type":[0,0,0,0,0],"sum_hessian":[4.55932E0,3.3560493E0,1.2032708E0,2.2813704E0,1.0746788E0],"tree_param":{"num_deleted":"0","num_feature":"100","num_nodes":"5","size_leaf_vector":"1"}},{"base_weights":[-4.750251E-4,-5.1697064E-2,2.6201466E-2,2.6686464E-2,-5.0700985E-2],"categories":[],"categories_nodes":[],"categories_segments":[],"categories_sizes":[],"default_left":[0,0,0,0,0],"id":71,"left_children":[1,3,-1,-1,-1],"loss_changes":[2.9445494E-2,8.315628E-2,0E0,0E0,0E0],"parents":[2147483647,0,0,1,1],"right_children":[2,4,-1,-1,-1],"split_conditions":[9.395476E-1,6.157605E-1,2.6201466E-2,2.6686464E-2,-5.0700985E-2],"split_indices":[99,63,0,0,0],"split_type":[0,0,0,0,0],"sum_hessian":[4.5425773E0,3.1288073E0,1.4137698E0,1.5327288E0,1.5960785E0],"tree_param":{"num_deleted":"0","num_feature":"100","num_nodes":"5","size_leaf_vector":"1"}},{"base_weights":[6.8388185E-6,-5.2202445E-2,3.1075612E-2,-3.4789056E-2,1.8784016E-2],"categories":[],"categories_nodes":[],"categories_segments":[],"categories_sizes":[],"default_left":[0,0,0,0,0],"id":72,"left_children":[1,3,-1,-1,-1],"loss_changes":[3.5235107E-2,3.897555E-2,0E0,0E0,0E0],"parents":[2147483647,0,0,1,1],"right_children":[2,4,-1,-1,-1],"split_conditions":[1.4954937E0,9.395476E-1,3.1075612E-2,-3.4789056E-2,1.8784016E-2],"split_indices":[33,99,0,0,0],"split_type":[0,0,0,0,0],"sum_hessian":[4.51572E0,3.332146E0,1.1835741E0,2.135973E0,1.196173E0],"tree_param":{"num_deleted":"0","num_feature":"100","num_nodes":"5","size_leaf_vector":"1"}},{"base_weights":[2.7384458E-3,-5.2198388E-2,2.795125E-2,-3.4876198E-2,2.09882E-2],"categories":[],"categories_nodes":[],"categories_segments":[],"categories_sizes":[],"default_left":[0,0,0,0,0],"id":73,"left_children":[1,3,-1,-1,-1],"loss_changes":[3.2173693E-2,3.990765E-2,0E0,0E0,0E0],"parents":[2147483647,0,0,1,1],"right_children":[2,4,-1,-1,-1],"split_conditions":[1.1337036E0,1.3523928E0,2.795125E-2,-3.4876198E-2,2.09882E-2],"split_indices":[66,38,0,0,0],"split_type":[0,0,0,0,0],"sum_hessian":[4.497171E0,3.0606472E0,1.4365239E0,2.0395324E0,1.0211148E0],"tree_param":{"num_deleted":"0","num_feature":"100","num_nodes":"5","size_leaf_vector":"1"}},{"base_weights":[4.479134E-3,-4.1878153E-2,2.9958593E-2,8.085572E-3,-2.4981322E-2],"categories":[],"categories_nodes":[],"categories_segments":[],"categories_sizes":[],"default_left":[0,0,0,0,0],"id":74,"left_children":[1,3,-1,-1,-1],"loss_changes":[2.8417623E-2,1.476026E-2,0E0,0E0,0E0],"parents":[2147483647,0,0,1,1],"right_children":[2,4,-1,-1,-1],"split_conditions":[1.5755364E0,6.157605E-1,2.9958593E-2,8.085572E-3,-2.4981322E-2],"split_indices":[4,63,0,0,0],"split_type":[0,0,0,0,0],"sum_hessian":[4.4810696E0,3.3929827E0,1.0880867E0,1.4052104E0,1.9877725E0],"tree_param":{"num_deleted":"0","num_feature":"100","num_nodes":"5","size_leaf_vector":"1"}},{"base_weights":[5.5377763E-3,5.0008558E-2,-2.5140783E-2,3.539172E-2,-1.9285392E-2],"categories":[],"categories_nodes":[],"categories_segments":[],"categories_sizes":[],"default_left":[0,0,0,0,0],"id":75,"left_children":[1,3,-1,-1,-1],"loss_changes":[2.59151E-2,4.080662E-2,0E0,0E0,0E0],"parents":[2147483647,0,0,1,1],"right_children":[2,4,-1,-1,-1],"split_conditions":[1.4454832E0,1.0986123E0,-2.5140783E-2,3.539172E-2,-1.9285392E-2],"split_indices":[37,44,0,0,0],"split_type":[0,0,0,0,0],"sum_hessian":[4.4679217E0,3.2769885E0,1.1909332E0,2.0348094E0,1.2421793E0],"tree_param":{"num_deleted":"0","num_feature":"100","num_nodes":"5","size_leaf_vector":"1"}},{"base_weights":[2.2503154E-3,-4.7633238E-2,2.8735615E-2,1.927879E-2,-3.8886175E-2,-8.206539E-3,1.796604E-2],"categories":[],"categories_nodes":[],"categories_segments":[],"categories_sizes":[],"default_left":[0,0,0,0,0,0,0],"id":76,"left_children":[1,3,-1,5,-1,-1,-1],"loss_changes":[3.001255E-2,2.5678154E-2,0E0,7.692438E-3,0E0,0E0,0E0],"parents":[2147483647,0,0,1,1,3,3],"right_children":[2,4,-1,6,-1,-1,-1],"split_conditions":[1.1337036E0,1.116004E0,2.8735615E-2,1.267235E0,-3.8886175E-2,-8.206539E-3,1.796604E-2],"split_indices":[56,67,0,36,0,0,0],"split_type":[0,0,0,0,0,0,0],"sum_hessian":[4.454509E0,3.2252061E0,1.2293028E0,2.1970181E0,1.0281878E0,1.1745431E0,1.0224751E0],"tree_param":{"num_deleted":"0","num_feature":"100","num_nodes":"7","size_leaf_vector":"1"}},{"base_weights":[1.4969644E-3,-4.1658986E-2,2.8118161E-2,-9.316323E-2,1.9001802E-2,-5.4759715E-2,1.5768478E-2],"categories":[],"categories_nodes":[],"categories_segments":[],"categories_sizes":[],"default_left":[0,0,0,0,0,0,0],"id":77,"left_children":[1,3,-1,5,-1,-1,-1],"loss_changes":[2.5546683E-2,2.9676063E-2,0E0,5.327812E-2,0E0,0E0,0E0],"parents":[2147483647,0,0,1,1,3,3],"right_children":[2,4,-1,6,-1,-1,-1],"split_conditions":[1.6326947E0,1.3523928E0,2.8118161E-2,1.1337036E0,1.9001802E-2,-5.4759715E-2,1.5768478E-2],"split_indices":[60,38,0,66,0,0,0],"split_type":[0,0,0,0,0,0,0],"sum_hessian":[4.437327E0,3.3964095E0,1.0409172E0,2.3542898E0,1.0421197E0,1.3027596E0,1.0515302E0],"tree_param":{"num_deleted":"0","num_feature":"100","num_nodes":"7","size_leaf_vector":"1"}},{"base_weights":[2.4884348E-3,-4.210584E-2,2.9620966E-2,4.202419E-3,-3.425278E-2],"categories":[],"categories_nodes":[],"categories_segments":[],"categories_sizes":[],"default_left":[0,0,0,0,0],"id":78,"left_children":[1,3,-1,-1,-1],"loss_changes":[2.7393218E-2,1.9395864E-2,0E0,0E0,0E0],"parents":[2147483647,0,0,1,1],"right_children":[2,4,-1,-1,-1],"split_conditions":[1.1700712E0,1.2078116E0,2.9620966E-2,4.202419E-3,-3.425278E-2],"split_indices":[17,35,0,0,0],"split_type":[0,0,0,0,0],"sum_hessian":[4.4136095E0,3.4005663E0,1.0130433E0,2.3648908E0,1.0356753E0],"tree_param":{"num_deleted":"0","num_feature":"100","num_nodes":"5","size_leaf_vector":"1"}},{"base_weights":[1.6637684E-3,-4.1066565E-2,2.5689306E-2,-3.2388873E-2,2.2028094E-2],"categories":[],"categories_nodes":[],"categories_segments":[],"categories_sizes":[],"default_left":[0,0,0,0,0],"id":79,"left_children":[1,3,-1,-1,-1],"loss_changes":[2.2897234E-2,4.052274E-2,0E0,0E0,0E0],"parents":[2147483647,0,0,1,1],"right_children":[2,4,-1,-1,-1],"split_conditions":[1.4954937E0,1.0986123E0,2.5689306E-2,-3.2388873E-2,2.2028094E-2],"split_indices":[33,44,0,0,0],"split_type":[0,0,0,0,0],"sum_hessian":[4.4015994E0,3.2557123E0,1.1458873E0,2.0910134E0,1.164699E0],"tree_param":{"num_deleted":"0","num_feature":"100","num_nodes":"5","size_leaf_vector":"1"}},{"base_weights":[4.0063127E-3,-4.1014392E-2,2.3717595E-2,-2.1210652E-2,5.234274E-3],"categories":[],"categories_nodes":[],"categories_segments":[],"categories_sizes":[],"default_left":[0,0,0,0,0],"id":80,"left_children":[1,3,-1,-1,-1],"loss_changes":[2.1443324E-2,8.21998E-3,0E0,0E0,0E0],"parents":[2147483647,0,0,1,1],"right_children":[2,4,-1,-1,-1],"split_conditions":[1.1337036E0,1.267235E0,2.3717595E-2,-2.1210652E-2,5.234274E-3],"split_indices":[3,36,0,0,0],"split_type":[0,0,0,0,0],"sum_hessian":[4.386585E0,3.025337E0,1.3612483E0,1.8675829E0,1.1577541E0],"tree_param":{"num_deleted":"0","num_feature":"100","num_nodes":"5","size_leaf_vector":"1"}},{"base_weights":[4.2531346E-3,4.609524E-2,-2.3898898E-2,3.3338442E-2,-2.1248017E-2],"categories":[],"categories_nodes":[],"categories_segments":[],"categories_sizes":[],"default_left":[0,0,0,0,0],"id":81,"left_children":[1,3,-1,-1,-1],"loss_changes":[2.2549529E-2,3.996616E-2,0E0,0E0,0E0],"parents":[2147483647,0,0,1,1],"right_children":[2,4,-1,-1,-1],"split_conditions":[1.4454832E0,1.267235E0,-2.3898898E-2,3.3338442E-2,-2.1248017E-2],"split_indices":[37,10,0,0,0],"split_type":[0,0,0,0,0],"sum_hessian":[4.3763094E0,3.2209725E0,1.155337E0,2.1015995E0,1.119373E0],"tree_param":{"num_deleted":"0","num_feature":"100","num_nodes":"5","size_leaf_vector":"1"}},{"base_weights":[7.954596E-4,-4.238264E-2,2.76934E-2,-9.708828E-2,2.0282619E-2,5.4482366E-3,-4.7033302E-2],"categories":[],"categories_nodes":[],"categories_segments":[],"categories_sizes":[],"default_left":[0,0,0,0,0,0,0],"id":82,"left_children":[1,3,-1,5,-1,-1,-1],"loss_changes":[2.5119752E-2,3.2629274E-2,0E0,2.5572298E-2,0E0,0E0,0E0],"parents":[2147483647,0,0,1,1,3,3],"right_children":[2,4,-1,6,-1,-1,-1],"split_conditions":[1.2078116E0,1.0986123E0,2.76934E-2,4.3166748E-1,2.0282619E-2,5.4482366E-3,-4.7033302E-2],"split_indices":[91,44,0,88,0,0,0],"split_type":[0,0,0,0,0,0,0],"sum_hessian":[4.3669376E0,3.3318293E0,1.0351081E0,2.3034759E0,1.0283536E0,1.023341E0,1.2801349E0],"tree_param":{"num_deleted":"0","num_feature":"100","num_nodes":"7","size_leaf_vector":"1"}},{"base_weights":[1.708597E-3,-4.016218E-2,2.4039952E-2,4.879007E-3,-3.0478526E-2],"categories":[],"categories_nodes":[],"categories_segments":[],"categories_sizes":[],"default_left":[0,0,0,0,0],"id":83,"left_children":[1,3,-1,-1,-1],"loss_changes":[2.0766107E-2,1.6037807E-2,0E0,0E0,0E0],"parents":[2147483647,0,0,1,1],"right_children":[2,4,-1,-1,-1],"split_conditions":[1.1337036E0,1.267235E0,2.4039952E-2,4.879007E-3,-3.0478526E-2],"split_indices":[56,10,0,0,0],"split_type":[0,0,0,0,0],"sum_hessian":[4.343909E0,3.1500103E0,1.1938986E0,2.025174E0,1.1248364E0],"tree_param":{"num_deleted":"0","num_feature":"100","num_nodes":"5","size_leaf_vector":"1"}},{"base_weights":[9.073086E-4,-3.88839E-2,2.5145682E-2,9.609497E-3,-2.4527289E-2],"categories":[],"categories_nodes":[],"categories_segments":[],"categories_sizes":[],"default_left":[0,0,0,0,0],"id":84,"left_children":[1,3,-1,-1,-1],"loss_changes":[2.086481E-2,1.5659072E-2,0E0,0E0,0E0],"parents":[2147483647,0,0,1,1],"right_children":[2,4,-1,-1,-1],"split_conditions":[1.5755364E0,6.157605E-1,2.5145682E-2,9.609497E-3,-2.4527289E-2],"split_indices":[4,63,0,0,0],"split_type":[0,0,0,0,0],"sum_hessian":[4.3363996E0,3.2889676E0,1.0474318E0,1.3345051E0,1.9544625E0],"tree_param":{"num_deleted":"0","num_feature":"100","num_nodes":"5","size_leaf_vector":"1"}},{"base_weights":[2.5573056E-3,4.259506E-2,-2.3212198E-2,3.5680138E-2,-2.349819E-2],"categories":[],"categories_nodes":[],"categories_segments":[],"categories_sizes":[],"default_left":[0,0,0,0,0],"id":85,"left_children":[1,3,-1,-1,-1],"loss_changes":[2.0337127E-2,4.8019785E-2,0E0,0E0,0E0],"parents":[2147483647,0,0,1,1],"right_children":[2,4,-1,-1,-1],"split_conditions":[1.4454832E0,1.0986123E0,-2.3212198E-2,3.5680138E-2,-2.349819E-2],"split_indices":[37,44,0,0,0],"split_type":[0,0,0,0,0],"sum_hessian":[4.324982E0,3.1928039E0,1.1321781E0,1.967291E0,1.225513E0],"tree_param":{"num_deleted":"0","num_feature":"100","num_nodes":"5","size_leaf_vector":"1"}},{"base_weights":[-2.6172522E-4,-3.8834825E-2,2.4639579E-2,-9.426207E-2,2.097314E-2,2.2610903E-3,-4.293208E-2],"categories":[],"categories_nodes":[],"categories_segments":[],"categories_sizes":[],"default_left":[0,0,0,0,0,0,0],"id":86,"left_children":[1,3,-1,5,-1,-1,-1],"loss_changes":[2.0070022E-2,3.248787E-2,0E0,1.7347556E-2,0E0,0E0,0E0],"parents":[2147483647,0,0,1,1,3,3],"right_children":[2,4,-1,6,-1,-1,-1],"split_conditions":[1.2078116E0,1.0986123E0,2.4639579E-2,4.3166748E-1,2.097314E-2,2.2610903E-3,-4.293208E-2],"split_indices":[91,44,0,88,0,0,0],"split_type":[0,0,0,0,0,0,0],"sum_hessian":[4.311357E0,3.2966683E0,1.0146886E0,2.2718804E0,1.0247879E0,1.0108446E0,1.2610359E0],"tree_param":{"num_deleted":"0","num_feature":"100","num_nodes":"7","size_leaf_vector":"1"}},{"base_weights":[7.132116E-4,-4.023165E-2,2.435548E-2,-3.058432E-2,2.0097097E-2],"categories":[],"categories_nodes":[],"categories_segments":[],"categories_sizes":[],"default_left":[0,0,0,0,0],"id":87,"left_children":[1,3,-1,-1,-1],"loss_changes":[2.070255E-2,3.4463376E-2,0E0,0E0,0E0],"parents":[2147483647,0,0,1,1],"right_children":[2,4,-1,-1,-1],"split_conditions":[1.4954937E0,9.395476E-1,2.435548E-2,-3.058432E-2,2.0097097E-2],"split_indices":[33,99,0,0,0],"split_type":[0,0,0,0,0],"sum_hessian":[4.2919145E0,3.1759899E0,1.1159248E0,2.046964E0,1.1290258E0],"tree_param":{"num_deleted":"0","num_feature":"100","num_nodes":"5","size_leaf_vector":"1"}},{"base_weights":[3.121033E-3,-3.9618857E-2,2.2446265E-2,-2.2973923E-2,8.048225E-3],"categories":[],"categories_nodes":[],"categories_segments":[],"categories_sizes":[],"default_left":[0,0,0,0,0],"id":88,"left_children":[1,3,-1,-1,-1],"loss_changes":[1.9138917E-2,1.1781617E-2,0E0,0E0,0E0],"parents":[2147483647,0,0,1,1],"right_children":[2,4,-1,-1,-1],"split_conditions":[1.1337036E0,1.267235E0,2.2446265E-2,-2.2973923E-2,8.048225E-3],"split_indices":[3,36,0,0,0],"split_type":[0,0,0,0,0],"sum_hessian":[4.278152E0,2.9607184E0,1.3174336E0,1.8044713E0,1.1562473E0],"tree_param":{"num_deleted":"0","num_feature":"100","num_nodes":"5","size_leaf_vector":"1"}},{"base_weights":[3.61669E-3,4.2829383E-2,-2.235973E-2,3.4205887E-2,-2.1142215E-2],"categories":[],"categories_nodes":[],"categories_segments":[],"categories_sizes":[],"default_left":[0,0,0,0,0],"id":89,"left_children":[1,3,-1,-1,-1],"loss_changes":[1.9335167E-2,4.1451894E-2,0E0,0E0,0E0],"parents":[2147483647,0,0,1,1],"right_children":[2,4,-1,-1,-1],"split_conditions":[1.4454832E0,1.0986123E0,-2.235973E-2,3.4205887E-2,-2.1142215E-2],"split_indices":[37,44,0,0,0],"split_type":[0,0,0,0,0],"sum_hessian":[4.267848E0,3.1428304E0,1.1250173E0,1.9262303E0,1.2166002E0],"tree_param":{"num_deleted":"0","num_feature":"100","num_nodes":"5","size_leaf_vector":"1"}},{"base_weights":[7.872253E-4,-3.7265986E-2,2.4048014E-2,-2.687808E-2,6.7561795E-3],"categories":[],"categories_nodes":[],"categories_segments":[],"categories_sizes":[],"default_left":[0,0,0,0,0],"id":90,"left_children":[1,3,-1,-1,-1],"loss_changes":[1.8861696E-2,1.526753E-2,0E0,0E0,0E0],"parents":[2147483647,0,0,1,1],"right_children":[2,4,-1,-1,-1],"split_conditions":[1.5755364E0,4.3166748E-1,2.4048014E-2,-2.687808E-2,6.7561795E-3],"split_indices":[4,88,0,0,0],"split_type":[0,0,0,0,0],"sum_hessian":[4.2557616E0,3.2352164E0,1.0205451E0,1.4593649E0,1.7758515E0],"tree_param":{"num_deleted":"0","num_feature":"100","num_nodes":"5","size_leaf_vector":"1"}},{"base_weights":[1.3015103E-3,-3.7990678E-2,2.2399519E-2,5.672354E-3,-3.017195E-2],"categories":[],"categories_nodes":[],"categories_segments":[],"categories_sizes":[],"default_left":[0,0,0,0,0],"id":91,"left_children":[1,3,-1,-1,-1],"loss_changes":[1.7964287E-2,1.6431008E-2,0E0,0E0,0E0],"parents":[2147483647,0,0,1,1],"right_children":[2,4,-1,-1,-1],"split_conditions":[1.1337036E0,1.267235E0,2.2399519E-2,5.672354E-3,-3.017195E-2],"split_indices":[56,10,0,0,0],"split_type":[0,0,0,0,0],"sum_hessian":[4.2479134E0,3.0803125E0,1.1676008E0,1.978961E0,1.1013515E0],"tree_param":{"num_deleted":"0","num_feature":"100","num_nodes":"5","size_leaf_vector":"1"}},{"base_weights":[5.1160605E-4,-3.5025895E-2,2.2571497E-2,-2.6493125E-2,7.1462034E-3],"categories":[],"categories_nodes":[],"categories_segments":[],"categories_sizes":[],"default_left":[0,0,0,0,0],"id":92,"left_children":[1,3,-1,-1,-1],"loss_changes":[1.6553376E-2,1.5380494E-2,0E0,0E0,0E0],"parents":[2147483647,0,0,1,1],"right_children":[2,4,-1,-1,-1],"split_conditions":[1.6326947E0,6.157605E-1,2.2571497E-2,-2.6493125E-2,7.1462034E-3],"split_indices":[60,63,0,0,0],"split_type":[0,0,0,0,0],"sum_hessian":[4.241031E0,3.2342236E0,1.0068074E0,1.4345633E0,1.7996604E0],"tree_param":{"num_deleted":"0","num_feature":"100","num_nodes":"5","size_leaf_vector":"1"}},{"base_weights":[9.7442436E-4,3.878098E-2,-2.173375E-2,-1.1960118E-2,4.047677E-2],"categories":[],"categories_nodes":[],"categories_segments":[],"categories_sizes":[],"default_left":[0,0,0,0,0],"id":93,"left_children":[1,3,-1,-1,-1],"loss_changes":[1.7341943E-2,3.643521E-2,0E0,0E0,0E0],"parents":[2147483647,0,0,1,1],"right_children":[2,4,-1,-1,-1],"split_conditions":[1.2078116E0,1.0986123E0,-2.173375E-2,-1.1960118E-2,4.047677E-2],"split_indices":[35,44,0,0,0],"split_type":[0,0,0,0,0],"sum_hessian":[4.235462E0,3.1072364E0,1.1282257E0,2.0310655E0,1.076171E0],"tree_param":{"num_deleted":"0","num_feature":"100","num_nodes":"5","size_leaf_vector":"1"}},{"base_weights":[2.0098255E-3,-3.9816774E-2,2.1067627E-2,1.8673798E-2,-3.0073203E-2],"categories":[],"categories_nodes":[],"categories_segments":[],"categories_sizes":[],"default_left":[0,0,0,0,0],"id":94,"left_children":[1,3,-1,-1,-1],"loss_changes":[1.7701246E-2,3.0147677E-2,0E0,0E0,0E0],"parents":[2147483647,0,0,1,1],"right_children":[2,4,-1,-1,-1],"split_conditions":[1.1337036E0,4.3166748E-1,2.1067627E-2,1.8673798E-2,-3.0073203E-2],"split_indices":[66,88,0,0,0],"split_type":[0,0,0,0,0],"sum_hessian":[4.2239456E0,2.8765125E0,1.3474329E0,1.0585325E0,1.8179802E0],"tree_param":{"num_deleted":"0","num_feature":"100","num_nodes":"5","size_leaf_vector":"1"}},{"base_weights":[3.2565568E-3,-3.6419533E-2,2.1075131E-2,-2.567816E-2,3.4765352E-3],"categories":[],"categories_nodes":[],"categories_segments":[],"categories_sizes":[],"default_left":[0,0,0,0,0],"id":95,"left_children":[1,3,-1,-1,-1],"loss_changes":[1.6413173E-2,1.0274829E-2,0E0,0E0,0E0],"parents":[2147483647,0,0,1,1],"right_children":[2,4,-1,-1,-1],"split_conditions":[1.1337036E0,4.3166748E-1,2.1075131E-2,-2.567816E-2,3.4765352E-3],"split_indices":[3,88,0,0,0],"split_type":[0,0,0,0,0],"sum_hessian":[4.2123384E0,2.9321773E0,1.2801614E0,1.0617367E0,1.8704406E0],"tree_param":{"num_deleted":"0","num_feature":"100","num_nodes":"5","size_leaf_vector":"1"}},{"base_weights":[2.0666558E-3,3.9529722E-2,-2.1631736E-2,3.235721E-2,-2.0618046E-2],"categories":[],"categories_nodes":[],"categories_segments":[],"categories_sizes":[],"default_left":[0,0,0,0,0],"id":96,"left_children":[1,3,-1,-1,-1],"loss_changes":[1.7311867E-2,3.7767977E-2,0E0,0E0,0E0],"parents":[2147483647,0,0,1,1],"right_children":[2,4,-1,-1,-1],"split_conditions":[1.4454832E0,1.0986123E0,-2.1631736E-2,3.235721E-2,-2.0618046E-2],"split_indices":[37,44,0,0,0],"split_type":[0,0,0,0,0],"sum_hessian":[4.2043786E0,3.1037772E0,1.1006013E0,1.9050595E0,1.1987177E0],"tree_param":{"num_deleted":"0","num_feature":"100","num_nodes":"5","size_leaf_vector":"1"}},{"base_weights":[-4.3990856E-4,-3.8631663E-2,2.2771671E-2,-3.0431222E-2,2.0268958E-2],"categories":[],"categories_nodes":[],"categories_segments":[],"categories_sizes":[],"default_left":[0,0,0,0,0],"id":97,"left_children":[1,3,-1,-1,-1],"loss_changes":[1.8075123E-2,3.4361795E-2,0E0,0E0,0E0],"parents":[2147483647,0,0,1,1],"right_children":[2,4,-1,-1,-1],"split_conditions":[1.4954937E0,1.0986123E0,2.2771671E-2,-3.0431222E-2,2.0268958E-2],"split_indices":[33,44,0,0,0],"split_type":[0,0,0,0,0],"sum_hessian":[4.1934056E0,3.1244109E0,1.0689946E0,1.9914355E0,1.1329753E0],"tree_param":{"num_deleted":"0","num_feature":"100","num_nodes":"5","size_leaf_vector":"1"}},{"base_weights":[2.116938E-3,-3.6691E-2,2.0150809E-2,3.011397E-2,-4.774913E-2],"categories":[],"categories_nodes":[],"categories_segments":[],"categories_sizes":[],"default_left":[0,0,0,0,0],"id":98,"left_children":[1,3,-1,-1,-1],"loss_changes":[1.5543736E-2,8.130865E-2,0E0,0E0,0E0],"parents":[2147483647,0,0,1,1],"right_children":[2,4,-1,-1,-1],"split_conditions":[9.395476E-1,6.157605E-1,2.0150809E-2,3.011397E-2,-4.774913E-2],"split_indices":[99,63,0,0,0],"split_type":[0,0,0,0,0],"sum_hessian":[4.180814E0,2.8917048E0,1.2891091E0,1.4496517E0,1.442053E0],"tree_param":{"num_deleted":"0","num_feature":"100","num_nodes":"5","size_leaf_vector":"1"}},{"base_weights":[1.9342972E-3,-4.089641E-2,2.1591727E-2,1.6989402E-2,-2.90755E-2],"categories":[],"categories_nodes":[],"categories_segments":[],"categories_sizes":[],"default_left":[0,0,0,0,0],"id":99,"left_children":[1,3,-1,-1,-1],"loss_changes":[1.841532E-2,2.6459029E-2,0E0,0E0,0E0],"parents":[2147483647,0,0,1,1],"right_children":[2,4,-1,-1,-1],"split_conditions":[1.1337036E0,4.3166748E-1,2.1591727E-2,1.6989402E-2,-2.90755E-2],"split_indices":[66,88,0,0,0],"split_type":[0,0,0,0,0],"sum_hessian":[4.1576757E0,2.8381398E0,1.3195359E0,1.0315139E0,1.806626E0],"tree_param":{"num_deleted":"0","num_feature":"100","num_nodes":"5","size_leaf_vector":"1"}}]},"name":"gbtree"},"learner_model_param":{"base_score":"4.971099E-1","boost_from_average":"1","num_class":"0","num_feature":"100","num_target":"1"},"objective":{"name":"binary:logistic","reg_loss_param":{"scale_pos_weight":"1"}}},"version":[2,1,3]}