{"learner":{"attributes":{"scikit_learn":"{\"_estimator_type\": \"classifier\"}"},"feature_names":[],"feature_types":[],"gradient_booster":{"model":{"gbtree_model_param":{"num_parallel_tree":"1","num_trees":"100"},"iteration_indptr":[0,1,2,3,4,5,6,7,8,9,10,11,12,13,14,15,16,17,18,19,20,21,22,23,24,25,26,27,28,29,30,31,32,33,34,35,36,37,38,39,40,41,42,43,44,45,46,47,48,49,50,51,52,53,54,55,56,57,58,59,60,61,62,63,64,65,66,67,68,69,70,71,72,73,74,75,76,77,78,79,80,81,82,83,84,85,86,87,88,89,90,91,92,93,94,95,96,97,98,99,100],"tree_info":[0,0,0,0,0,0,0,0,0,0,0,0,0,0,0,0,0,0,0,0,0,0,0,0,0,0,0,0,0,0,0,0,0,0,0,0,0,0,0,0,0,0,0,0,0,0,0,0,0,0,0,0,0,0,0,0,0,0,0,0,0,0,0,0,0,0,0,0,0,0,0,0,0,0,0,0,0,0,0,0,0,0,0,0,0,0,0,0,0,0,0,0,0,0,0,0,0,0,0,0],"trees":[{"base_weights":[-2.1751231E-7,-6.325199E-1,1.3094248E0,-1.0098451E0,7.24573E-1,1.5762035E0,1.4211935E-1,-1.3621418E0,3.6264426E-1,3.9428398E-1,-3.3134398E-1,5.1545405E-1,6.866401E-2,-2.3784949E-1,3.35336E-1,-1.6507267E0,2.5898886E-1,-1.7463846E0,-6.4671986E-2,-2.3784949E-1,3.6216345E-1,-5.573173E-1,-6.4671986E-2],"categories":[],"categories_nodes":[],"categories_segments":[],"categories_sizes":[],"default_left":[0,0,0,0,0,0,0,0,0,0,0,0,0,0,0,0,0,0,0,0,0,0,0],"id":0,"left_children":[1,3,5,7,9,11,13,15,-1,-1,-1,-1,-1,-1,-1,17,19,21,-1,-1,-1,-1,-1],"loss_changes":[3.6234127E1,1.583711E1,4.2134724E0,2.0014164E1,9.001599E0,1.806488E0,4.30688E0,1.0134739E1,0E0,0E0,0E0,0E0,0E0,0E0,0E0,2.060234E0,4.9464474E0,2.4116898E0,0E0,0E0,0E0,0E0,0E0],"parents":[2147483647,0,0,1,1,2,2,3,3,4,4,5,5,6,6,7,7,15,15,16,16,17,17],"right_children":[2,4,6,8,10,12,14,16,-1,-1,-1,-1,-1,-1,-1,18,20,22,-1,-1,-1,-1,-1],"split_conditions":[1.13498E0,1.4863778E0,1.5976034E0,1.658228E0,1.9884697E0,1.4350846E0,6.021754E-1,1.3173015E0,3.6264426E-1,3.9428398E-1,-3.3134398E-1,5.1545405E-1,6.866401E-2,-2.3784949E-1,3.35336E-1,1.658228E0,1.1727203E0,1.7227666E0,-6.4671986E-2,-2.3784949E-1,3.6216345E-1,-5.573173E-1,-6.4671986E-2],"split_indices":[3,33,73,72,97,14,63,38,0,0,0,0,0,0,0,4,17,41,0,0,0,0,0],"split_type":[0,0,0,0,0,0,0,0,0,0,0,0,0,0,0,0,0,0,0,0,0,0,0],"sum_hessian":[4.17485E1,2.8498976E1,1.3249524E1,2.2499191E1,5.9997845E0,1.0499622E1,2.749901E0,1.974929E1,2.749901E0,4.7498293E0,1.249955E0,9.249667E0,1.249955E0,1.4999461E0,1.249955E0,1.6749397E1,2.9998922E0,1.5499443E1,1.249955E0,1.4999461E0,1.4999461E0,1.4249488E1,1.249955E0],"tree_param":{"num_deleted":"0","num_feature":"100","num_nodes":"23","size_leaf_vector":"1"}},{"base_weights":[1.1328936E-2,-4.7706613E-1,1.0153024E0,-6.6045564E-1,3.494644E-1,1.2222999E0,1.2777327E-1,-9.683526E-1,4.466968E-1,4.3269813E-1,3.7703913E-1,-1.9708996E-1,2.839577E-1,-1.2787611E0,5.7175046E-1,2.8801298E-1,-2.8118303E-1,-1.22254424E-1,2.8150848E-1,-1.3893039E0,-8.108454E-2,-7.797618E-2,3.3265758E-1,-4.4896883E-1,-1.661497E-1],"categories":[],"categories_nodes":[],"categories_segments":[],"categories_sizes":[],"default_left":[0,0,0,0,0,0,0,0,0,0,0,0,0,0,0,0,0,0,0,0,0,0,0,0,0],"id":1,"left_children":[1,3,5,7,-1,9,11,13,15,-1,17,-1,-1,19,21,-1,-1,-1,-1,23,-1,-1,-1,-1,-1],"loss_changes":[2.042935E1,9.214075E0,2.3481388E0,9.249753E0,0E0,1.4901981E0,2.9957223E0,1.0556734E1,5.3844423E0,0E0,1.9734398E0,0E0,0E0,1.5658531E0,2.1369326E0,0E0,0E0,0E0,0E0,5.558872E-1,0E0,0E0,0E0,0E0,0E0],"parents":[2147483647,0,0,1,1,2,2,3,3,5,5,6,6,7,7,8,8,10,10,13,13,14,14,19,19],"right_children":[2,4,6,8,-1,10,12,14,16,-1,18,-1,-1,20,22,-1,-1,-1,-1,24,-1,-1,-1,-1,-1],"split_conditions":[1.13498E0,3.316456E0,1.5976034E0,1.4863778E0,3.494644E-1,1.4103919E0,6.021754E-1,1.0986123E0,1.9884697E0,4.3269813E-1,1.3627639E0,-1.9708996E-1,2.839577E-1,1.3173015E0,1.1727203E0,2.8801298E-1,-2.8118303E-1,-1.22254424E-1,2.8150848E-1,1.9884697E0,-8.108454E-2,-7.797618E-2,3.3265758E-1,-4.4896883E-1,-1.661497E-1],"split_indices":[3,72,73,33,0,37,63,56,97,0,12,0,0,38,17,0,0,0,0,81,0,0,0,0,0],"split_type":[0,0,0,0,0,0,0,0,0,0,0,0,0,0,0,0,0,0,0,0,0,0,0,0,0],"sum_hessian":[3.967618E1,2.7044756E1,1.2631428E1,2.4865303E1,2.1794512E0,9.936706E0,2.6947222E0,1.9553015E1,5.312289E0,7.32388E0,2.6128252E0,1.4768366E0,1.2178855E0,1.641438E1,3.1386356E0,4.0984116E0,1.2138777E0,1.2040074E0,1.4088176E0,1.4452563E1,1.9618156E0,1.4341058E0,1.7045299E0,1.21069765E1,2.3455865E0],"tree_param":{"num_deleted":"0","num_feature":"100","num_nodes":"25","size_leaf_vector":"1"}},{"base_weights":[2.2625409E-2,-3.8185173E-1,8.494346E-1,-6.1718345E-1,5.8427346E-1,1.0300788E0,1.4000295E-2,-8.702096E-1,5.477743E-1,3.507958E-1,-2.600412E-1,1.1449734E0,9.337912E-3,-2.0192666E-1,2.2106779E-1,-1.0106125E0,1.7867911E-1,2.1704475E-3,2.7682978E-1,3.6541653E-1,9.6250735E-2,-1.1341858E0,9.495375E-2,-3.7276608E-1,-7.574946E-2],"categories":[],"categories_nodes":[],"categories_segments":[],"categories_sizes":[],"default_left":[0,0,0,0,0,0,0,0,0,0,0,0,0,0,0,0,0,0,0,0,0,0,0,0,0],"id":2,"left_children":[1,3,5,7,9,11,13,15,17,-1,-1,19,-1,-1,-1,21,-1,-1,-1,-1,-1,23,-1,-1,-1],"loss_changes":[1.2688067E1,6.161748E0,1.8652039E0,6.6678686E0,5.692471E0,1.1381245E0,2.0993419E0,4.2327433E0,8.7741745E-1,0E0,0E0,1.5993309E-1,0E0,0E0,0E0,3.0601597E0,0E0,0E0,0E0,0E0,0E0,1.1467819E0,0E0,0E0,0E0],"parents":[2147483647,0,0,1,1,2,2,3,3,4,4,5,5,6,6,7,7,8,8,11,11,15,15,21,21],"right_children":[2,4,6,8,10,12,14,16,18,-1,-1,20,-1,-1,-1,22,-1,-1,-1,-1,-1,24,-1,-1,-1],"split_conditions":[1.13498E0,1.658228E0,2.1282318E0,1.4863778E0,1.5976034E0,2.1282318E0,1.4103919E0,1.6274564E0,1.4103919E0,3.507958E-1,-2.600412E-1,1.658228E0,9.337912E-3,-2.0192666E-1,2.2106779E-1,1.658228E0,1.7867911E-1,2.1704475E-3,2.7682978E-1,3.6541653E-1,9.6250735E-2,1.3173015E0,9.495375E-2,-3.7276608E-1,-7.574946E-2],"split_indices":[3,72,20,33,39,19,5,60,5,0,0,15,0,0,0,4,0,0,0,0,0,38,0,0,0],"split_type":[0,0,0,0,0,0,0,0,0,0,0,0,0,0,0,0,0,0,0,0,0,0,0,0,0],"sum_hessian":[3.597001E1,2.451525E1,1.1454759E1,2.0003832E1,4.511418E0,9.226704E0,2.2280557E0,1.6642197E1,3.361635E0,3.353517E0,1.1579006E0,8.143862E0,1.082842E0,1.177638E0,1.0504177E0,1.5470856E1,1.1713403E0,1.7943804E0,1.5672545E0,7.0414734E0,1.1023879E0,1.42860155E1,1.1848404E0,1.2357831E1,1.9281844E0],"tree_param":{"num_deleted":"0","num_feature":"100","num_nodes":"25","size_leaf_vector":"1"}},{"base_weights":[3.5128955E-2,-3.2669628E-1,6.8630874E-1,-5.3985256E-1,2.4173269E-1,9.322658E-1,-1.245086E-1,-7.6452714E-1,2.6939678E-1,1.1066271E0,-4.4717766E-2,-9.352281E-1,-1.2659487E-1,-2.7535447E-1,2.5570542E-1,3.791599E-1,4.60406E-2,-1.0459343E0,-2.3209868E-2,2.0396079E-1,-1.7066117E-1,1.2564157E-2,-1.3352442E-1,-3.507042E-1,-1.8140668E-2,1.1982023E-1,-2.1762643E-2],"categories":[],"categories_nodes":[],"categories_segments":[],"categories_sizes":[],"default_left":[0,0,0,0,0,0,0,0,0,0,0,0,0,0,0,0,0,0,0,0,0,0,0,0,0,0,0],"id":3,"left_children":[1,3,5,7,-1,9,-1,11,13,15,-1,17,19,21,-1,-1,-1,23,-1,25,-1,-1,-1,-1,-1,-1,-1],"loss_changes":[8.020541E0,5.7331257E0,3.6758046E0,3.6732574E0,0E0,2.0942888E0,0E0,1.5353746E0,1.7855114E0,1.1445227E0,0E0,1.0420399E0,7.538024E-1,1.9526072E-1,0E0,0E0,0E0,1.1898746E0,0E0,2.0366354E-1,0E0,0E0,0E0,0E0,0E0,0E0,0E0],"parents":[2147483647,0,0,1,1,2,2,3,3,5,5,7,7,8,8,9,9,11,11,12,12,13,13,17,17,19,19],"right_children":[2,4,6,8,-1,10,-1,12,14,16,-1,18,20,22,-1,-1,-1,24,-1,26,-1,-1,-1,-1,-1,-1,-1],"split_conditions":[1.0986123E0,1.658228E0,2.4159138E0,1.4103919E0,2.4173269E-1,2.1282318E0,-1.245086E-1,1.3173015E0,1.4863778E0,1.658228E0,-4.4717766E-2,1.9884697E0,1.5976034E0,1.1727203E0,2.5570542E-1,3.791599E-1,4.60406E-2,1.13498E0,-2.3209868E-2,6.021754E-1,-1.7066117E-1,1.2564157E-2,-1.3352442E-1,-3.507042E-1,-1.8140668E-2,1.1982023E-1,-2.1762643E-2],"split_indices":[56,72,13,5,0,19,0,38,33,15,0,81,73,87,0,0,0,3,0,63,0,0,0,0,0,0,0],"split_type":[0,0,0,0,0,0,0,0,0,0,0,0,0,0,0,0,0,0,0,0,0,0,0,0,0,0,0],"sum_hessian":[3.20895E1,2.0948088E1,1.1141414E1,1.8070177E1,2.8779101E0,9.232968E0,1.9084458E0,1.4186731E1,3.883446E0,7.930753E0,1.302215E0,1.0824286E1,3.3624449E0,2.280269E0,1.6031771E0,6.527892E0,1.4028611E0,9.392908E0,1.4313782E0,2.232625E0,1.1298201E0,1.0573092E0,1.2229598E0,8.184455E0,1.2084533E0,1.047647E0,1.1849779E0],"tree_param":{"num_deleted":"0","num_feature":"100","num_nodes":"27","size_leaf_vector":"1"}},{"base_weights":[3.309247E-2,-2.6325426E-1,6.793423E-1,-4.0672672E-1,2.564919E-1,8.7815475E-1,-4.749922E-2,-5.1054114E-1,1.7728245E-1,3.038667E-1,4.8581727E-2,-6.255985E-1,1.0561528E-1,-8.2482755E-1,2.193725E-2,-2.8849748E-1,2.3723599E-2,1.4142218E-1,-2.0318972E-1],"categories":[],"categories_nodes":[],"categories_segments":[],"categories_sizes":[],"default_left":[0,0,0,0,0,0,0,0,0,0,0,0,0,0,0,0,0,0,0],"id":4,"left_children":[1,3,5,7,-1,9,-1,11,-1,-1,-1,13,-1,15,17,-1,-1,-1,-1],"loss_changes":[5.9214354E0,3.7615976E0,1.7555523E0,2.3251655E0,0E0,6.0771227E-1,0E0,2.0297127E0,0E0,0E0,0E0,2.1398005E0,0E0,1.6347742E0,1.8415666E0,0E0,0E0,0E0,0E0],"parents":[2147483647,0,0,1,1,2,2,3,3,5,5,7,7,11,11,13,13,14,14],"right_children":[2,4,6,8,-1,10,-1,12,-1,-1,-1,14,-1,16,18,-1,-1,-1,-1],"split_conditions":[1.1921383E0,2.3454406E0,1.658228E0,2.3513753E0,2.564919E-1,1.3862944E0,-4.749922E-2,2.0794415E0,1.7728245E-1,3.038667E-1,4.8581727E-2,1.3173015E0,1.0561528E-1,1.6274564E0,1.9050882E0,-2.8849748E-1,2.3723599E-2,1.4142218E-1,-2.0318972E-1],"split_indices":[91,17,15,80,0,46,0,85,0,0,0,38,0,60,92,0,0,0,0],"split_type":[0,0,0,0,0,0,0,0,0,0,0,0,0,0,0,0,0,0,0],"sum_hessian":[2.8985249E1,2.027878E1,8.70647E0,1.8536728E1,1.7420516E0,6.9973903E0,1.709079E0,1.7231894E1,1.3048351E0,5.5408278E0,1.4565624E0,1.5446323E1,1.7855705E0,1.1602695E1,3.8436272E0,1.0021742E1,1.5809534E0,2.538014E0,1.3056133E0],"tree_param":{"num_deleted":"0","num_feature":"100","num_nodes":"19","size_leaf_vector":"1"}},{"base_weights":[4.3539397E-2,-2.3780166E-1,5.9960663E-1,-4.213015E-1,5.940209E-1,7.4745286E-1,-7.6411545E-2,-6.1107475E-1,1.850735E-1,1.9972593E-2,2.6649874E-1,9.003671E-1,5.223912E-2,-7.90341E-1,9.011102E-2,-7.844078E-2,1.712003E-1,3.0018258E-1,8.395347E-2,-9.4358104E-1,7.6005444E-2,2.2239836E-1,-2.1962433E-1,-1.19963236E-1,8.8186175E-2,-3.115228E-1,-4.6793133E-2],"categories":[],"categories_nodes":[],"categories_segments":[],"categories_sizes":[],"default_left":[0,0,0,0,0,0,0,0,0,0,0,0,0,0,0,0,0,0,0,0,0,0,0,0,0,0,0],"id":5,"left_children":[1,3,5,7,9,11,-1,13,15,-1,-1,17,-1,19,21,23,-1,-1,-1,25,-1,-1,-1,-1,-1,-1,-1],"loss_changes":[4.4669504E0,3.1612337E0,1.3992109E0,1.9783559E0,5.403081E-1,5.8076334E-1,0E0,1.6522632E0,5.1534295E-1,0E0,0E0,1.1818218E-1,0E0,1.8575082E0,2.3945491E0,5.520957E-1,0E0,0E0,0E0,5.128689E-1,0E0,0E0,0E0,0E0,0E0,0E0,0E0],"parents":[2147483647,0,0,1,1,2,2,3,3,4,4,5,5,7,7,8,8,11,11,13,13,14,14,15,15,19,19],"right_children":[2,4,6,8,10,12,-1,14,16,-1,-1,18,-1,20,22,24,-1,-1,-1,26,-1,-1,-1,-1,-1,-1,-1],"split_conditions":[1.13498E0,2.0794415E0,1.4350846E0,1.3627639E0,1.1166308E0,1.5976034E0,-7.6411545E-2,1.658228E0,2.179525E0,1.9972593E-2,2.6649874E-1,2.0794415E0,5.223912E-2,2.4159138E0,1.5976034E0,9.022703E-1,1.712003E-1,3.0018258E-1,8.395347E-2,1.8281271E0,7.6005444E-2,2.2239836E-1,-2.1962433E-1,-1.19963236E-1,8.8186175E-2,-3.115228E-1,-4.6793133E-2],"split_indices":[3,85,14,36,44,73,0,72,90,0,0,30,0,89,39,88,0,0,0,43,0,0,0,0,0,0,0],"split_type":[0,0,0,0,0,0,0,0,0,0,0,0,0,0,0,0,0,0,0,0,0,0,0,0,0,0,0],"sum_hessian":[2.6641512E1,1.8070919E1,8.570593E0,1.5209276E1,2.8616424E0,7.4128203E0,1.1577724E0,1.1578026E1,3.6312504E0,1.4640498E0,1.3975927E0,5.401671E0,2.0111492E0,9.119397E0,2.4586282E0,2.6302884E0,1.000962E0,4.123086E0,1.2785852E0,8.035505E0,1.0838917E0,1.426847E0,1.0317813E0,1.372124E0,1.2581644E0,6.8877697E0,1.1477357E0],"tree_param":{"num_deleted":"0","num_feature":"100","num_nodes":"27","size_leaf_vector":"1"}},{"base_weights":[5.2570816E-2,-2.1971731E-1,5.2408624E-1,-3.699392E-1,1.7556345E-1,7.582433E-1,-1.1966951E-1,-5.593803E-1,3.788209E-1,9.2322415E-1,-4.2850167E-2,-7.161365E-1,1.541381E-1,-4.1333925E-2,2.1591538E-1,3.1283897E-1,8.455455E-2,-8.640671E-1,2.1050759E-2,-2.9479775E-1,-2.555661E-2],"categories":[],"categories_nodes":[],"categories_segments":[],"categories_sizes":[],"default_left":[0,0,0,0,0,0,0,0,0,0,0,0,0,0,0,0,0,0,0,0,0],"id":6,"left_children":[1,3,5,7,-1,9,-1,11,13,15,-1,17,-1,-1,-1,-1,-1,19,-1,-1,-1],"loss_changes":[3.3523698E0,2.2344422E0,2.3611972E0,2.2937167E0,0E0,1.3126569E0,0E0,2.4063256E0,7.260551E-1,2.3123837E-1,0E0,1.3390064E0,0E0,0E0,0E0,0E0,0E0,7.776427E-1,0E0,0E0,0E0],"parents":[2147483647,0,0,1,1,2,2,3,3,5,5,7,7,8,8,9,9,11,11,17,17],"right_children":[2,4,6,8,-1,10,-1,12,14,16,-1,18,-1,-1,-1,-1,-1,20,-1,-1,-1],"split_conditions":[1.0986123E0,1.658228E0,1.9050882E0,1.4863778E0,1.7556345E-1,2.1282318E0,-1.1966951E-1,1.6274564E0,1.4103919E0,1.3862944E0,-4.2850167E-2,1.8281271E0,1.541381E-1,-4.1333925E-2,2.1591538E-1,3.1283897E-1,8.455455E-2,1.2043508E0,2.1050759E-2,-2.9479775E-1,-2.555661E-2],"split_indices":[56,72,92,33,0,19,0,60,5,46,0,11,0,0,0,0,0,63,0,0,0],"split_type":[0,0,0,0,0,0,0,0,0,0,0,0,0,0,0,0,0,0,0,0,0],"sum_hessian":[2.421433E1,1.5688589E1,8.525741E0,1.3676572E1,2.0120175E0,6.942857E0,1.5828841E0,1.111686E1,2.559712E0,5.8476205E0,1.0952364E0,9.990293E0,1.1265678E0,1.2544822E0,1.3052297E0,4.4012213E0,1.4463993E0,8.325156E0,1.6651362E0,6.9980054E0,1.3271505E0],"tree_param":{"num_deleted":"0","num_feature":"100","num_nodes":"21","size_leaf_vector":"1"}},{"base_weights":[6.008995E-2,-1.3094321E-1,6.331626E-1,1.1768425E-1,-6.704419E-1,2.2448602E-1,2.6431605E-1,3.52969E-1,-2.0464313E-1,-2.9294577E-1,1.2041923E-1,-8.1013694E-2,1.9251062E-1,5.267875E-1,-9.5497884E-2,7.357329E-1,-4.235638E-2,3.0063885E-1,1.7291163E-3],"categories":[],"categories_nodes":[],"categories_segments":[],"categories_sizes":[],"default_left":[0,0,0,0,0,0,0,0,0,0,0,0,0,0,0,0,0,0,0],"id":7,"left_children":[1,3,5,7,9,11,-1,13,-1,-1,-1,-1,-1,15,-1,17,-1,-1,-1],"loss_changes":[2.598831E0,2.5019772E0,4.0164518E-1,2.7279499E0,2.3103082E0,9.1108924E-1,0E0,1.4361961E0,0E0,0E0,0E0,0E0,0E0,1.361691E0,0E0,1.3604567E0,0E0,0E0,0E0],"parents":[2147483647,0,0,1,1,2,2,3,3,4,4,5,5,7,7,13,13,15,15],"right_children":[2,4,6,8,10,12,-1,14,-1,-1,-1,-1,-1,16,-1,18,-1,-1,-1],"split_conditions":[1.4103919E0,1.1727203E0,9.022703E-1,1.658228E0,1.3627639E0,1.13498E0,2.6431605E-1,1.5976034E0,-2.0464313E-1,-2.9294577E-1,1.2041923E-1,-8.1013694E-2,1.9251062E-1,1.4350846E0,-9.5497884E-2,1.3862944E0,-4.235638E-2,3.0063885E-1,1.7291163E-3],"split_indices":[5,35,88,15,12,3,0,73,0,0,0,0,0,14,0,46,0,0,0],"split_type":[0,0,0,0,0,0,0,0,0,0,0,0,0,0,0,0,0,0,0],"sum_hessian":[2.1981524E1,1.7064573E1,4.9169497E0,1.2216482E1,4.8480906E0,2.575887E0,2.341063E0,9.871334E0,2.3451483E0,3.8404758E0,1.0076147E0,1.3401424E0,1.2357445E0,8.012042E0,1.8592916E0,6.025732E0,1.9863102E0,4.14149E0,1.8842423E0],"tree_param":{"num_deleted":"0","num_feature":"100","num_nodes":"19","size_leaf_vector":"1"}},{"base_weights":[5.5832542E-2,-1.18361086E-1,6.3296264E-1,-3.503852E-1,4.2465973E-1,7.757873E-2,2.4076535E-1,-5.0243104E-1,1.717772E-1,2.2728647E-1,1.7000793E-2,-6.3461024E-1,2.646009E-2,1.853255E-1,-7.614646E-2,-1.1606892E-1,1.2691738E-1,-7.085809E-1,-7.107722E-2,-2.366126E-1,-4.660015E-2],"categories":[],"categories_nodes":[],"categories_segments":[],"categories_sizes":[],"default_left":[0,0,0,0,0,0,0,0,0,0,0,0,0,0,0,0,0,0,0,0,0],"id":8,"left_children":[1,3,5,7,9,-1,-1,11,13,-1,15,17,-1,-1,-1,-1,-1,19,-1,-1,-1],"loss_changes":[2.1895306E0,2.2906733E0,1.12081766E-1,1.0754235E0,7.3926836E-1,0E0,0E0,8.2914734E-1,8.315291E-1,0E0,7.4002177E-1,7.377195E-2,0E0,0E0,0E0,0E0,0E0,1.6226673E-1,0E0,0E0,0E0],"parents":[2147483647,0,0,1,1,2,2,3,3,4,4,7,7,8,8,10,10,11,11,17,17],"right_children":[2,4,6,8,10,-1,-1,12,14,-1,16,18,-1,-1,-1,-1,-1,20,-1,-1,-1],"split_conditions":[1.7227666E0,1.1727203E0,1.1921383E0,1.658228E0,6.021754E-1,7.757873E-2,2.4076535E-1,1.3627639E0,1.3173015E0,2.2728647E-1,1.13498E0,1.3173015E0,2.646009E-2,1.853255E-1,-7.614646E-2,-1.1606892E-1,1.2691738E-1,1.8281271E0,-7.107722E-2,-2.366126E-1,-4.660015E-2],"split_indices":[41,17,91,4,63,0,0,12,10,0,3,38,0,0,0,0,0,95,0,0,0],"split_type":[0,0,0,0,0,0,0,0,0,0,0,0,0,0,0,0,0,0,0,0,0],"sum_hessian":[2.0034142E1,1.5999861E1,4.034281E0,1.1458553E1,4.541308E0,2.0449324E0,1.9893484E0,8.903713E0,2.5548398E0,2.0271404E0,2.5141673E0,7.214661E0,1.6890522E0,1.0270895E0,1.5277503E0,1.2840925E0,1.2300748E0,5.42402E0,1.7906412E0,4.3660746E0,1.0579453E0],"tree_param":{"num_deleted":"0","num_feature":"100","num_nodes":"21","size_leaf_vector":"1"}},{"base_weights":[6.01289E-2,-1.0487062E-1,5.748831E-1,9.5805176E-2,-5.55562E-1,5.4895673E-2,2.3405538E-1,2.8350502E-1,-1.6813493E-1,-2.0788412E-1,-1.4368997E-2,4.0878043E-1,-1.0985505E-1,1.2133027E-1,2.4918099E-1,1.1135558E-1,-1.2782553E-1],"categories":[],"categories_nodes":[],"categories_segments":[],"categories_sizes":[],"default_left":[0,0,0,0,0,0,0,0,0,0,0,0,0,0,0,0,0],"id":9,"left_children":[1,3,5,7,9,-1,-1,11,-1,-1,-1,13,-1,15,-1,-1,-1],"loss_changes":[1.7268636E0,1.4736089E0,2.5286114E-1,1.6024601E0,3.1452465E-1,0E0,0E0,9.4543344E-1,0E0,0E0,0E0,9.503627E-1,0E0,1.0234913E0,0E0,0E0,0E0],"parents":[2147483647,0,0,1,1,2,2,3,3,4,4,7,7,11,11,13,13],"right_children":[2,4,6,8,10,-1,-1,12,-1,-1,-1,14,-1,16,-1,-1,-1],"split_conditions":[1.4103919E0,1.1727203E0,1.4863778E0,1.658228E0,1.063521E0,5.4895673E-2,2.3405538E-1,1.8658675E0,-1.6813493E-1,-2.0788412E-1,-1.4368997E-2,1.0986123E0,-1.0985505E-1,1.3862944E0,2.4918099E-1,1.1135558E-1,-1.2782553E-1],"split_indices":[5,35,33,15,9,0,0,47,0,0,0,56,0,46,0,0,0],"split_type":[0,0,0,0,0,0,0,0,0,0,0,0,0,0,0,0,0],"sum_hessian":[1.8621958E1,1.4704759E1,3.917199E0,1.0719291E1,3.985468E0,1.9968114E0,1.9203875E0,8.776937E0,1.9423547E0,2.8493934E0,1.1360747E0,7.66898E0,1.1079564E0,5.3267274E0,2.3422527E0,3.8784366E0,1.4482907E0],"tree_param":{"num_deleted":"0","num_feature":"100","num_nodes":"17","size_leaf_vector":"1"}},{"base_weights":[4.827143E-2,-7.084486E-2,2.2414562E-1,-2.2863221E-1,4.1464776E-1,-5.6625843E-2,-2.1037972E-1,2.2361726E-1,-9.913489E-3,-2.6480916E-1,4.658139E-1,3.9658826E-2,-6.280734E-1,1.8184142E-1,2.7773276E-2,1.042188E-1,-1.4860617E-1,-2.2699055E-1,-5.9832267E-2],"categories":[],"categories_nodes":[],"categories_segments":[],"categories_sizes":[],"default_left":[0,0,0,0,0,0,0,0,0,0,0,0,0,0,0,0,0,0,0],"id":10,"left_children":[1,3,-1,5,7,9,-1,-1,-1,11,13,15,17,-1,-1,-1,-1,-1,-1],"loss_changes":[1.5864767E0,1.3704419E0,0E0,1.034396E0,6.8206465E-1,1.2952489E0,0E0,0E0,0E0,9.4757086E-1,1.2366426E-1,1.0741585E0,6.198013E-2,0E0,0E0,0E0,0E0,0E0,0E0],"parents":[2147483647,0,0,1,1,3,3,4,4,5,5,9,9,10,10,11,11,12,12],"right_children":[2,4,-1,6,8,10,-1,-1,-1,12,14,16,18,-1,-1,-1,-1,-1,-1],"split_conditions":[2.3454406E0,1.658228E0,2.2414562E-1,1.4350846E0,1.3173015E0,1.3627639E0,-2.1037972E-1,2.2361726E-1,-9.913489E-3,1.1727203E0,1.4103919E0,1.4103919E0,1.8281271E0,1.8184142E-1,2.7773276E-2,1.042188E-1,-1.4860617E-1,-2.2699055E-1,-5.9832267E-2],"split_indices":[17,4,0,14,10,12,0,0,0,35,50,37,95,0,0,0,0,0,0],"split_type":[0,0,0,0,0,0,0,0,0,0,0,0,0,0,0,0,0,0,0],"sum_hessian":[1.7421387E1,1.5652266E1,1.7691206E0,1.2212288E1,3.4399784E0,9.774753E0,2.4375346E0,1.5959636E0,1.8440148E0,7.342158E0,2.432595E0,4.4789643E0,2.8631935E0,1.3144139E0,1.1181811E0,3.0660574E0,1.4129068E0,1.6138992E0,1.2492944E0],"tree_param":{"num_deleted":"0","num_feature":"100","num_nodes":"19","size_leaf_vector":"1"}},{"base_weights":[4.2960346E-2,-1.3270389E-1,4.4854355E-1,1.4016262E-1,-3.570809E-1,1.23115726E-1,2.0271382E-1,5.066952E-1,-2.0163038E-1,-4.73755E-1,4.915694E-2,-4.5802526E-2,1.0412172E-1,2.0998065E-1,4.112126E-3,-6.517568E-1,-3.1033854E-3,-2.2668472E-1,-5.006179E-2],"categories":[],"categories_nodes":[],"categories_segments":[],"categories_sizes":[],"default_left":[0,0,0,0,0,0,0,0,0,0,0,0,0,0,0,0,0,0,0],"id":11,"left_children":[1,3,5,7,9,11,-1,13,-1,15,-1,-1,-1,-1,-1,17,-1,-1,-1],"loss_changes":[1.2798507E0,8.2904243E-1,3.1637037E-1,2.2636726E0,5.191317E-1,2.6575017E-1,0E0,4.6874523E-1,0E0,5.040028E-1,0E0,0E0,0E0,0E0,0E0,9.837699E-2,0E0,0E0,0E0],"parents":[2147483647,0,0,1,1,2,2,3,3,4,4,5,5,7,7,9,9,15,15],"right_children":[2,4,6,8,10,12,-1,14,-1,16,-1,-1,-1,-1,-1,18,-1,-1,-1],"split_conditions":[1.1921383E0,6.021754E-1,1.0986123E0,1.5976034E0,1.3627639E0,1.3173015E0,2.0271382E-1,9.022703E-1,-2.0163038E-1,1.3173015E0,4.915694E-2,-4.5802526E-2,1.0412172E-1,2.0998065E-1,4.112126E-3,1.4863778E0,-3.1033854E-3,-2.2668472E-1,-5.006179E-2],"split_indices":[91,63,56,73,12,10,0,88,0,38,0,0,0,0,0,33,0,0,0],"split_type":[0,0,0,0,0,0,0,0,0,0,0,0,0,0,0,0,0,0,0],"sum_hessian":[1.612825E1,1.1723452E1,4.404797E0,5.4594736E0,6.2639785E0,2.4446728E0,1.9601245E0,4.0211368E0,1.4383368E0,5.191756E0,1.0722228E0,1.23819E0,1.2064828E0,2.587222E0,1.4339145E0,3.4573197E0,1.734436E0,2.3875747E0,1.0697451E0],"tree_param":{"num_deleted":"0","num_feature":"100","num_nodes":"19","size_leaf_vector":"1"}},{"base_weights":[3.5005882E-2,-1.4493537E-1,4.209101E-1,-2.8768545E-1,1.3010916E-1,1.9313039E-1,-5.815727E-2,-4.1238967E-1,7.492849E-2,-6.041517E-1,3.129958E-2,-2.2661637E-1,-3.0453762E-2,1.3012892E-1,-9.9470474E-2],"categories":[],"categories_nodes":[],"categories_segments":[],"categories_sizes":[],"default_left":[0,0,0,0,0,0,0,0,0,0,0,0,0,0,0],"id":12,"left_children":[1,3,5,7,-1,-1,-1,9,-1,11,13,-1,-1,-1,-1],"loss_changes":[1.1726469E0,1.0880226E0,8.573639E-1,7.7021796E-1,0E0,0E0,0E0,7.385007E-1,0E0,3.759663E-1,6.554043E-1,0E0,0E0,0E0,0E0],"parents":[2147483647,0,0,1,1,2,2,3,3,7,7,9,9,10,10],"right_children":[2,4,6,8,-1,-1,-1,10,-1,12,14,-1,-1,-1,-1],"split_conditions":[1.1727203E0,1.7227666E0,1.4350846E0,1.8281271E0,1.3010916E-1,1.9313039E-1,-5.815727E-2,1.4863778E0,7.492849E-2,1.13498E0,1.0986123E0,-2.2661637E-1,-3.0453762E-2,1.3012892E-1,-9.9470474E-2],"split_indices":[17,41,14,43,0,0,0,33,0,3,67,0,0,0,0],"split_type":[0,0,0,0,0,0,0,0,0,0,0,0,0,0,0],"sum_hessian":[1.5008652E1,1.0661694E1,4.3469586E0,8.955234E0,1.70646E0,3.1557887E0,1.1911699E0,7.457543E0,1.4976907E0,4.9545403E0,2.5030026E0,3.4220555E0,1.5324847E0,1.0941195E0,1.4088832E0],"tree_param":{"num_deleted":"0","num_feature":"100","num_nodes":"15","size_leaf_vector":"1"}},{"base_weights":[3.2588553E-2,-6.758994E-2,1.9913816E-1,-2.1525995E-1,3.5709202E-1,-3.7342218E-1,1.5072055E-1,1.9915642E-1,-1.822227E-2,-5.187403E-1,5.4511722E-2,1.0763275E-1,-5.9092633E-2,-6.4835954E-1,2.7259486E-2,-2.1893892E-1,-4.229939E-2],"categories":[],"categories_nodes":[],"categories_segments":[],"categories_sizes":[],"default_left":[0,0,0,0,0,0,0,0,0,0,0,0,0,0,0,0,0],"id":13,"left_children":[1,3,-1,5,7,9,11,-1,-1,13,-1,-1,-1,15,-1,-1,-1],"loss_changes":[9.971311E-1,9.488536E-1,0E0,6.8958956E-1,5.483497E-1,7.337309E-1,3.6103624E-1,0E0,0E0,5.758271E-1,0E0,0E0,0E0,1.2507963E-1,0E0,0E0,0E0],"parents":[2147483647,0,0,1,1,3,3,4,4,5,5,6,6,9,9,13,13],"right_children":[2,4,-1,6,8,10,12,-1,-1,14,-1,-1,-1,16,-1,-1,-1],"split_conditions":[2.634603E0,1.658228E0,1.9913816E-1,1.1727203E0,1.3173015E0,1.8658675E0,1.7227666E0,1.9915642E-1,-1.822227E-2,1.6274564E0,5.4511722E-2,1.0763275E-1,-5.9092633E-2,1.2953225E0,2.7259486E-2,-2.1893892E-1,-4.229939E-2],"split_indices":[38,4,0,17,10,47,69,0,0,60,0,0,0,26,0,0,0],"split_type":[0,0,0,0,0,0,0,0,0,0,0,0,0,0,0,0,0],"sum_hessian":[1.4059579E1,1.2904437E1,1.1551417E0,9.940917E0,2.96352E0,6.9270067E0,3.0139103E0,1.3693628E0,1.5941571E0,5.5418434E0,1.385163E0,1.8656633E0,1.148247E0,4.517684E0,1.0241596E0,3.5150645E0,1.0026195E0],"tree_param":{"num_deleted":"0","num_feature":"100","num_nodes":"17","size_leaf_vector":"1"}},{"base_weights":[4.1300002E-2,-9.910638E-2,4.8712412E-1,6.128922E-2,-4.4088382E-1,4.849551E-2,1.8289986E-1,-8.331532E-2,1.7451125E-1,-1.8666714E-1,-4.0030807E-2,1.4576589E-1,-1.7109233E-1,3.4224725E-1,-8.1140116E-2,1.4150773E-1,-1.693435E-2],"categories":[],"categories_nodes":[],"categories_segments":[],"categories_sizes":[],"default_left":[0,0,0,0,0,0,0,0,0,0,0,0,0,0,0,0,0],"id":14,"left_children":[1,3,5,7,9,-1,-1,11,-1,-1,-1,13,-1,15,-1,-1,-1],"loss_changes":[9.3774086E-1,6.649649E-1,4.3925285E-2,7.105645E-1,1.3100636E-1,0E0,0E0,9.488172E-1,0E0,0E0,0E0,5.892904E-1,0E0,2.6235014E-1,0E0,0E0,0E0],"parents":[2147483647,0,0,1,1,2,2,3,3,4,4,7,7,11,11,13,13],"right_children":[2,4,6,8,10,-1,-1,12,-1,-1,-1,14,-1,16,-1,-1,-1],"split_conditions":[1.4103919E0,1.1727203E0,9.022703E-1,1.8281271E0,1.13498E0,4.849551E-2,1.8289986E-1,1.4350846E0,1.7451125E-1,-1.8666714E-1,-4.0030807E-2,1.4103919E0,-1.7109233E-1,1.3173015E0,-8.1140116E-2,1.4150773E-1,-1.693435E-2],"split_indices":[5,35,88,11,66,0,0,14,0,0,0,37,0,10,0,0,0],"split_type":[0,0,0,0,0,0,0,0,0,0,0,0,0,0,0,0,0],"sum_hessian":[1.3209469E1,1.0637143E1,2.5723262E0,7.798156E0,2.8389869E0,1.3379296E0,1.2343966E0,6.7597666E0,1.0383893E0,1.1417311E0,1.6972557E0,5.0737543E0,1.6860123E0,3.5674853E0,1.5062689E0,2.5548923E0,1.0125929E0],"tree_param":{"num_deleted":"0","num_feature":"100","num_nodes":"17","size_leaf_vector":"1"}},{"base_weights":[3.4415238E-2,-9.013199E-2,4.3277943E-1,3.0722683E-2,-1.4291407E-1,3.8064435E-2,1.7004058E-1,-1.8747565E-1,1.2199996E-1,-3.876961E-1,1.2847997E-1,-5.6832E-1,3.273686E-2,-5.8848567E-2,-2.1096994E-1],"categories":[],"categories_nodes":[],"categories_segments":[],"categories_sizes":[],"default_left":[0,0,0,0,0,0,0,0,0,0,0,0,0,0,0],"id":15,"left_children":[1,3,5,7,-1,-1,-1,9,-1,11,-1,13,-1,-1,-1],"loss_changes":[7.087186E-1,5.3328514E-1,6.695539E-2,8.475073E-1,0E0,0E0,0E0,9.8387027E-1,0E0,5.583365E-1,0E0,7.379532E-2,0E0,0E0,0E0],"parents":[2147483647,0,0,1,1,2,2,3,3,7,7,9,9,11,11],"right_children":[2,4,6,8,-1,-1,-1,10,-1,12,-1,14,-1,-1,-1],"split_conditions":[1.4103919E0,1.9050882E0,1.4863778E0,1.3173015E0,-1.4291407E-1,3.8064435E-2,1.7004058E-1,2.0794415E0,1.2199996E-1,1.0986123E0,1.2847997E-1,4.5113516E-1,3.273686E-2,-5.8848567E-2,-2.1096994E-1],"split_indices":[5,92,33,38,0,0,0,85,0,56,0,88,0,0,0],"split_type":[0,0,0,0,0,0,0,0,0,0,0,0,0,0,0],"sum_hessian":[1.2498119E1,1.0110766E1,2.3873527E0,8.402222E0,1.7085445E0,1.3203815E0,1.0669711E0,5.633722E0,2.7685E0,4.5308037E0,1.1029183E0,3.217228E0,1.3135755E0,1.508903E0,1.7083249E0],"tree_param":{"num_deleted":"0","num_feature":"100","num_nodes":"15","size_leaf_vector":"1"}},{"base_weights":[3.0732313E-2,-1.20843165E-1,3.242723E-1,-3.2985455E-1,3.080985E-1,4.8873574E-1,-3.0405818E-2,-5.0426453E-1,5.446598E-2,1.9733165E-1,-3.477407E-2,1.916132E-1,2.9189069E-2,-1.9959249E-1,1.4388954E-2],"categories":[],"categories_nodes":[],"categories_segments":[],"categories_sizes":[],"default_left":[0,0,0,0,0,0,0,0,0,0,0,0,0,0,0],"id":16,"left_children":[1,3,5,7,9,11,-1,13,-1,-1,-1,-1,-1,-1,-1],"loss_changes":[6.100142E-1,9.2547E-1,3.7435597E-1,6.8571943E-1,5.9927917E-1,1.4442867E-1,0E0,4.9721825E-1,0E0,0E0,0E0,0E0,0E0,0E0,0E0],"parents":[2147483647,0,0,1,1,2,2,3,3,4,4,5,5,7,7],"right_children":[2,4,6,8,10,12,-1,14,-1,-1,-1,-1,-1,-1,-1],"split_conditions":[1.13498E0,1.3627639E0,1.5976034E0,1.658228E0,6.021754E-1,1.0986123E0,-3.0405818E-2,1.4103919E0,5.446598E-2,1.9733165E-1,-3.477407E-2,1.916132E-1,2.9189069E-2,-1.9959249E-1,1.4388954E-2],"split_indices":[3,36,73,72,63,67,0,50,0,0,0,0,0,0,0],"split_type":[0,0,0,0,0,0,0,0,0,0,0,0,0,0,0],"sum_hessian":[1.1829483E1,8.189163E0,3.6403198E0,5.661483E0,2.5276802E0,2.5187757E0,1.121544E0,4.2321296E0,1.429353E0,1.0831358E0,1.4445442E0,1.3643445E0,1.1544313E0,3.1180542E0,1.1140758E0],"tree_param":{"num_deleted":"0","num_feature":"100","num_nodes":"15","size_leaf_vector":"1"}},{"base_weights":[4.1113485E-2,-9.240427E-2,3.5441107E-1,4.362076E-2,-1.3234723E-1,2.8748896E-2,1.5442179E-1,-1.4128134E-1,1.3322979E-1,-3.4590736E-1,8.078433E-2,-1.3075482E-2,-1.6262662E-1],"categories":[],"categories_nodes":[],"categories_segments":[],"categories_sizes":[],"default_left":[0,0,0,0,0,0,0,0,0,0,0,0,0],"id":17,"left_children":[1,3,5,7,-1,-1,-1,9,-1,11,-1,-1,-1],"loss_changes":[5.4112905E-1,4.611297E-1,1.09806806E-1,6.263438E-1,0E0,0E0,0E0,5.943351E-1,0E0,2.3846936E-1,0E0,0E0,0E0],"parents":[2147483647,0,0,1,1,2,2,3,3,7,7,9,9],"right_children":[2,4,6,8,-1,-1,-1,10,-1,12,-1,-1,-1],"split_conditions":[1.1921383E0,1.9050882E0,1.0986123E0,1.4863778E0,-1.3234723E-1,2.8748896E-2,1.5442179E-1,1.1166308E0,1.3322979E-1,4.5113516E-1,8.078433E-2,-1.3075482E-2,-1.6262662E-1],"split_indices":[91,92,56,33,0,0,0,44,0,88,0,0,0],"split_type":[0,0,0,0,0,0,0,0,0,0,0,0,0],"sum_hessian":[1.1153247E1,8.314796E0,2.8384504E0,6.6111555E0,1.7036413E0,1.6978401E0,1.1406105E0,4.9656973E0,1.6454582E0,3.4190884E0,1.5466088E0,1.8265215E0,1.592567E0],"tree_param":{"num_deleted":"0","num_feature":"100","num_nodes":"13","size_leaf_vector":"1"}},{"base_weights":[3.7569493E-2,-7.7341214E-2,1.2094397E-1,-2.2254401E-1,9.799398E-2,-3.4414294E-1,6.8746574E-2,-5.737209E-1,4.409365E-2,-2.1434994E-1,-3.7331976E-2],"categories":[],"categories_nodes":[],"categories_segments":[],"categories_sizes":[],"default_left":[0,0,0,0,0,0,0,0,0,0,0],"id":18,"left_children":[1,3,-1,5,-1,7,-1,9,-1,-1,-1],"loss_changes":[5.2069247E-1,6.419841E-1,0E0,5.036477E-1,0E0,8.164276E-1,0E0,2.0384836E-1,0E0,0E0,0E0],"parents":[2147483647,0,0,1,1,3,3,5,5,7,7],"right_children":[2,4,-1,6,-1,8,-1,10,-1,-1,-1],"split_conditions":[1.7227666E0,1.3627639E0,1.2094397E-1,1.8281271E0,9.799398E-2,1.13498E0,6.8746574E-2,1.4863778E0,4.409365E-2,-2.1434994E-1,-3.7331976E-2],"split_indices":[41,12,0,43,0,3,0,33,0,0,0],"split_type":[0,0,0,0,0,0,0,0,0,0,0],"sum_hessian":[1.0652643E1,8.7049E0,1.9477433E0,6.733759E0,1.9711409E0,5.49311E0,1.2406486E0,3.6286778E0,1.8644326E0,2.3134549E0,1.3152227E0],"tree_param":{"num_deleted":"0","num_feature":"100","num_nodes":"11","size_leaf_vector":"1"}},{"base_weights":[3.2233894E-2,-7.536203E-2,1.13107406E-1,7.904952E-2,-3.880983E-1,2.1967715E-1,-8.989215E-2,-3.827596E-2,-1.4450422E-1,3.9828807E-1,-6.96706E-2,1.8705562E-1,-5.354495E-2],"categories":[],"categories_nodes":[],"categories_segments":[],"categories_sizes":[],"default_left":[0,0,0,0,0,0,0,0,0,0,0,0,0],"id":19,"left_children":[1,3,-1,5,7,9,-1,-1,-1,11,-1,-1,-1],"loss_changes":[4.4033465E-1,4.7958878E-1,0E0,4.4148752E-1,1.7580837E-2,5.542692E-1,0E0,0E0,0E0,6.917947E-1,0E0,0E0,0E0],"parents":[2147483647,0,0,1,1,3,3,4,4,5,5,9,9],"right_children":[2,4,-1,6,8,10,-1,-1,-1,12,-1,-1,-1],"split_conditions":[1.4103919E0,1.1727203E0,1.13107406E-1,1.5976034E0,4.5113516E-1,1.7227666E0,-8.989215E-2,-3.827596E-2,-1.4450422E-1,1.3862944E0,-6.96706E-2,1.8705562E-1,-5.354495E-2],"split_indices":[5,35,0,73,88,83,0,0,0,46,0,0,0],"split_type":[0,0,0,0,0,0,0,0,0,0,0,0,0],"sum_hessian":[1.0103574E1,8.296105E0,1.8074682E0,6.0541434E0,2.2419622E0,4.7209187E0,1.3332247E0,1.2171259E0,1.0248363E0,3.4686525E0,1.2522664E0,2.436243E0,1.0324093E0],"tree_param":{"num_deleted":"0","num_feature":"100","num_nodes":"13","size_leaf_vector":"1"}},{"base_weights":[1.6002672E-2,-7.384471E-2,1.22830294E-1,-2.1091269E-1,2.5405508E-1,-3.234186E-1,5.5602025E-2,9.6762955E-2,2.3395944E-2,-4.1983685E-1,2.1319594E-2,-1.5259698E-1,-2.3888184E-2],"categories":[],"categories_nodes":[],"categories_segments":[],"categories_sizes":[],"default_left":[0,0,0,0,0,0,0,0,0,0,0,0,0],"id":20,"left_children":[1,3,-1,5,7,9,-1,-1,-1,11,-1,-1,-1],"loss_changes":[4.0707448E-1,4.8171994E-1,0E0,3.8378313E-1,1.4178067E-2,2.5888747E-1,0E0,0E0,0E0,1.10101104E-1,0E0,0E0,0E0],"parents":[2147483647,0,0,1,1,3,3,4,4,5,5,9,9],"right_children":[2,4,-1,6,8,10,-1,-1,-1,12,-1,-1,-1],"split_conditions":[2.0329216E0,1.1727203E0,1.22830294E-1,1.9884697E0,6.021754E-1,1.4103919E0,5.5602025E-2,9.6762955E-2,2.3395944E-2,1.13498E0,2.1319594E-2,-1.5259698E-1,-2.3888184E-2],"split_indices":[7,17,0,81,63,50,0,0,0,3,0,0,0],"split_type":[0,0,0,0,0,0,0,0,0,0,0,0,0],"sum_hessian":[9.660615E0,8.525879E0,1.1347361E0,6.2641354E0,2.2617438E0,5.0220575E0,1.2420781E0,1.0294033E0,1.2323406E0,3.9840279E0,1.0380297E0,2.7666116E0,1.2174162E0],"tree_param":{"num_deleted":"0","num_feature":"100","num_nodes":"13","size_leaf_vector":"1"}},{"base_weights":[2.4707533E-2,1.3236733E-1,-8.911441E-2,-2.0840622E-2,1.3138998E-1,-1.3546115E-1,7.858571E-2,5.6265857E-2,-1.169857E-1,6.801563E-2,-5.6643125E-2],"categories":[],"categories_nodes":[],"categories_segments":[],"categories_sizes":[],"default_left":[0,0,0,0,0,0,0,0,0,0,0],"id":21,"left_children":[1,3,-1,5,-1,7,-1,9,-1,-1,-1],"loss_changes":[3.977217E-1,4.0448743E-1,0E0,2.487366E-1,0E0,2.8252798E-1,0E0,2.0655452E-1,0E0,0E0,0E0],"parents":[2147483647,0,0,1,1,3,3,5,5,7,7],"right_children":[2,4,-1,6,-1,8,-1,10,-1,-1,-1],"split_conditions":[1.4350846E0,1.1727203E0,-8.911441E-2,1.3627639E0,1.3138998E-1,1.1727203E0,7.858571E-2,1.4103919E0,-1.169857E-1,6.801563E-2,-5.6643125E-2],"split_indices":[14,17,0,12,0,35,0,37,0,0,0],"split_type":[0,0,0,0,0,0,0,0,0,0,0],"sum_hessian":[9.346445E0,7.444212E0,1.9022331E0,5.579041E0,1.865171E0,4.340681E0,1.2383596E0,2.9198506E0,1.4208307E0,1.7662867E0,1.1535639E0],"tree_param":{"num_deleted":"0","num_feature":"100","num_nodes":"11","size_leaf_vector":"1"}},{"base_weights":[1.9702666E-2,-9.2775226E-2,9.322097E-2,4.8878334E-2,-1.2760372E-1,1.1521123E-1,-2.097334E-1,-3.8370404E-1,4.7420572E-2,-1.4818406E-1,-2.9923351E-2],"categories":[],"categories_nodes":[],"categories_segments":[],"categories_sizes":[],"default_left":[0,0,0,0,0,0,0,0,0,0,0],"id":22,"left_children":[1,3,-1,5,-1,-1,7,9,-1,-1,-1],"loss_changes":[3.5699245E-1,3.9769506E-1,0E0,6.4460534E-1,0E0,0E0,3.3708015E-1,5.1676393E-2,0E0,0E0,0E0],"parents":[2147483647,0,0,1,1,3,3,6,6,7,7],"right_children":[2,4,-1,6,-1,-1,8,10,-1,-1,-1],"split_conditions":[1.658228E0,1.5976034E0,9.322097E-2,6.021754E-1,-1.2760372E-1,1.1521123E-1,9.0445626E-1,4.5113516E-1,4.7420572E-2,-1.4818406E-1,-2.9923351E-2],"split_indices":[4,73,0,63,0,0,99,88,0,0,0],"split_type":[0,0,0,0,0,0,0,0,0,0,0],"sum_hessian":[9.024898E0,7.000563E0,2.0243344E0,5.507677E0,1.4928861E0,2.187585E0,3.320092E0,2.224613E0,1.0954791E0,1.0697874E0,1.1548256E0],"tree_param":{"num_deleted":"0","num_feature":"100","num_nodes":"11","size_leaf_vector":"1"}},{"base_weights":[8.672346E-3,-9.499392E-2,1.0024793E-1,3.4336895E-2,-1.02832824E-1,1.4076227E-1,-6.919629E-2,3.2767585E-1,-6.357421E-2,1.4921051E-1,-1.2307859E-2],"categories":[],"categories_nodes":[],"categories_segments":[],"categories_sizes":[],"default_left":[0,0,0,0,0,0,0,0,0,0,0],"id":23,"left_children":[1,3,-1,5,-1,7,-1,9,-1,-1,-1],"loss_changes":[3.5717508E-1,2.711354E-1,0E0,2.0807521E-1,0E0,4.0323246E-1,0E0,2.520439E-1,0E0,0E0,0E0],"parents":[2147483647,0,0,1,1,3,3,5,5,7,7],"right_children":[2,4,-1,6,-1,8,-1,10,-1,-1,-1],"split_conditions":[1.4103919E0,1.1727203E0,1.0024793E-1,1.5976034E0,-1.02832824E-1,1.3862944E0,-6.919629E-2,1.4103919E0,-6.357421E-2,1.4921051E-1,-1.2307859E-2],"split_indices":[5,35,0,73,0,46,0,37,0,0,0],"split_type":[0,0,0,0,0,0,0,0,0,0,0],"sum_hessian":[8.644696E0,7.0935736E0,1.5511225E0,5.226832E0,1.8667415E0,4.0636134E0,1.1632185E0,2.7023127E0,1.3613006E0,1.6116097E0,1.090703E0],"tree_param":{"num_deleted":"0","num_feature":"100","num_nodes":"11","size_leaf_vector":"1"}},{"base_weights":[7.2797756E-3,-1.17713474E-1,2.5077233E-1,-2.1761294E-1,6.2499378E-2,9.8843895E-2,9.563956E-3,-3.415751E-1,4.1742634E-2,-4.7045314E-1,2.2290435E-3,-1.7877308E-1,-4.1173242E-2],"categories":[],"categories_nodes":[],"categories_segments":[],"categories_sizes":[],"default_left":[0,0,0,0,0,0,0,0,0,0,0,0,0],"id":24,"left_children":[1,3,5,7,-1,-1,-1,9,-1,11,-1,-1,-1],"loss_changes":[3.140869E-1,2.687441E-1,4.9641684E-2,3.0134755E-1,0E0,0E0,0E0,2.08098E-1,0E0,5.77392E-2,0E0,0E0,0E0],"parents":[2147483647,0,0,1,1,2,2,3,3,7,7,9,9],"right_children":[2,4,6,8,-1,-1,-1,10,-1,12,-1,-1,-1],"split_conditions":[1.0986123E0,1.4863778E0,1.4103919E0,1.13498E0,6.2499378E-2,9.8843895E-2,9.563956E-3,1.3627639E0,4.1742634E-2,9.0445626E-1,2.2290435E-3,-1.7877308E-1,-4.1173242E-2],"split_indices":[56,33,37,3,0,0,0,36,0,99,0,0,0],"split_type":[0,0,0,0,0,0,0,0,0,0,0,0,0],"sum_hessian":[8.350035E0,5.8589787E0,2.4910562E0,4.7394023E0,1.1195763E0,1.4606408E0,1.0304155E0,3.548834E0,1.1905682E0,2.337629E0,1.2112051E0,1.125476E0,1.212153E0],"tree_param":{"num_deleted":"0","num_feature":"100","num_nodes":"13","size_leaf_vector":"1"}},{"base_weights":[3.568809E-3,-9.109108E-2,9.167656E-2,-2.045907E-1,6.492651E-2,-3.141929E-1,5.0482567E-2,-5.001276E-1,2.6368577E-2,-1.8305871E-1,-3.1685624E-2],"categories":[],"categories_nodes":[],"categories_segments":[],"categories_sizes":[],"default_left":[0,0,0,0,0,0,0,0,0,0,0],"id":25,"left_children":[1,3,-1,5,-1,7,-1,9,-1,-1,-1],"loss_changes":[2.8784776E-1,3.1284744E-1,0E0,3.0356723E-1,0E0,4.2447358E-1,0E0,9.316701E-2,0E0,0E0,0E0],"parents":[2147483647,0,0,1,1,3,3,5,5,7,7],"right_children":[2,4,-1,6,-1,8,-1,10,-1,-1,-1],"split_conditions":[1.7227666E0,1.3627639E0,9.167656E-2,1.8281271E0,6.492651E-2,1.13498E0,5.0482567E-2,1.4863778E0,2.6368577E-2,-1.8305871E-1,-3.1685624E-2],"split_indices":[41,12,0,43,0,3,0,33,0,0,0],"split_type":[0,0,0,0,0,0,0,0,0,0,0],"sum_hessian":[8.094755E0,6.6948347E0,1.3999206E0,5.134455E0,1.5603793E0,4.089672E0,1.0447832E0,2.6297774E0,1.4598947E0,1.6286587E0,1.0011188E0],"tree_param":{"num_deleted":"0","num_feature":"100","num_nodes":"11","size_leaf_vector":"1"}},{"base_weights":[2.7793385E-3,1.0719318E-1,-9.562283E-2,-4.9502295E-2,1.3478342E-1,-2.1228413E-1,8.000188E-2,-3.6082146E-1,4.1423243E-2,-3.220991E-2,-1.3730907E-1],"categories":[],"categories_nodes":[],"categories_segments":[],"categories_sizes":[],"default_left":[0,0,0,0,0,0,0,0,0,0,0],"id":26,"left_children":[1,3,-1,5,-1,7,-1,9,-1,-1,-1],"loss_changes":[3.2876983E-1,4.1743225E-1,0E0,3.6321133E-1,0E0,2.8345233E-1,0E0,3.506434E-2,0E0,0E0,0E0],"parents":[2147483647,0,0,1,1,3,3,5,5,7,7],"right_children":[2,4,-1,6,-1,8,-1,10,-1,-1,-1],"split_conditions":[1.9050882E0,1.3627639E0,-9.562283E-2,1.3173015E0,1.3478342E-1,1.3173015E0,8.000188E-2,4.5113516E-1,4.1423243E-2,-3.220991E-2,-1.3730907E-1],"split_indices":[92,12,0,38,0,82,0,88,0,0,0],"split_type":[0,0,0,0,0,0,0,0,0,0,0],"sum_hessian":[7.775422E0,6.372552E0,1.4028702E0,4.9571643E0,1.4153875E0,3.4892974E0,1.4678669E0,2.429462E0,1.0598356E0,1.2548065E0,1.1746556E0],"tree_param":{"num_deleted":"0","num_feature":"100","num_nodes":"11","size_leaf_vector":"1"}},{"base_weights":[1.0631992E-3,1.0167797E-1,-8.082867E-2,2.1510254E-1,-5.3889234E-2,9.6919425E-2,-2.148204E-2],"categories":[],"categories_nodes":[],"categories_segments":[],"categories_sizes":[],"default_left":[0,0,0,0,0,0,0],"id":27,"left_children":[1,3,-1,5,-1,-1,-1],"loss_changes":[2.5870746E-1,2.594687E-1,0E0,1.8989195E-1,0E0,0E0,0E0],"parents":[2147483647,0,0,1,1,3,3],"right_children":[2,4,-1,6,-1,-1,-1],"split_conditions":[1.4350846E0,1.4103919E0,-8.082867E-2,1.1727203E0,-5.3889234E-2,9.6919425E-2,-2.148204E-2],"split_indices":[14,37,0,87,0,0,0],"split_type":[0,0,0,0,0,0,0],"sum_hessian":[7.4992914E0,5.9209714E0,1.5783199E0,4.387335E0,1.5336365E0,3.095066E0,1.2922689E0],"tree_param":{"num_deleted":"0","num_feature":"100","num_nodes":"7","size_leaf_vector":"1"}},{"base_weights":[-6.0037435E-3,-9.7890176E-2,8.425367E-2,9.077022E-2,-2.3294301E-1,8.715712E-2,-2.8156893E-2,-1.3460118E-1,6.266134E-2],"categories":[],"categories_nodes":[],"categories_segments":[],"categories_sizes":[],"default_left":[0,0,0,0,0,0,0,0,0],"id":28,"left_children":[1,3,-1,5,7,-1,-1,-1,-1],"loss_changes":[2.4708416E-1,2.0081112E-1,0E0,1.6230243E-1,5.1213586E-1,0E0,0E0,0E0,0E0],"parents":[2147483647,0,0,1,1,3,3,4,4],"right_children":[2,4,-1,6,8,-1,-1,-1,-1],"split_conditions":[1.4103919E0,4.5113516E-1,8.425367E-2,6.021754E-1,1.3627639E0,8.715712E-2,-2.8156893E-2,-1.3460118E-1,6.266134E-2],"split_indices":[5,88,0,63,36,0,0,0,0],"split_type":[0,0,0,0,0,0,0,0,0],"sum_hessian":[7.3312783E0,6.0515313E0,1.279747E0,2.6614885E0,3.3900428E0,1.0028726E0,1.658616E0,2.2674036E0,1.1226392E0],"tree_param":{"num_deleted":"0","num_feature":"100","num_nodes":"9","size_leaf_vector":"1"}},{"base_weights":[3.963975E-3,9.711872E-2,-8.3732665E-2,-6.520264E-2,1.1322757E-1,-1.5862632E-1,3.6066823E-2,3.2920472E-2,-1.0071773E-1],"categories":[],"categories_nodes":[],"categories_segments":[],"categories_sizes":[],"default_left":[0,0,0,0,0,0,0,0,0],"id":29,"left_children":[1,3,-1,5,-1,7,-1,-1,-1],"loss_changes":[2.4103917E-1,3.360982E-1,0E0,1.089443E-1,0E0,2.2129369E-1,0E0,0E0,0E0],"parents":[2147483647,0,0,1,1,3,3,5,5],"right_children":[2,4,-1,6,-1,8,-1,-1,-1],"split_conditions":[1.9050882E0,1.0986123E0,-8.3732665E-2,1.3627639E0,1.1322757E-1,4.5113516E-1,3.6066823E-2,3.2920472E-2,-1.0071773E-1],"split_indices":[92,56,0,36,0,88,0,0,0],"split_type":[0,0,0,0,0,0,0,0,0],"sum_hessian":[7.1128507E0,5.845954E0,1.2668971E0,4.188084E0,1.6578697E0,2.881043E0,1.307041E0,1.2966254E0,1.5844175E0],"tree_param":{"num_deleted":"0","num_feature":"100","num_nodes":"9","size_leaf_vector":"1"}},{"base_weights":[2.709376E-3,-1.00190505E-1,7.378347E-2,1.2706307E-2,-1.0066942E-1,-1.2368891E-1,8.557498E-2,-8.655742E-2,5.6592293E-2],"categories":[],"categories_nodes":[],"categories_segments":[],"categories_sizes":[],"default_left":[0,0,0,0,0,0,0,0,0],"id":30,"left_children":[1,3,-1,5,-1,7,-1,-1,-1],"loss_changes":[2.2286223E-1,1.7103174E-1,0E0,2.2876956E-1,0E0,2.6893023E-1,0E0,0E0,0E0],"parents":[2147483647,0,0,1,1,3,3,5,5],"right_children":[2,4,-1,6,-1,8,-1,-1,-1],"split_conditions":[1.1921383E0,1.9050882E0,7.378347E-2,1.4863778E0,-1.0066942E-1,1.1166308E0,8.557498E-2,-8.655742E-2,5.6592293E-2],"split_indices":[91,92,0,33,0,44,0,0,0],"split_type":[0,0,0,0,0,0,0,0,0],"sum_hessian":[6.919677E0,5.2758436E0,1.6438333E0,4.2049594E0,1.0708843E0,3.1664627E0,1.0384967E0,2.1225038E0,1.0439588E0],"tree_param":{"num_deleted":"0","num_feature":"100","num_nodes":"9","size_leaf_vector":"1"}},{"base_weights":[5.490219E-3,-8.046754E-2,8.046126E-2,-1.805425E-1,4.204131E-2,-8.826599E-2,2.165899E-2],"categories":[],"categories_nodes":[],"categories_segments":[],"categories_sizes":[],"default_left":[0,0,0,0,0,0,0],"id":31,"left_children":[1,3,-1,5,-1,-1,-1],"loss_changes":[1.9590005E-1,1.7068799E-1,0E0,1.6395643E-1,0E0,0E0,0E0],"parents":[2147483647,0,0,1,1,3,3],"right_children":[2,4,-1,6,-1,-1,-1],"split_conditions":[1.7227666E0,1.13498E0,8.046126E-2,1.3173015E0,4.204131E-2,-8.826599E-2,2.165899E-2],"split_indices":[41,66,0,38,0,0,0],"split_type":[0,0,0,0,0,0,0],"sum_hessian":[6.719244E0,5.585442E0,1.1338018E0,3.9673183E0,1.6181237E0,2.6232867E0,1.3440317E0],"tree_param":{"num_deleted":"0","num_feature":"100","num_nodes":"7","size_leaf_vector":"1"}},{"base_weights":[1.1118919E-2,-8.127337E-2,6.901732E-2,4.4742677E-2,-9.617754E-2,4.9501996E-2,-5.0835337E-2],"categories":[],"categories_nodes":[],"categories_segments":[],"categories_sizes":[],"default_left":[0,0,0,0,0,0,0],"id":32,"left_children":[1,3,-1,5,-1,-1,-1],"loss_changes":[1.7270531E-1,1.9809726E-1,0E0,1.5338156E-1,0E0,0E0,0E0],"parents":[2147483647,0,0,1,1,3,3],"right_children":[2,4,-1,6,-1,-1,-1],"split_conditions":[1.658228E0,1.4103919E0,6.901732E-2,1.1727203E0,-9.617754E-2,4.9501996E-2,-5.0835337E-2],"split_indices":[4,37,0,87,0,0,0],"split_type":[0,0,0,0,0,0,0],"sum_hessian":[6.613496E0,5.093023E0,1.520473E0,3.8688655E0,1.2241573E0,2.6247683E0,1.2440972E0],"tree_param":{"num_deleted":"0","num_feature":"100","num_nodes":"7","size_leaf_vector":"1"}},{"base_weights":[3.970043E-3,8.8361904E-2,-6.778591E-2,-3.3301644E-2,9.8625936E-2,-1.2732367E-1,4.141934E-2,-6.0967878E-2,1.1812068E-2],"categories":[],"categories_nodes":[],"categories_segments":[],"categories_sizes":[],"default_left":[0,0,0,0,0,0,0,0,0],"id":33,"left_children":[1,3,-1,5,-1,7,-1,-1,-1],"loss_changes":[1.6528687E-1,1.9220233E-1,0E0,9.850826E-2,0E0,5.562157E-2,0E0,0E0,0E0],"parents":[2147483647,0,0,1,1,3,3,5,5],"right_children":[2,4,-1,6,-1,8,-1,-1,-1],"split_conditions":[1.4350846E0,1.1727203E0,-6.778591E-2,1.4863778E0,9.8625936E-2,9.0445626E-1,4.141934E-2,-6.0967878E-2,1.1812068E-2],"split_indices":[14,17,0,33,0,99,0,0,0],"split_type":[0,0,0,0,0,0,0,0,0],"sum_hessian":[6.489381E0,5.197397E0,1.2919838E0,4.022867E0,1.1745301E0,2.7635956E0,1.2592715E0,1.748372E0,1.0152235E0],"tree_param":{"num_deleted":"0","num_feature":"100","num_nodes":"9","size_leaf_vector":"1"}},{"base_weights":[6.151689E-3,-8.869591E-2,5.8307182E-2,-1.8703224E-1,4.9600337E-2,-3.3820465E-1,3.6639016E-2,-1.3137051E-1,-2.203685E-2],"categories":[],"categories_nodes":[],"categories_segments":[],"categories_sizes":[],"default_left":[0,0,0,0,0,0,0,0,0],"id":34,"left_children":[1,3,-1,5,-1,7,-1,-1,-1],"loss_changes":[1.4869387E-1,1.7039144E-1,0E0,2.5135082E-1,0E0,5.4504037E-2,0E0,0E0,0E0],"parents":[2147483647,0,0,1,1,3,3,5,5],"right_children":[2,4,-1,6,-1,8,-1,-1,-1],"split_conditions":[1.0986123E0,1.13498E0,5.8307182E-2,1.3627639E0,4.9600337E-2,9.0445626E-1,3.6639016E-2,-1.3137051E-1,-2.203685E-2],"split_indices":[56,3,0,36,0,99,0,0,0],"split_type":[0,0,0,0,0,0,0,0,0],"sum_hessian":[6.364086E0,4.583118E0,1.7809682E0,3.4942274E0,1.0888907E0,2.2836447E0,1.2105826E0,1.1838211E0,1.0998236E0],"tree_param":{"num_deleted":"0","num_feature":"100","num_nodes":"9","size_leaf_vector":"1"}},{"base_weights":[2.573561E-3,-7.4282706E-2,7.0490375E-2,-1.847166E-1,6.9879875E-2,-1.01794824E-1,6.2707424E-2],"categories":[],"categories_nodes":[],"categories_segments":[],"categories_sizes":[],"default_left":[0,0,0,0,0,0,0],"id":35,"left_children":[1,3,-1,5,-1,-1,-1],"loss_changes":[1.4664358E-1,2.5321364E-1,0E0,3.8227803E-1,0E0,0E0,0E0],"parents":[2147483647,0,0,1,1,3,3],"right_children":[2,4,-1,6,-1,-1,-1],"split_conditions":[1.8281271E0,1.6274564E0,7.0490375E-2,1.4863778E0,6.9879875E-2,-1.01794824E-1,6.2707424E-2],"split_indices":[43,60,0,33,0,0,0],"split_type":[0,0,0,0,0,0,0],"sum_hessian":[6.2330666E0,5.195272E0,1.0377945E0,4.1148562E0,1.0804156E0,3.0539663E0,1.0608902E0],"tree_param":{"num_deleted":"0","num_feature":"100","num_nodes":"7","size_leaf_vector":"1"}},{"base_weights":[1.5817488E-2,9.459455E-2,-6.07756E-2,-1.8137868E-2,9.005185E-2,-1.8669781E-1,8.224934E-2,-7.410991E-2,-1.8421728E-2],"categories":[],"categories_nodes":[],"categories_segments":[],"categories_sizes":[],"default_left":[0,0,0,0,0,0,0,0,0],"id":36,"left_children":[1,3,-1,5,-1,7,-1,-1,-1],"loss_changes":[1.4074168E-1,1.4159754E-1,0E0,2.8459388E-1,0E0,1.204139E-2,0E0,0E0,0E0],"parents":[2147483647,0,0,1,1,3,3,5,5],"right_children":[2,4,-1,6,-1,8,-1,-1,-1],"split_conditions":[1.4350846E0,1.3627639E0,-6.07756E-2,1.13498E0,9.005185E-2,4.5113516E-1,8.224934E-2,-7.410991E-2,-1.8421728E-2],"split_indices":[14,12,0,3,0,88,0,0,0],"split_type":[0,0,0,0,0,0,0,0,0],"sum_hessian":[6.066392E0,4.8749104E0,1.1914814E0,3.7372797E0,1.1376308E0,2.5995188E0,1.1377609E0,1.0987504E0,1.5007684E0],"tree_param":{"num_deleted":"0","num_feature":"100","num_nodes":"9","size_leaf_vector":"1"}},{"base_weights":[1.4338077E-2,9.070596E-2,-5.517555E-2,7.9476915E-2,-8.4347785E-2,-5.28473E-2,1.1242684E-2],"categories":[],"categories_nodes":[],"categories_segments":[],"categories_sizes":[],"default_left":[0,0,0,0,0,0,0],"id":37,"left_children":[1,3,-1,-1,5,-1,-1],"loss_changes":[1.2156582E-1,1.9528717E-1,0E0,0E0,4.6721466E-2,0E0,0E0],"parents":[2147483647,0,0,1,1,4,4],"right_children":[2,4,-1,-1,6,-1,-1],"split_conditions":[1.5976034E0,6.021754E-1,-5.517555E-2,7.9476915E-2,4.5113516E-1,-5.28473E-2,1.1242684E-2],"split_indices":[73,63,0,0,88,0,0],"split_type":[0,0,0,0,0,0,0],"sum_hessian":[5.9273663E0,4.6707053E0,1.2566608E0,2.0836413E0,2.587064E0,1.2209274E0,1.3661367E0],"tree_param":{"num_deleted":"0","num_feature":"100","num_nodes":"7","size_leaf_vector":"1"}},{"base_weights":[7.8267185E-3,7.738449E-2,-5.860765E-2,-5.4651663E-2,8.7403044E-2,-1.6593854E-1,4.8063792E-2,1.0261083E-2,-9.4299436E-2],"categories":[],"categories_nodes":[],"categories_segments":[],"categories_sizes":[],"default_left":[0,0,0,0,0,0,0,0,0],"id":38,"left_children":[1,3,-1,5,-1,7,-1,-1,-1],"loss_changes":[1.1184138E-1,1.8018845E-1,0E0,1.3269922E-1,0E0,1.1216857E-1,0E0,0E0,0E0],"parents":[2147483647,0,0,1,1,3,3,5,5],"right_children":[2,4,-1,6,-1,8,-1,-1,-1],"split_conditions":[1.9050882E0,1.3173015E0,-5.860765E-2,1.3627639E0,8.7403044E-2,4.5113516E-1,4.8063792E-2,1.0261083E-2,-9.4299436E-2],"split_indices":[92,38,0,36,0,88,0,0,0],"split_type":[0,0,0,0,0,0,0,0,0],"sum_hessian":[5.84375E0,4.814661E0,1.0290891E0,3.4377573E0,1.3769037E0,2.4147608E0,1.0229965E0,1.3557392E0,1.0590215E0],"tree_param":{"num_deleted":"0","num_feature":"100","num_nodes":"9","size_leaf_vector":"1"}},{"base_weights":[4.5070234E-3,-7.4422725E-2,5.5078007E-2,3.6705483E-2,-6.69699E-2,7.05716E-2,-4.0563013E-2],"categories":[],"categories_nodes":[],"categories_segments":[],"categories_sizes":[],"default_left":[0,0,0,0,0,0,0],"id":39,"left_children":[1,3,-1,5,-1,-1,-1],"loss_changes":[1.0880832E-1,9.7220935E-2,0E0,1.663082E-1,0E0,0E0,0E0],"parents":[2147483647,0,0,1,1,3,3],"right_children":[2,4,-1,6,-1,-1,-1],"split_conditions":[1.1921383E0,1.0986123E0,5.5078007E-2,6.021754E-1,-6.69699E-2,7.05716E-2,-4.0563013E-2],"split_indices":[91,67,0,63,0,0,0],"split_type":[0,0,0,0,0,0,0],"sum_hessian":[5.731036E0,4.383501E0,1.3475348E0,2.9407527E0,1.4427484E0,1.1937898E0,1.746963E0],"tree_param":{"num_deleted":"0","num_feature":"100","num_nodes":"7","size_leaf_vector":"1"}},{"base_weights":[5.997327E-3,7.509511E-2,-5.4246128E-2,1.7253739E-1,-4.738173E-2,7.2959475E-2,-1.3907268E-3],"categories":[],"categories_nodes":[],"categories_segments":[],"categories_sizes":[],"default_left":[0,0,0,0,0,0,0],"id":40,"left_children":[1,3,-1,5,-1,-1,-1],"loss_changes":[9.932901E-2,1.5340844E-1,0E0,5.6156486E-2,0E0,0E0,0E0],"parents":[2147483647,0,0,1,1,3,3],"right_children":[2,4,-1,6,-1,-1,-1],"split_conditions":[1.4350846E0,1.4103919E0,-5.4246128E-2,1.1166308E0,-4.738173E-2,7.2959475E-2,-1.3907268E-3],"split_indices":[14,37,0,44,0,0,0],"split_type":[0,0,0,0,0,0,0],"sum_hessian":[5.642832E0,4.555815E0,1.0870169E0,3.3955746E0,1.1602405E0,2.1610415E0,1.2345331E0],"tree_param":{"num_deleted":"0","num_feature":"100","num_nodes":"7","size_leaf_vector":"1"}},{"base_weights":[-1.9454982E-4,-7.9862304E-2,5.4986455E-2,3.2023896E-2,-8.2007766E-2,3.395495E-2,-3.2975577E-2],"categories":[],"categories_nodes":[],"categories_segments":[],"categories_sizes":[],"default_left":[0,0,0,0,0,0,0],"id":41,"left_children":[1,3,-1,5,-1,-1,-1],"loss_changes":[1.1068969E-1,1.230237E-1,0E0,6.1279383E-2,0E0,0E0,0E0],"parents":[2147483647,0,0,1,1,3,3],"right_children":[2,4,-1,6,-1,-1,-1],"split_conditions":[1.658228E0,1.4103919E0,5.4986455E-2,1.1727203E0,-8.2007766E-2,3.395495E-2,-3.2975577E-2],"split_indices":[4,37,0,87,0,0,0],"split_type":[0,0,0,0,0,0,0],"sum_hessian":[5.570948E0,4.2781343E0,1.2928135E0,3.2394679E0,1.0386665E0,2.189931E0,1.049537E0],"tree_param":{"num_deleted":"0","num_feature":"100","num_nodes":"7","size_leaf_vector":"1"}},{"base_weights":[-4.253962E-3,-8.9207135E-2,4.8949808E-2,2.5101008E-2,-7.0849694E-2,6.828546E-2,-4.151433E-2],"categories":[],"categories_nodes":[],"categories_segments":[],"categories_sizes":[],"default_left":[0,0,0,0,0,0,0],"id":42,"left_children":[1,3,-1,5,-1,-1,-1],"loss_changes":[1.0696986E-1,8.919701E-2,0E0,1.5373635E-1,0E0,0E0,0E0],"parents":[2147483647,0,0,1,1,3,3],"right_children":[2,4,-1,6,-1,-1,-1],"split_conditions":[1.0986123E0,1.0986123E0,4.8949808E-2,6.021754E-1,-7.0849694E-2,6.828546E-2,-4.151433E-2],"split_indices":[56,67,0,63,0,0,0],"split_type":[0,0,0,0,0,0,0],"sum_hessian":[5.49759E0,3.9569156E0,1.5406744E0,2.692115E0,1.2648004E0,1.0272604E0,1.6648546E0],"tree_param":{"num_deleted":"0","num_feature":"100","num_nodes":"7","size_leaf_vector":"1"}},{"base_weights":[-2.2305748E-3,-7.7149466E-2,5.1363245E-2,5.146515E-2,-8.599453E-2,-2.4230346E-2,6.344076E-2],"categories":[],"categories_nodes":[],"categories_segments":[],"categories_sizes":[],"default_left":[0,0,0,0,0,0,0],"id":43,"left_children":[1,3,-1,5,-1,-1,-1],"loss_changes":[9.658264E-2,1.5406075E-1,0E0,1.02796204E-1,0E0,0E0,0E0],"parents":[2147483647,0,0,1,1,3,3],"right_children":[2,4,-1,6,-1,-1,-1],"split_conditions":[1.3627639E0,1.1727203E0,5.1363245E-2,1.13498E0,-8.599453E-2,-2.4230346E-2,6.344076E-2],"split_indices":[12,35,0,3,0,0,0],"split_type":[0,0,0,0,0,0,0],"sum_hessian":[5.4163146E0,4.1701717E0,1.2461429E0,3.0512838E0,1.118888E0,1.9417596E0,1.1095243E0],"tree_param":{"num_deleted":"0","num_feature":"100","num_nodes":"7","size_leaf_vector":"1"}},{"base_weights":[-9.277498E-4,-9.560385E-2,4.627146E-2,-5.817696E-2,2.761331E-2],"categories":[],"categories_nodes":[],"categories_segments":[],"categories_sizes":[],"default_left":[0,0,0,0,0],"id":44,"left_children":[1,3,-1,-1,-1],"loss_changes":[1.0779175E-1,1.0181217E-1,0E0,0E0,0E0],"parents":[2147483647,0,0,1,1],"right_children":[2,4,-1,-1,-1],"split_conditions":[1.13498E0,1.3173015E0,4.627146E-2,-5.817696E-2,2.761331E-2],"split_indices":[66,38,0,0,0],"split_type":[0,0,0,0,0],"sum_hessian":[5.33375E0,3.550957E0,1.7827926E0,2.3081493E0,1.2428077E0],"tree_param":{"num_deleted":"0","num_feature":"100","num_nodes":"5","size_leaf_vector":"1"}},{"base_weights":[1.7970117E-3,7.055033E-2,-5.35107E-2,1.422179E-1,-3.3194393E-2,1.7555729E-2,7.99194E-2,2.512242E-2,-1.5467375E-2],"categories":[],"categories_nodes":[],"categories_segments":[],"categories_sizes":[],"default_left":[0,0,0,0,0,0,0,0,0],"id":45,"left_children":[1,3,-1,5,-1,7,-1,-1,-1],"loss_changes":[9.051865E-2,8.417803E-2,0E0,6.0562074E-2,0E0,1.883459E-2,0E0,0E0,0E0],"parents":[2147483647,0,0,1,1,3,3,5,5],"right_children":[2,4,-1,6,-1,8,-1,-1,-1],"split_conditions":[1.4350846E0,1.4103919E0,-5.35107E-2,9.0445626E-1,-3.3194393E-2,6.021754E-1,7.99194E-2,2.512242E-2,-1.5467375E-2],"split_indices":[14,37,0,99,0,63,0,0,0],"split_type":[0,0,0,0,0,0,0,0,0],"sum_hessian":[5.291645E0,4.2704206E0,1.0212244E0,3.214247E0,1.0561736E0,2.173591E0,1.0406561E0,1.0022005E0,1.1713904E0],"tree_param":{"num_deleted":"0","num_feature":"100","num_nodes":"9","size_leaf_vector":"1"}},{"base_weights":[1.8808799E-3,6.838216E-2,-5.1291447E-2,6.8878695E-2,-5.1469002E-2],"categories":[],"categories_nodes":[],"categories_segments":[],"categories_sizes":[],"default_left":[0,0,0,0,0],"id":46,"left_children":[1,3,-1,-1,-1],"loss_changes":[8.327637E-2,2.4098782E-1,0E0,0E0,0E0],"parents":[2147483647,0,0,1,1],"right_children":[2,4,-1,-1,-1],"split_conditions":[1.3862944E0,1.0986123E0,-5.1291447E-2,6.8878695E-2,-5.1469002E-2],"split_indices":[46,67,0,0,0],"split_type":[0,0,0,0,0],"sum_hessian":[5.2275405E0,4.2116046E0,1.0159357E0,2.54489E0,1.6667148E0],"tree_param":{"num_deleted":"0","num_feature":"100","num_nodes":"5","size_leaf_vector":"1"}},{"base_weights":[-4.0432764E-3,-8.113567E-2,5.1874567E-2,-1.63776E-1,2.977807E-2,2.5756128E-2,-9.223117E-2],"categories":[],"categories_nodes":[],"categories_segments":[],"categories_sizes":[],"default_left":[0,0,0,0,0,0,0],"id":47,"left_children":[1,3,-1,5,-1,-1,-1],"loss_changes":[9.8112844E-2,9.040564E-2,0E0,1.6225821E-1,0E0,0E0,0E0],"parents":[2147483647,0,0,1,1,3,3],"right_children":[2,4,-1,6,-1,-1,-1],"split_conditions":[1.1921383E0,1.1166308E0,5.1874567E-2,4.5113516E-1,2.977807E-2,2.5756128E-2,-9.223117E-2],"split_indices":[91,44,0,88,0,0,0],"split_type":[0,0,0,0,0,0,0],"sum_hessian":[5.163488E0,3.973794E0,1.1896939E0,2.7884982E0,1.1852958E0,1.1655657E0,1.6229324E0],"tree_param":{"num_deleted":"0","num_feature":"100","num_nodes":"7","size_leaf_vector":"1"}},{"base_weights":[-6.820058E-4,-7.3129036E-2,4.8338115E-2,-1.4606968E-1,2.7883649E-2,-1.1073184E-3,-6.0818E-2],"categories":[],"categories_nodes":[],"categories_segments":[],"categories_sizes":[],"default_left":[0,0,0,0,0,0,0],"id":48,"left_children":[1,3,-1,5,-1,-1,-1],"loss_changes":[8.30671E-2,7.278926E-2,0E0,2.978661E-2,0E0,0E0,0E0],"parents":[2147483647,0,0,1,1,3,3],"right_children":[2,4,-1,6,-1,-1,-1],"split_conditions":[1.1727203E0,1.4863778E0,4.8338115E-2,4.5113516E-1,2.7883649E-2,-1.1073184E-3,-6.0818E-2],"split_indices":[17,33,0,88,0,0,0],"split_type":[0,0,0,0,0,0,0],"sum_hessian":[5.080914E0,3.8881292E0,1.1927849E0,2.7852798E0,1.1028496E0,1.0960534E0,1.6892263E0],"tree_param":{"num_deleted":"0","num_feature":"100","num_nodes":"7","size_leaf_vector":"1"}},{"base_weights":[1.8356034E-3,6.956078E-2,-4.911351E-2,6.16922E-2,-6.314322E-2,-5.4146003E-2,2.2670519E-2],"categories":[],"categories_nodes":[],"categories_segments":[],"categories_sizes":[],"default_left":[0,0,0,0,0,0,0],"id":49,"left_children":[1,3,-1,-1,5,-1,-1],"loss_changes":[7.905816E-2,1.0300857E-1,0E0,0E0,6.717323E-2,0E0,0E0],"parents":[2147483647,0,0,1,1,4,4],"right_children":[2,4,-1,-1,6,-1,-1],"split_conditions":[1.5976034E0,6.021754E-1,-4.911351E-2,6.16922E-2,4.5113516E-1,-5.4146003E-2,2.2670519E-2],"split_indices":[73,63,0,0,88,0,0],"split_type":[0,0,0,0,0,0,0],"sum_hessian":[5.035671E0,3.9851606E0,1.0505108E0,1.696196E0,2.2889647E0,1.0768424E0,1.2121222E0],"tree_param":{"num_deleted":"0","num_feature":"100","num_nodes":"7","size_leaf_vector":"1"}},{"base_weights":[-1.8113235E-3,-6.946801E-2,4.662706E-2,4.39749E-2,-7.499492E-2,-2.1378456E-2,5.212298E-2],"categories":[],"categories_nodes":[],"categories_segments":[],"categories_sizes":[],"default_left":[0,0,0,0,0,0,0],"id":50,"left_children":[1,3,-1,5,-1,-1,-1],"loss_changes":[7.438995E-2,1.1073418E-1,0E0,6.982527E-2,0E0,0E0,0E0],"parents":[2147483647,0,0,1,1,3,3],"right_children":[2,4,-1,6,-1,-1,-1],"split_conditions":[1.3627639E0,1.1727203E0,4.662706E-2,1.1166308E0,-7.499492E-2,-2.1378456E-2,5.212298E-2],"split_indices":[12,35,0,44,0,0,0],"split_type":[0,0,0,0,0,0,0],"sum_hessian":[4.977915E0,3.870615E0,1.1072999E0,2.8413737E0,1.0292413E0,1.7437507E0,1.097623E0],"tree_param":{"num_deleted":"0","num_feature":"100","num_nodes":"7","size_leaf_vector":"1"}},{"base_weights":[-9.445395E-4,-7.5734384E-2,4.2453907E-2,-4.8390508E-2,2.055813E-2],"categories":[],"categories_nodes":[],"categories_segments":[],"categories_sizes":[],"default_left":[0,0,0,0,0],"id":51,"left_children":[1,3,-1,-1,-1],"loss_changes":[7.380499E-2,6.7024074E-2,0E0,0E0,0E0],"parents":[2147483647,0,0,1,1],"right_children":[2,4,-1,-1,-1],"split_conditions":[1.0986123E0,1.13498E0,4.2453907E-2,-4.8390508E-2,2.055813E-2],"split_indices":[56,66,0,0,0],"split_type":[0,0,0,0,0],"sum_hessian":[4.921283E0,3.5342064E0,1.3870767E0,2.1442466E0,1.3899596E0],"tree_param":{"num_deleted":"0","num_feature":"100","num_nodes":"5","size_leaf_vector":"1"}},{"base_weights":[1.8024781E-3,-6.091814E-2,4.2958625E-2,-1.13655135E-1,2.0418506E-2,3.6394598E-3,-5.9726834E-2],"categories":[],"categories_nodes":[],"categories_segments":[],"categories_sizes":[],"default_left":[0,0,0,0,0,0,0],"id":52,"left_children":[1,3,-1,5,-1,-1,-1],"loss_changes":[6.09391E-2,4.025077E-2,0E0,4.290254E-2,0E0,0E0,0E0],"parents":[2147483647,0,0,1,1,3,3],"right_children":[2,4,-1,6,-1,-1,-1],"split_conditions":[1.658228E0,1.3627639E0,4.2958625E-2,4.5113516E-1,2.0418506E-2,3.6394598E-3,-5.9726834E-2],"split_indices":[4,36,0,88,0,0,0],"split_type":[0,0,0,0,0,0,0],"sum_hessian":[4.887959E0,3.7802372E0,1.1077217E0,2.7674875E0,1.0127497E0,1.4664316E0,1.3010558E0],"tree_param":{"num_deleted":"0","num_feature":"100","num_nodes":"7","size_leaf_vector":"1"}},{"base_weights":[2.4539747E-3,6.38246E-2,-4.3782607E-2,5.3854022E-2,-5.065213E-2,-4.9175147E-2,2.3335872E-2],"categories":[],"categories_nodes":[],"categories_segments":[],"categories_sizes":[],"default_left":[0,0,0,0,0,0,0],"id":53,"left_children":[1,3,-1,-1,5,-1,-1],"loss_changes":[6.259118E-2,7.311523E-2,0E0,0E0,5.944468E-2,0E0,0E0],"parents":[2147483647,0,0,1,1,4,4],"right_children":[2,4,-1,-1,6,-1,-1],"split_conditions":[1.5976034E0,6.021754E-1,-4.3782607E-2,5.3854022E-2,4.5113516E-1,-4.9175147E-2,2.3335872E-2],"split_indices":[73,63,0,0,88,0,0],"split_type":[0,0,0,0,0,0,0],"sum_hessian":[4.84996E0,3.8341942E0,1.0157654E0,1.624437E0,2.2097573E0,1.0274528E0,1.1823044E0],"tree_param":{"num_deleted":"0","num_feature":"100","num_nodes":"7","size_leaf_vector":"1"}},{"base_weights":[-9.5020735E-4,-6.3724354E-2,4.351502E-2,-1.5261821E-1,3.4107316E-2,-1.3065282E-3,-7.40548E-2],"categories":[],"categories_nodes":[],"categories_segments":[],"categories_sizes":[],"default_left":[0,0,0,0,0,0,0],"id":54,"left_children":[1,3,-1,5,-1,-1,-1],"loss_changes":[6.2426865E-2,9.230911E-2,0E0,4.91264E-2,0E0,0E0,0E0],"parents":[2147483647,0,0,1,1,3,3],"right_children":[2,4,-1,6,-1,-1,-1],"split_conditions":[1.3627639E0,1.3173015E0,4.351502E-2,6.021754E-1,3.4107316E-2,-1.3065282E-3,-7.40548E-2],"split_indices":[12,38,0,63,0,0,0],"split_type":[0,0,0,0,0,0,0],"sum_hessian":[4.8028803E0,3.7528439E0,1.0500365E0,2.593261E0,1.1595826E0,1.414269E0,1.1789922E0],"tree_param":{"num_deleted":"0","num_feature":"100","num_nodes":"7","size_leaf_vector":"1"}},{"base_weights":[-4.2799098E-4,-7.6996975E-2,3.6887515E-2,-5.0158773E-2,2.7202742E-2],"categories":[],"categories_nodes":[],"categories_segments":[],"categories_sizes":[],"default_left":[0,0,0,0,0],"id":55,"left_children":[1,3,-1,-1,-1],"loss_changes":[6.382019E-2,7.8151524E-2,0E0,0E0,0E0],"parents":[2147483647,0,0,1,1],"right_children":[2,4,-1,-1,-1],"split_conditions":[1.13498E0,1.3173015E0,3.6887515E-2,-5.0158773E-2,2.7202742E-2],"split_indices":[66,38,0,0,0],"split_type":[0,0,0,0,0],"sum_hessian":[4.7530956E0,3.1649895E0,1.588106E0,2.0597818E0,1.1052077E0],"tree_param":{"num_deleted":"0","num_feature":"100","num_nodes":"5","size_leaf_vector":"1"}},{"base_weights":[2.1033168E-3,-6.0856786E-2,4.26795E-2,-1.2799527E-1,2.6568558E-2,4.658093E-3,-5.6679E-2],"categories":[],"categories_nodes":[],"categories_segments":[],"categories_sizes":[],"default_left":[0,0,0,0,0,0,0],"id":56,"left_children":[1,3,-1,5,-1,-1,-1],"loss_changes":[5.917589E-2,5.798958E-2,0E0,3.4572728E-2,0E0,0E0,0E0],"parents":[2147483647,0,0,1,1,3,3],"right_children":[2,4,-1,6,-1,-1,-1],"split_conditions":[1.1727203E0,1.4863778E0,4.26795E-2,4.5113516E-1,2.6568558E-2,4.658093E-3,-5.6679E-2],"split_indices":[17,33,0,88,0,0,0],"split_type":[0,0,0,0,0,0,0],"sum_hessian":[4.7246943E0,3.6506472E0,1.0740471E0,2.6177764E0,1.0328708E0,1.0022707E0,1.6155057E0],"tree_param":{"num_deleted":"0","num_feature":"100","num_nodes":"7","size_leaf_vector":"1"}},{"base_weights":[4.4614878E-3,-5.6516726E-2,4.1144587E-2,-1.2587392E-1,2.7510682E-2,2.371307E-2,-7.3362574E-2],"categories":[],"categories_nodes":[],"categories_segments":[],"categories_sizes":[],"default_left":[0,0,0,0,0,0,0],"id":57,"left_children":[1,3,-1,5,-1,-1,-1],"loss_changes":[5.3775854E-2,5.888745E-2,0E0,1.05870575E-1,0E0,0E0,0E0],"parents":[2147483647,0,0,1,1,3,3],"right_children":[2,4,-1,6,-1,-1,-1],"split_conditions":[1.1921383E0,1.1166308E0,4.1144587E-2,4.5113516E-1,2.7510682E-2,2.371307E-2,-7.3362574E-2],"split_indices":[91,44,0,88,0,0,0],"split_type":[0,0,0,0,0,0,0],"sum_hessian":[4.68836E0,3.6054747E0,1.0828857E0,2.5588503E0,1.0466244E0,1.0608573E0,1.4979929E0],"tree_param":{"num_deleted":"0","num_feature":"100","num_nodes":"7","size_leaf_vector":"1"}},{"base_weights":[6.3598026E-3,-6.408099E-2,4.0318877E-2,-5.4153327E-2,4.329299E-2],"categories":[],"categories_nodes":[],"categories_segments":[],"categories_sizes":[],"default_left":[0,0,0,0,0],"id":58,"left_children":[1,3,-1,-1,-1],"loss_changes":[5.9420068E-2,1.3065273E-1,0E0,0E0,0E0],"parents":[2147483647,0,0,1,1],"right_children":[2,4,-1,-1,-1],"split_conditions":[1.3627639E0,1.3173015E0,4.0318877E-2,-5.4153327E-2,4.329299E-2],"split_indices":[36,38,0,0,0],"split_type":[0,0,0,0,0],"sum_hessian":[4.633427E0,3.3112261E0,1.3222011E0,2.210169E0,1.1010569E0],"tree_param":{"num_deleted":"0","num_feature":"100","num_nodes":"5","size_leaf_vector":"1"}},{"base_weights":[9.723724E-3,-5.1566876E-2,3.659254E-2,3.0119253E-2,-4.816037E-2,-9.697974E-3,2.4170455E-2],"categories":[],"categories_nodes":[],"categories_segments":[],"categories_sizes":[],"default_left":[0,0,0,0,0,0,0],"id":59,"left_children":[1,3,-1,5,-1,-1,-1],"loss_changes":[4.4797376E-2,4.3316405E-2,0E0,1.3041271E-2,0E0,0E0,0E0],"parents":[2147483647,0,0,1,1,3,3],"right_children":[2,4,-1,6,-1,-1,-1],"split_conditions":[1.0986123E0,1.0986123E0,3.659254E-2,1.13498E0,-4.816037E-2,-9.697974E-3,2.4170455E-2],"split_indices":[56,67,0,66,0,0,0],"split_type":[0,0,0,0,0,0,0],"sum_hessian":[4.5970564E0,3.3231754E0,1.2738808E0,2.3129208E0,1.0102547E0,1.1940919E0,1.1188289E0],"tree_param":{"num_deleted":"0","num_feature":"100","num_nodes":"7","size_leaf_vector":"1"}},{"base_weights":[7.3455283E-3,6.633924E-2,-3.380929E-2,1.4445825E-1,-2.7651852E-2,6.532851E-2,-2.4207018E-3],"categories":[],"categories_nodes":[],"categories_segments":[],"categories_sizes":[],"default_left":[0,0,0,0,0,0,0],"id":60,"left_children":[1,3,-1,5,-1,-1,-1],"loss_changes":[4.693978E-2,6.7376174E-2,0E0,3.8810752E-2,0E0,0E0,0E0],"parents":[2147483647,0,0,1,1,3,3],"right_children":[2,4,-1,6,-1,-1,-1],"split_conditions":[1.4103919E0,1.3173015E0,-3.380929E-2,1.1727203E0,-2.7651852E-2,6.532851E-2,-2.4207018E-3],"split_indices":[37,10,0,35,0,0,0],"split_type":[0,0,0,0,0,0,0],"sum_hessian":[4.5725307E0,3.365815E0,1.2067161E0,2.31405E0,1.0517648E0,1.2740574E0,1.0399927E0],"tree_param":{"num_deleted":"0","num_feature":"100","num_nodes":"7","size_leaf_vector":"1"}},{"base_weights":[5.533499E-3,-5.4186463E-2,4.0288642E-2,-1.16418354E-1,2.3739224E-2,1.8154461E-2,-6.5206125E-2],"categories":[],"categories_nodes":[],"categories_segments":[],"categories_sizes":[],"default_left":[0,0,0,0,0,0,0],"id":61,"left_children":[1,3,-1,5,-1,-1,-1],"loss_changes":[4.9910393E-2,4.654757E-2,0E0,7.517016E-2,0E0,0E0,0E0],"parents":[2147483647,0,0,1,1,3,3],"right_children":[2,4,-1,6,-1,-1,-1],"split_conditions":[1.1921383E0,1.1166308E0,4.0288642E-2,4.5113516E-1,2.3739224E-2,1.8154461E-2,-6.5206125E-2],"split_indices":[91,44,0,88,0,0,0],"split_type":[0,0,0,0,0,0,0],"sum_hessian":[4.5442505E0,3.5000815E0,1.0441688E0,2.472627E0,1.0274547E0,1.0436445E0,1.4289823E0],"tree_param":{"num_deleted":"0","num_feature":"100","num_nodes":"7","size_leaf_vector":"1"}},{"base_weights":[6.8790494E-3,-6.073288E-2,3.8224034E-2,-5.2993085E-2,4.065193E-2],"categories":[],"categories_nodes":[],"categories_segments":[],"categories_sizes":[],"default_left":[0,0,0,0,0],"id":62,"left_children":[1,3,-1,-1,-1],"loss_changes":[5.2554224E-2,1.19475536E-1,0E0,0E0,0E0],"parents":[2147483647,0,0,1,1],"right_children":[2,4,-1,-1,-1],"split_conditions":[1.3627639E0,1.13498E0,3.8224034E-2,-5.2993085E-2,4.065193E-2],"split_indices":[36,3,0,0,0],"split_type":[0,0,0,0,0],"sum_hessian":[4.4991965E0,3.200219E0,1.2989775E0,2.0746574E0,1.1255615E0],"tree_param":{"num_deleted":"0","num_feature":"100","num_nodes":"5","size_leaf_vector":"1"}},{"base_weights":[9.557907E-3,6.588835E-2,-3.1767745E-2,1.4047328E-1,-2.5683245E-2,5.8925625E-2,3.0895777E-3],"categories":[],"categories_nodes":[],"categories_segments":[],"categories_sizes":[],"default_left":[0,0,0,0,0,0,0],"id":63,"left_children":[1,3,-1,5,-1,-1,-1],"loss_changes":[4.2495295E-2,6.0467303E-2,0E0,2.1656051E-2,0E0,0E0,0E0],"parents":[2147483647,0,0,1,1,3,3],"right_children":[2,4,-1,6,-1,-1,-1],"split_conditions":[1.4103919E0,1.3173015E0,-3.1767745E-2,1.1727203E0,-2.5683245E-2,5.8925625E-2,3.0895777E-3],"split_indices":[37,10,0,35,0,0,0],"split_type":[0,0,0,0,0,0,0],"sum_hessian":[4.4615083E0,3.2870073E0,1.174501E0,2.2513957E0,1.0356117E0,1.2187325E0,1.0326632E0],"tree_param":{"num_deleted":"0","num_feature":"100","num_nodes":"7","size_leaf_vector":"1"}},{"base_weights":[7.632591E-3,-4.9409363E-2,3.8659807E-2,-1.0637645E-1,2.1450765E-2,1.2678216E-2,-5.6805197E-2],"categories":[],"categories_nodes":[],"categories_segments":[],"categories_sizes":[],"default_left":[0,0,0,0,0,0,0],"id":64,"left_children":[1,3,-1,5,-1,-1,-1],"loss_changes":[4.397618E-2,3.8059276E-2,0E0,5.002372E-2,0E0,0E0,0E0],"parents":[2147483647,0,0,1,1,3,3],"right_children":[2,4,-1,6,-1,-1,-1],"split_conditions":[1.1921383E0,1.1166308E0,3.8659807E-2,4.5113516E-1,2.1450765E-2,1.2678216E-2,-5.6805197E-2],"split_indices":[91,44,0,88,0,0,0],"split_type":[0,0,0,0,0,0,0],"sum_hessian":[4.4384475E0,3.4211807E0,1.017267E0,2.4072373E0,1.0139434E0,1.0381703E0,1.3690668E0],"tree_param":{"num_deleted":"0","num_feature":"100","num_nodes":"7","size_leaf_vector":"1"}},{"base_weights":[8.26852E-3,-5.6754395E-2,3.6476895E-2,-4.6873733E-2,3.783676E-2],"categories":[],"categories_nodes":[],"categories_segments":[],"categories_sizes":[],"default_left":[0,0,0,0,0],"id":65,"left_children":[1,3,-1,-1,-1],"loss_changes":[4.6706464E-2,9.456533E-2,0E0,0E0,0E0],"parents":[2147483647,0,0,1,1],"right_children":[2,4,-1,-1,-1],"split_conditions":[1.3627639E0,1.3173015E0,3.6476895E-2,-4.6873733E-2,3.783676E-2],"split_indices":[36,38,0,0,0],"split_type":[0,0,0,0,0],"sum_hessian":[4.402168E0,3.1143475E0,1.2878201E0,2.111333E0,1.0030147E0],"tree_param":{"num_deleted":"0","num_feature":"100","num_nodes":"5","size_leaf_vector":"1"}},{"base_weights":[1.0911342E-2,-5.020049E-2,3.0675203E-2,-2.9695192E-2,1.3589108E-2],"categories":[],"categories_nodes":[],"categories_segments":[],"categories_sizes":[],"default_left":[0,0,0,0,0],"id":66,"left_children":[1,3,-1,-1,-1],"loss_changes":[3.513592E-2,2.2611108E-2,0E0,0E0,0E0],"parents":[2147483647,0,0,1,1],"right_children":[2,4,-1,-1,-1],"split_conditions":[1.13498E0,1.0986123E0,3.0675203E-2,-2.9695192E-2,1.3589108E-2],"split_indices":[66,56,0,0,0],"split_type":[0,0,0,0,0],"sum_hessian":[4.375018E0,2.8910902E0,1.4839278E0,1.8894067E0,1.0016835E0],"tree_param":{"num_deleted":"0","num_feature":"100","num_nodes":"5","size_leaf_vector":"1"}},{"base_weights":[1.0376482E-2,5.8942292E-2,-2.7135773E-2,1.22247E-1,-2.102606E-2,5.3164814E-2,8.839252E-4],"categories":[],"categories_nodes":[],"categories_segments":[],"categories_sizes":[],"default_left":[0,0,0,0,0,0,0],"id":67,"left_children":[1,3,-1,5,-1,-1,-1],"loss_changes":[3.1582385E-2,4.3066412E-2,0E0,2.0448536E-2,0E0,0E0,0E0],"parents":[2147483647,0,0,1,1,3,3],"right_children":[2,4,-1,6,-1,-1,-1],"split_conditions":[1.4103919E0,1.3173015E0,-2.7135773E-2,1.1727203E0,-2.102606E-2,5.3164814E-2,8.839252E-4],"split_indices":[37,10,0,35,0,0,0],"split_type":[0,0,0,0,0,0,0],"sum_hessian":[4.360779E0,3.2235377E0,1.1372412E0,2.197806E0,1.0257317E0,1.1722301E0,1.0255759E0],"tree_param":{"num_deleted":"0","num_feature":"100","num_nodes":"7","size_leaf_vector":"1"}},{"base_weights":[8.447588E-3,-4.3808013E-2,3.190902E-2,-3.950307E-2,3.2042492E-2],"categories":[],"categories_nodes":[],"categories_segments":[],"categories_sizes":[],"default_left":[0,0,0,0,0],"id":68,"left_children":[1,3,-1,-1,-1],"loss_changes":[3.1996652E-2,6.9541976E-2,0E0,0E0,0E0],"parents":[2147483647,0,0,1,1],"right_children":[2,4,-1,-1,-1],"split_conditions":[1.4863778E0,1.1166308E0,3.190902E-2,-3.950307E-2,3.2042492E-2],"split_indices":[33,44,0,0,0],"split_type":[0,0,0,0,0],"sum_hessian":[4.3427706E0,3.19191E0,1.1508603E0,2.0952795E0,1.0966307E0],"tree_param":{"num_deleted":"0","num_feature":"100","num_nodes":"5","size_leaf_vector":"1"}},{"base_weights":[1.0528706E-2,-4.6066407E-2,3.242678E-2,-4.5953862E-2,3.919848E-2],"categories":[],"categories_nodes":[],"categories_segments":[],"categories_sizes":[],"default_left":[0,0,0,0,0],"id":69,"left_children":[1,3,-1,-1,-1],"loss_changes":[3.4350354E-2,9.701562E-2,0E0,0E0,0E0],"parents":[2147483647,0,0,1,1],"right_children":[2,4,-1,-1,-1],"split_conditions":[1.3627639E0,1.13498E0,3.242678E-2,-4.5953862E-2,3.919848E-2],"split_indices":[36,3,0,0,0],"split_type":[0,0,0,0,0],"sum_hessian":[4.319448E0,3.0676906E0,1.2517576E0,1.9929996E0,1.0746909E0],"tree_param":{"num_deleted":"0","num_feature":"100","num_nodes":"5","size_leaf_vector":"1"}},{"base_weights":[1.2253733E-2,5.9065238E-2,-2.5657415E-2,1.20237835E-1,-1.9965086E-2,4.8508763E-2,5.031645E-3],"categories":[],"categories_nodes":[],"categories_segments":[],"categories_sizes":[],"default_left":[0,0,0,0,0,0,0],"id":70,"left_children":[1,3,-1,5,-1,-1,-1],"loss_changes":[2.9264051E-2,4.0035464E-2,0E0,1.0841839E-2,0E0,0E0,0E0],"parents":[2147483647,0,0,1,1,3,3],"right_children":[2,4,-1,6,-1,-1,-1],"split_conditions":[1.4103919E0,1.3173015E0,-2.5657415E-2,1.1727203E0,-1.9965086E-2,4.8508763E-2,5.031645E-3],"split_indices":[37,10,0,35,0,0,0],"split_type":[0,0,0,0,0,0,0],"sum_hessian":[4.2898593E0,3.168747E0,1.1211121E0,2.1597812E0,1.0089656E0,1.1401384E0,1.019643E0],"tree_param":{"num_deleted":"0","num_feature":"100","num_nodes":"7","size_leaf_vector":"1"}},{"base_weights":[1.0146802E-2,-3.867155E-2,2.9375793E-2,-2.5505725E-2,1.0994765E-2],"categories":[],"categories_nodes":[],"categories_segments":[],"categories_sizes":[],"default_left":[0,0,0,0,0],"id":71,"left_children":[1,3,-1,-1,-1],"loss_changes":[2.6387988E-2,1.7450783E-2,0E0,0E0,0E0],"parents":[2147483647,0,0,1,1],"right_children":[2,4,-1,-1,-1],"split_conditions":[1.0986123E0,1.13498E0,2.9375793E-2,-2.5505725E-2,1.0994765E-2],"split_indices":[56,66,0,0,0],"split_type":[0,0,0,0,0],"sum_hessian":[4.274627E0,3.1063256E0,1.1683015E0,1.8433111E0,1.2630147E0],"tree_param":{"num_deleted":"0","num_feature":"100","num_nodes":"5","size_leaf_vector":"1"}},{"base_weights":[9.951535E-3,-3.8975947E-2,2.8036749E-2,2.9114436E-2,-4.8036497E-2],"categories":[],"categories_nodes":[],"categories_segments":[],"categories_sizes":[],"default_left":[0,0,0,0,0],"id":72,"left_children":[1,3,-1,-1,-1],"loss_changes":[2.5142703E-2,8.184741E-2,0E0,0E0,0E0],"parents":[2147483647,0,0,1,1],"right_children":[2,4,-1,-1,-1],"split_conditions":[1.3627639E0,4.5113516E-1,2.8036749E-2,2.9114436E-2,-4.8036497E-2],"split_indices":[36,88,0,0,0],"split_type":[0,0,0,0,0],"sum_hessian":[4.2623577E0,3.0238476E0,1.23851E0,1.5181555E0,1.505692E0],"tree_param":{"num_deleted":"0","num_feature":"100","num_nodes":"5","size_leaf_vector":"1"}},{"base_weights":[8.703989E-3,-3.5469733E-2,2.7191067E-2,-3.5097007E-2,3.0657534E-2],"categories":[],"categories_nodes":[],"categories_segments":[],"categories_sizes":[],"default_left":[0,0,0,0,0],"id":73,"left_children":[1,3,-1,-1,-1],"loss_changes":[2.2177543E-2,5.8222283E-2,0E0,0E0,0E0],"parents":[2147483647,0,0,1,1],"right_children":[2,4,-1,-1,-1],"split_conditions":[1.4863778E0,1.1166308E0,2.7191067E-2,-3.5097007E-2,3.0657534E-2],"split_indices":[33,44,0,0,0],"split_type":[0,0,0,0,0],"sum_hessian":[4.239349E0,3.1227963E0,1.1165525E0,2.055647E0,1.0671495E0],"tree_param":{"num_deleted":"0","num_feature":"100","num_nodes":"5","size_leaf_vector":"1"}},{"base_weights":[1.0469385E-2,5.2264918E-2,-2.3058265E-2,3.4936227E-2,-1.9554464E-2],"categories":[],"categories_nodes":[],"categories_segments":[],"categories_sizes":[],"default_left":[0,0,0,0,0],"id":74,"left_children":[1,3,-1,-1,-1],"loss_changes":[2.307309E-2,3.8696915E-2,0E0,0E0,0E0],"parents":[2147483647,0,0,1,1],"right_children":[2,4,-1,-1,-1],"split_conditions":[1.4103919E0,1.1166308E0,-2.3058265E-2,3.4936227E-2,-1.9554464E-2],"split_indices":[37,44,0,0,0],"split_type":[0,0,0,0,0],"sum_hessian":[4.2207894E0,3.1261609E0,1.0946287E0,2.026854E0,1.0993068E0],"tree_param":{"num_deleted":"0","num_feature":"100","num_nodes":"5","size_leaf_vector":"1"}},{"base_weights":[5.895435E-3,-4.2246655E-2,2.603944E-2,-4.512061E-2,1.7493764E-2],"categories":[],"categories_nodes":[],"categories_segments":[],"categories_sizes":[],"default_left":[0,0,0,0,0],"id":75,"left_children":[1,3,-1,-1,-1],"loss_changes":[2.3951255E-2,5.1596932E-2,0E0,0E0,0E0],"parents":[2147483647,0,0,1,1],"right_children":[2,4,-1,-1,-1],"split_conditions":[1.13498E0,4.5113516E-1,2.603944E-2,-4.512061E-2,1.7493764E-2],"split_indices":[3,88,0,0,0],"split_type":[0,0,0,0,0],"sum_hessian":[4.2080197E0,2.9377103E0,1.2703093E0,1.1765875E0,1.7611228E0],"tree_param":{"num_deleted":"0","num_feature":"100","num_nodes":"5","size_leaf_vector":"1"}},{"base_weights":[3.8041929E-3,-3.8916033E-2,2.4692532E-2,5.453224E-3,-3.1502526E-2],"categories":[],"categories_nodes":[],"categories_segments":[],"categories_sizes":[],"default_left":[0,0,0,0,0],"id":76,"left_children":[1,3,-1,-1,-1],"loss_changes":[2.0606967E-2,1.7152017E-2,0E0,0E0,0E0],"parents":[2147483647,0,0,1,1],"right_children":[2,4,-1,-1,-1],"split_conditions":[1.0986123E0,1.3173015E0,2.4692532E-2,5.453224E-3,-3.1502526E-2],"split_indices":[56,10,0,0,0],"split_type":[0,0,0,0,0],"sum_hessian":[4.1894174E0,3.039611E0,1.1498061E0,2.019795E0,1.0198162E0],"tree_param":{"num_deleted":"0","num_feature":"100","num_nodes":"5","size_leaf_vector":"1"}},{"base_weights":[2.4063946E-3,-4.517725E-2,2.2691341E-2,2.3402234E-3,-2.6243148E-2],"categories":[],"categories_nodes":[],"categories_segments":[],"categories_sizes":[],"default_left":[0,0,0,0,0],"id":77,"left_children":[1,3,-1,-1,-1],"loss_changes":[2.1470897E-2,9.12297E-3,0E0,0E0,0E0],"parents":[2147483647,0,0,1,1],"right_children":[2,4,-1,-1,-1],"split_conditions":[1.13498E0,1.0986123E0,2.2691341E-2,2.3402234E-3,-2.6243148E-2],"split_indices":[66,67,0,0,0],"split_type":[0,0,0,0,0],"sum_hessian":[4.1809964E0,2.7664962E0,1.4145E0,1.5903131E0,1.1761832E0],"tree_param":{"num_deleted":"0","num_feature":"100","num_nodes":"5","size_leaf_vector":"1"}},{"base_weights":[1.4489553E-3,-4.1073732E-2,2.2365972E-2,-4.0440716E-2,1.42074395E-2],"categories":[],"categories_nodes":[],"categories_segments":[],"categories_sizes":[],"default_left":[0,0,0,0,0],"id":78,"left_children":[1,3,-1,-1,-1],"loss_changes":[1.9142186E-2,3.883563E-2,0E0,0E0,0E0],"parents":[2147483647,0,0,1,1],"right_children":[2,4,-1,-1,-1],"split_conditions":[1.13498E0,4.5113516E-1,2.2365972E-2,-4.0440716E-2,1.42074395E-2],"split_indices":[3,88,0,0,0],"split_type":[0,0,0,0,0],"sum_hessian":[4.172764E0,2.9152148E0,1.2575492E0,1.1606652E0,1.7545497E0],"tree_param":{"num_deleted":"0","num_feature":"100","num_nodes":"5","size_leaf_vector":"1"}},{"base_weights":[2.4294814E-4,4.1891187E-2,-2.4254955E-2,2.6120452E-2,-1.3095952E-2],"categories":[],"categories_nodes":[],"categories_segments":[],"categories_sizes":[],"default_left":[0,0,0,0,0],"id":79,"left_children":[1,3,-1,-1,-1],"loss_changes":[2.0807689E-2,1.9516576E-2,0E0,0E0,0E0],"parents":[2147483647,0,0,1,1],"right_children":[2,4,-1,-1,-1],"split_conditions":[1.4103919E0,1.1166308E0,-2.4254955E-2,2.6120452E-2,-1.3095952E-2],"split_indices":[37,44,0,0,0],"split_type":[0,0,0,0,0],"sum_hessian":[4.15809E0,3.0665603E0,1.0915301E0,1.9951074E0,1.0714527E0],"tree_param":{"num_deleted":"0","num_feature":"100","num_nodes":"5","size_leaf_vector":"1"}},{"base_weights":[-2.0042502E-3,-4.2620443E-2,2.2497837E-2,2.6627593E-3,-2.9406939E-2],"categories":[],"categories_nodes":[],"categories_segments":[],"categories_sizes":[],"default_left":[0,0,0,0,0],"id":80,"left_children":[1,3,-1,-1,-1],"loss_changes":[1.9300751E-2,1.2307526E-2,0E0,0E0,0E0],"parents":[2147483647,0,0,1,1],"right_children":[2,4,-1,-1,-1],"split_conditions":[1.0986123E0,1.3173015E0,2.2497837E-2,2.6627593E-3,-2.9406939E-2],"split_indices":[56,10,0,0,0],"split_type":[0,0,0,0,0],"sum_hessian":[4.149616E0,3.0088851E0,1.1407306E0,1.9946599E0,1.0142254E0],"tree_param":{"num_deleted":"0","num_feature":"100","num_nodes":"5","size_leaf_vector":"1"}},{"base_weights":[-2.2300836E-3,-4.148433E-2,2.0985384E-2,2.6802609E-2,-4.6518832E-2],"categories":[],"categories_nodes":[],"categories_segments":[],"categories_sizes":[],"default_left":[0,0,0,0,0],"id":81,"left_children":[1,3,-1,-1,-1],"loss_changes":[1.7472304E-2,7.267509E-2,0E0,0E0,0E0],"parents":[2147483647,0,0,1,1],"right_children":[2,4,-1,-1,-1],"split_conditions":[1.3627639E0,4.5113516E-1,2.0985384E-2,2.6802609E-2,-4.6518832E-2],"split_indices":[36,88,0,0,0],"split_type":[0,0,0,0,0],"sum_hessian":[4.1423364E0,2.958628E0,1.1837084E0,1.4740824E0,1.4845457E0],"tree_param":{"num_deleted":"0","num_feature":"100","num_nodes":"5","size_leaf_vector":"1"}},{"base_weights":[-1.3575287E-3,-3.924166E-2,2.2318782E-2,-3.8567014E-2,3.379943E-2],"categories":[],"categories_nodes":[],"categories_segments":[],"categories_sizes":[],"default_left":[0,0,0,0,0],"id":82,"left_children":[1,3,-1,-1,-1],"loss_changes":[1.7619506E-2,6.969392E-2,0E0,0E0,0E0],"parents":[2147483647,0,0,1,1],"right_children":[2,4,-1,-1,-1],"split_conditions":[1.4863778E0,1.1166308E0,2.2318782E-2,-3.8567014E-2,3.379943E-2],"split_indices":[33,44,0,0,0],"split_type":[0,0,0,0,0],"sum_hessian":[4.1222415E0,3.0692825E0,1.052959E0,2.0296428E0,1.0396397E0],"tree_param":{"num_deleted":"0","num_feature":"100","num_nodes":"5","size_leaf_vector":"1"}},{"base_weights":[2.4714076E-3,3.9665636E-2,-2.132264E-2,2.6834141E-2,-1.5089101E-2],"categories":[],"categories_nodes":[],"categories_segments":[],"categories_sizes":[],"default_left":[0,0,0,0,0],"id":83,"left_children":[1,3,-1,-1,-1],"loss_changes":[1.6778538E-2,2.2551082E-2,0E0,0E0,0E0],"parents":[2147483647,0,0,1,1],"right_children":[2,4,-1,-1,-1],"split_conditions":[1.4103919E0,1.1166308E0,-2.132264E-2,2.6834141E-2,-1.5089101E-2],"split_indices":[37,44,0,0,0],"split_type":[0,0,0,0,0],"sum_hessian":[4.1029744E0,3.0308723E0,1.0721018E0,1.9548641E0,1.0760083E0],"tree_param":{"num_deleted":"0","num_feature":"100","num_nodes":"5","size_leaf_vector":"1"}},{"base_weights":[-1.3791518E-4,-3.9859034E-2,2.0647123E-2,-3.888843E-2,1.3812204E-2],"categories":[],"categories_nodes":[],"categories_segments":[],"categories_sizes":[],"default_left":[0,0,0,0,0],"id":84,"left_children":[1,3,-1,-1,-1],"loss_changes":[1.6698651E-2,3.577876E-2,0E0,0E0,0E0],"parents":[2147483647,0,0,1,1],"right_children":[2,4,-1,-1,-1],"split_conditions":[1.13498E0,4.5113516E-1,2.0647123E-2,-3.888843E-2,1.3812204E-2],"split_indices":[3,88,0,0,0],"split_type":[0,0,0,0,0],"sum_hessian":[4.094637E0,2.8659148E0,1.2287223E0,1.1524694E0,1.7134454E0],"tree_param":{"num_deleted":"0","num_feature":"100","num_nodes":"5","size_leaf_vector":"1"}},{"base_weights":[-9.914512E-4,-3.8556587E-2,2.035663E-2,-2.0139132E-2,5.4010125E-3],"categories":[],"categories_nodes":[],"categories_segments":[],"categories_sizes":[],"default_left":[0,0,0,0,0],"id":85,"left_children":[1,3,-1,-1,-1],"loss_changes":[1.5757704E-2,7.5521944E-3,0E0,0E0,0E0],"parents":[2147483647,0,0,1,1],"right_children":[2,4,-1,-1,-1],"split_conditions":[1.063521E0,1.3173015E0,2.035663E-2,-2.0139132E-2,5.4010125E-3],"split_indices":[9,38,0,0,0],"split_type":[0,0,0,0,0],"sum_hessian":[4.081283E0,2.9251761E0,1.1561067E0,1.8192228E0,1.1059535E0],"tree_param":{"num_deleted":"0","num_feature":"100","num_nodes":"5","size_leaf_vector":"1"}},{"base_weights":[4.120284E-4,-3.688767E-2,2.0837517E-2,7.3797973E-3,-2.3048785E-2],"categories":[],"categories_nodes":[],"categories_segments":[],"categories_sizes":[],"default_left":[0,0,0,0,0],"id":86,"left_children":[1,3,-1,-1,-1],"loss_changes":[1.5639761E-2,1.1590718E-2,0E0,0E0,0E0],"parents":[2147483647,0,0,1,1],"right_children":[2,4,-1,-1,-1],"split_conditions":[1.0986123E0,6.021754E-1,2.0837517E-2,7.3797973E-3,-2.3048785E-2],"split_indices":[56,63,0,0,0],"split_type":[0,0,0,0,0],"sum_hessian":[4.077876E0,2.950003E0,1.1278732E0,1.3129447E0,1.6370583E0],"tree_param":{"num_deleted":"0","num_feature":"100","num_nodes":"5","size_leaf_vector":"1"}},{"base_weights":[1.3054769E-3,-4.082455E-2,1.9926682E-2,2.027621E-3,-2.3425493E-2],"categories":[],"categories_nodes":[],"categories_segments":[],"categories_sizes":[],"default_left":[0,0,0,0,0],"id":87,"left_children":[1,3,-1,-1,-1],"loss_changes":[1.6616605E-2,7.0820926E-3,0E0,0E0,0E0],"parents":[2147483647,0,0,1,1],"right_children":[2,4,-1,-1,-1],"split_conditions":[1.13498E0,1.0986123E0,1.9926682E-2,2.027621E-3,-2.3425493E-2],"split_indices":[66,67,0,0,0],"split_type":[0,0,0,0,0],"sum_hessian":[4.0685596E0,2.6968052E0,1.3717545E0,1.543848E0,1.1529573E0],"tree_param":{"num_deleted":"0","num_feature":"100","num_nodes":"5","size_leaf_vector":"1"}},{"base_weights":[6.210007E-4,-3.7874196E-2,1.823502E-2,2.1211226E-2,-3.251434E-2],"categories":[],"categories_nodes":[],"categories_segments":[],"categories_sizes":[],"default_left":[0,0,0,0,0],"id":88,"left_children":[1,3,-1,-1,-1],"loss_changes":[1.4025319E-2,3.6010683E-2,0E0,0E0,0E0],"parents":[2147483647,0,0,1,1],"right_children":[2,4,-1,-1,-1],"split_conditions":[1.1166308E0,4.5113516E-1,1.823502E-2,2.1211226E-2,-3.251434E-2],"split_indices":[44,88,0,0,0],"split_type":[0,0,0,0,0],"sum_hessian":[4.0619097E0,2.7029083E0,1.3590015E0,1.0630506E0,1.6398576E0],"tree_param":{"num_deleted":"0","num_feature":"100","num_nodes":"5","size_leaf_vector":"1"}},{"base_weights":[1.7966259E-3,3.6192976E-2,-1.9872699E-2,2.3271006E-2,-1.2163128E-2],"categories":[],"categories_nodes":[],"categories_segments":[],"categories_sizes":[],"default_left":[0,0,0,0,0],"id":89,"left_children":[1,3,-1,-1,-1],"loss_changes":[1.421611E-2,1.5848685E-2,0E0,0E0,0E0],"parents":[2147483647,0,0,1,1],"right_children":[2,4,-1,-1,-1],"split_conditions":[1.4103919E0,1.1166308E0,-1.9872699E-2,2.3271006E-2,-1.2163128E-2],"split_indices":[37,44,0,0,0],"split_type":[0,0,0,0,0],"sum_hessian":[4.050056E0,3.0009923E0,1.0490636E0,1.9426445E0,1.0583478E0],"tree_param":{"num_deleted":"0","num_feature":"100","num_nodes":"5","size_leaf_vector":"1"}},{"base_weights":[-4.7283462E-4,-3.601343E-2,2.1285776E-2,-3.626936E-2,3.2584567E-2],"categories":[],"categories_nodes":[],"categories_segments":[],"categories_sizes":[],"default_left":[0,0,0,0,0],"id":90,"left_children":[1,3,-1,-1,-1],"loss_changes":[1.5358464E-2,6.2620476E-2,0E0,0E0,0E0],"parents":[2147483647,0,0,1,1],"right_children":[2,4,-1,-1,-1],"split_conditions":[1.4863778E0,1.1166308E0,2.1285776E-2,-3.626936E-2,3.2584567E-2],"split_indices":[33,44,0,0,0],"split_type":[0,0,0,0,0],"sum_hessian":[4.0436106E0,3.0311363E0,1.0124744E0,2.01348E0,1.0176566E0],"tree_param":{"num_deleted":"0","num_feature":"100","num_nodes":"5","size_leaf_vector":"1"}},{"base_weights":[3.1591589E-3,-3.7081096E-2,1.8944189E-2,4.4043362E-2,-5.634481E-2],"categories":[],"categories_nodes":[],"categories_segments":[],"categories_sizes":[],"default_left":[0,0,0,0,0],"id":91,"left_children":[1,3,-1,-1,-1],"loss_changes":[1.4474764E-2,1.2842491E-1,0E0,0E0,0E0],"parents":[2147483647,0,0,1,1],"right_children":[2,4,-1,-1,-1],"split_conditions":[9.0445626E-1,6.021754E-1,1.8944189E-2,4.4043362E-2,-5.634481E-2],"split_indices":[99,63,0,0,0],"split_type":[0,0,0,0,0],"sum_hessian":[4.026307E0,2.6383512E0,1.3879558E0,1.2001874E0,1.4381636E0],"tree_param":{"num_deleted":"0","num_feature":"100","num_nodes":"5","size_leaf_vector":"1"}},{"base_weights":[3.5043277E-3,-3.9009143E-2,2.0506721E-2,-1.8054541E-2,1.7790201E-3],"categories":[],"categories_nodes":[],"categories_segments":[],"categories_sizes":[],"default_left":[0,0,0,0,0],"id":92,"left_children":[1,3,-1,-1,-1],"loss_changes":[1.642997E-2,3.8317232E-3,0E0,0E0,0E0],"parents":[2147483647,0,0,1,1],"right_children":[2,4,-1,-1,-1],"split_conditions":[1.13498E0,1.13498E0,2.0506721E-2,-1.8054541E-2,1.7790201E-3],"split_indices":[66,3,0,0,0],"split_type":[0,0,0,0,0],"sum_hessian":[3.9920862E0,2.6520278E0,1.3400582E0,1.572145E0,1.079883E0],"tree_param":{"num_deleted":"0","num_feature":"100","num_nodes":"5","size_leaf_vector":"1"}},{"base_weights":[3.3053355E-3,-3.5060566E-2,2.1787029E-2,-1.729088E-2,2.774055E-3],"categories":[],"categories_nodes":[],"categories_segments":[],"categories_sizes":[],"default_left":[0,0,0,0,0],"id":93,"left_children":[1,3,-1,-1,-1],"loss_changes":[1.5807169E-2,4.418221E-3,0E0,0E0,0E0],"parents":[2147483647,0,0,1,1],"right_children":[2,4,-1,-1,-1],"split_conditions":[1.0986123E0,1.13498E0,2.1787029E-2,-1.729088E-2,2.774055E-3],"split_indices":[56,66,0,0,0],"split_type":[0,0,0,0,0],"sum_hessian":[3.9863493E0,2.8842137E0,1.1021357E0,1.7113914E0,1.1728222E0],"tree_param":{"num_deleted":"0","num_feature":"100","num_nodes":"5","size_leaf_vector":"1"}},{"base_weights":[3.7811254E-3,3.7755992E-2,-1.929885E-2,2.4681335E-2,-1.3232096E-2],"categories":[],"categories_nodes":[],"categories_segments":[],"categories_sizes":[],"default_left":[0,0,0,0,0],"id":94,"left_children":[1,3,-1,-1,-1],"loss_changes":[1.3952613E-2,1.803299E-2,0E0,0E0,0E0],"parents":[2147483647,0,0,1,1],"right_children":[2,4,-1,-1,-1],"split_conditions":[1.4103919E0,1.1166308E0,-1.929885E-2,2.4681335E-2,-1.3232096E-2],"split_indices":[37,44,0,0,0],"split_type":[0,0,0,0,0],"sum_hessian":[3.9799237E0,2.9527183E0,1.0272053E0,1.9094305E0,1.0432879E0],"tree_param":{"num_deleted":"0","num_feature":"100","num_nodes":"5","size_leaf_vector":"1"}},{"base_weights":[1.0799406E-3,-3.382371E-2,1.9540166E-2,3.0145813E-3,-1.7803872E-2],"categories":[],"categories_nodes":[],"categories_segments":[],"categories_sizes":[],"default_left":[0,0,0,0,0],"id":95,"left_children":[1,3,-1,-1,-1],"loss_changes":[1.332148E-2,4.937788E-3,0E0,0E0,0E0],"parents":[2147483647,0,0,1,1],"right_children":[2,4,-1,-1,-1],"split_conditions":[1.0986123E0,6.021754E-1,1.9540166E-2,3.0145813E-3,-1.7803872E-2],"split_indices":[56,63,0,0,0],"split_type":[0,0,0,0,0],"sum_hessian":[3.9730864E0,2.877213E0,1.0958734E0,1.2811856E0,1.5960274E0],"tree_param":{"num_deleted":"0","num_feature":"100","num_nodes":"5","size_leaf_vector":"1"}},{"base_weights":[1.7145448E-3,-3.2147817E-2,1.8628523E-2,2.3370795E-2,-3.8225852E-2],"categories":[],"categories_nodes":[],"categories_segments":[],"categories_sizes":[],"default_left":[0,0,0,0,0],"id":96,"left_children":[1,3,-1,-1,-1],"loss_changes":[1.2150608E-2,5.0195858E-2,0E0,0E0,0E0],"parents":[2147483647,0,0,1,1],"right_children":[2,4,-1,-1,-1],"split_conditions":[1.3627639E0,4.5113516E-1,1.8628523E-2,2.3370795E-2,-3.8225852E-2],"split_indices":[36,88,0,0,0],"split_type":[0,0,0,0,0],"sum_hessian":[3.9663758E0,2.8407934E0,1.1255825E0,1.4027528E0,1.4380405E0],"tree_param":{"num_deleted":"0","num_feature":"100","num_nodes":"5","size_leaf_vector":"1"}},{"base_weights":[1.9462043E-3,-3.6729384E-2,1.7754992E-2,3.794221E-2,-5.043116E-2],"categories":[],"categories_nodes":[],"categories_segments":[],"categories_sizes":[],"default_left":[0,0,0,0,0],"id":97,"left_children":[1,3,-1,-1,-1],"loss_changes":[1.31359E-2,9.785193E-2,0E0,0E0,0E0],"parents":[2147483647,0,0,1,1],"right_children":[2,4,-1,-1,-1],"split_conditions":[9.0445626E-1,6.021754E-1,1.7754992E-2,3.794221E-2,-5.043116E-2],"split_indices":[99,63,0,0,0],"split_type":[0,0,0,0,0],"sum_hessian":[3.9519987E0,2.5722213E0,1.3797774E0,1.1637828E0,1.4084386E0],"tree_param":{"num_deleted":"0","num_feature":"100","num_nodes":"5","size_leaf_vector":"1"}},{"base_weights":[2.3975288E-3,-3.692835E-2,1.8774675E-2,-9.925879E-4,-1.7754097E-2],"categories":[],"categories_nodes":[],"categories_segments":[],"categories_sizes":[],"default_left":[0,0,0,0,0],"id":98,"left_children":[1,3,-1,-1,-1],"loss_changes":[1.3967356E-2,2.502988E-3,0E0,0E0,0E0],"parents":[2147483647,0,0,1,1],"right_children":[2,4,-1,-1,-1],"split_conditions":[1.13498E0,1.0986123E0,1.8774675E-2,-9.925879E-4,-1.7754097E-2],"split_indices":[66,67,0,0,0],"split_type":[0,0,0,0,0],"sum_hessian":[3.9248834E0,2.607505E0,1.3173784E0,1.4959763E0,1.1115286E0],"tree_param":{"num_deleted":"0","num_feature":"100","num_nodes":"5","size_leaf_vector":"1"}},{"base_weights":[1.6861238E-3,-3.1747017E-2,1.8769614E-2,-2.0449584E-2,9.487562E-3],"categories":[],"categories_nodes":[],"categories_segments":[],"categories_sizes":[],"default_left":[0,0,0,0,0],"id":99,"left_children":[1,3,-1,-1,-1],"loss_changes":[1.2000397E-2,1.1016459E-2,0E0,0E0,0E0],"parents":[2147483647,0,0,1,1],"right_children":[2,4,-1,-1,-1],"split_conditions":[1.063521E0,1.3173015E0,1.8769614E-2,-2.0449584E-2,9.487562E-3],"split_indices":[9,38,0,0,0],"split_type":[0,0,0,0,0],"sum_hessian":[3.9200196E0,2.8392887E0,1.080731E0,1.7550669E0,1.0842218E0],"tree_param":{"num_deleted":"0","num_feature":"100","num_nodes":"5","size_leaf_vector":"1"}}]},"name":"gbtree"},"learner_model_param":{"base_score":"4.9700603E-1","boost_from_average":"1","num_class":"0","num_feature":"100","num_target":"1"},"objective":{"name":"binary:logistic","reg_loss_param":{"scale_pos_weight":"1"}}},"version":[2,1,3]}