{"learner":{"attributes":{"scikit_learn":"{\"_estimator_type\": \"classifier\"}"},"feature_names":[],"feature_types":[],"gradient_booster":{"model":{"gbtree_model_param":{"num_parallel_tree":"1","num_trees":"100"},"iteration_indptr":[0,1,2,3,4,5,6,7,8,9,10,11,12,13,14,15,16,17,18,19,20,21,22,23,24,25,26,27,28,29,30,31,32,33,34,35,36,37,38,39,40,41,42,43,44,45,46,47,48,49,50,51,52,53,54,55,56,57,58,59,60,61,62,63,64,65,66,67,68,69,70,71,72,73,74,75,76,77,78,79,80,81,82,83,84,85,86,87,88,89,90,91,92,93,94,95,96,97,98,99,100],"tree_info":[0,0,0,0,0,0,0,0,0,0,0,0,0,0,0,0,0,0,0,0,0,0,0,0,0,0,0,0,0,0,0,0,0,0,0,0,0,0,0,0,0,0,0,0,0,0,0,0,0,0,0,0,0,0,0,0,0,0,0,0,0,0,0,0,0,0,0,0,0,0,0,0,0,0,0,0,0,0,0,0,0,0,0,0,0,0,0,0,0,0,0,0,0,0,0,0,0,0,0,0],"trees":[{"base_weights":[-1.0701392E-6,-6.787069E-1,1.3216822E0,-1.0197186E0,8.033636E-1,1.588269E0,1.5168324E-1,-1.2321613E0,3.64534E-1,1.5168324E-1,4.0504196E-1,5.1903635E-1,7.08393E-2,-2.3552229E-1,3.3752912E-1,-1.5822766E0,3.3556685E-1,7.08393E-2,4.5002247E-3,-5.359121E-1,5.0003016E-3,3.283045E-1,-2.3552229E-1],"categories":[],"categories_nodes":[],"categories_segments":[],"categories_sizes":[],"default_left":[0,0,0,0,0,0,0,0,0,0,0,0,0,0,0,0,0,0,0,0,0,0,0],"id":0,"left_children":[1,3,5,7,9,11,13,15,-1,17,-1,-1,-1,-1,-1,19,21,-1,-1,-1,-1,-1,-1],"loss_changes":[3.7669827E1,1.4842038E1,4.203106E0,1.2415379E1,1.8438015E0,1.7968903E0,4.3023405E0,1.2330238E1,0E0,3.973738E-2,0E0,0E0,0E0,0E0,0E0,5.8214493E0,4.8976746E0,0E0,0E0,0E0,0E0,0E0,0E0],"parents":[2147483647,0,0,1,1,2,2,3,3,4,4,5,5,6,6,7,7,9,9,15,15,16,16],"right_children":[2,4,6,8,10,12,14,16,-1,18,-1,-1,-1,-1,-1,20,22,-1,-1,-1,-1,-1,-1],"split_conditions":[1.0924203E0,1.2972147E0,1.6474172E0,3.2948344E0,1.1495787E0,1.4704864E0,6.154962E-1,1.5260563E0,3.64534E-1,8.6189663E-1,4.0504196E-1,5.1903635E-1,7.08393E-2,-2.3552229E-1,3.3752912E-1,1.0740712E0,1.8233079E0,7.08393E-2,4.5002247E-3,-5.359121E-1,5.0003016E-3,3.283045E-1,-2.3552229E-1],"split_indices":[3,38,73,72,17,14,63,33,0,99,0,0,0,0,0,56,11,0,0,0,0,0,0],"split_type":[0,0,0,0,0,0,0,0,0,0,0,0,0,0,0,0,0,0,0,0,0,0,0],"sum_hessian":[3.999375E1,2.6745821E1,1.324793E1,2.1996563E1,4.749258E0,1.049836E1,2.7495704E0,2.0496798E1,1.4997656E0,2.7495704E0,1.9996876E0,9.248555E0,1.2498047E0,1.4997656E0,1.2498047E0,1.6747383E1,3.7494142E0,1.2498047E0,1.4997656E0,1.4747696E1,1.9996876E0,2.2496486E0,1.4997656E0],"tree_param":{"num_deleted":"0","num_feature":"100","num_nodes":"23","size_leaf_vector":"1"}},{"base_weights":[2.5494933E-2,-4.901197E-1,1.0229102E0,-7.8427786E-1,7.32399E-1,1.2287546E0,1.3561662E-1,-1.0806406E0,7.172837E-1,4.2227504E-1,-2.8506228E-1,4.3442768E-1,3.835359E-1,-1.9533579E-1,2.854756E-1,-1.3221122E0,2.5134343E-1,4.376413E-2,3.1708267E-1,-1.2051364E-1,2.8278506E-1,-4.2716792E-1,-1.0940658E-2,-2.0103599E-1,2.9872325E-1],"categories":[],"categories_nodes":[],"categories_segments":[],"categories_sizes":[],"default_left":[0,0,0,0,0,0,0,0,0,0,0,0,0,0,0,0,0,0,0,0,0,0,0,0,0],"id":1,"left_children":[1,3,5,7,9,11,13,15,17,-1,-1,-1,19,-1,-1,21,23,-1,-1,-1,-1,-1,-1,-1,-1],"loss_changes":[2.0614866E1,1.0089062E1,2.326807E0,1.04804535E1,7.754707E0,1.4759254E0,2.9914792E0,6.3190365E0,6.6018486E-1,0E0,0E0,0E0,1.9669569E0,0E0,0E0,2.030817E0,3.203026E0,0E0,0E0,0E0,0E0,0E0,0E0,0E0,0E0],"parents":[2147483647,0,0,1,1,2,2,3,3,4,4,5,5,6,6,7,7,8,8,12,12,15,15,16,16],"right_children":[2,4,6,8,10,12,14,16,18,-1,-1,-1,20,-1,-1,22,24,-1,-1,-1,-1,-1,-1,-1,-1],"split_conditions":[1.0924203E0,1.6474172E0,1.6474172E0,1.5260563E0,1.5550438E0,1.4438182E0,6.154962E-1,1.2972147E0,1.9033506E0,4.2227504E-1,-2.8506228E-1,4.3442768E-1,1.3437347E0,-1.9533579E-1,2.854756E-1,1.680207E0,1.1495787E0,4.376413E-2,3.1708267E-1,-1.2051364E-1,2.8278506E-1,-4.2716792E-1,-1.0940658E-2,-2.0103599E-1,2.9872325E-1],"split_indices":[3,72,73,33,39,37,63,38,22,0,0,0,12,0,0,41,17,0,0,0,0,0,0,0,0],"split_type":[0,0,0,0,0,0,0,0,0,0,0,0,0,0,0,0,0,0,0,0,0,0,0,0,0],"sum_hessian":[3.810991E1,2.5457989E1,1.2651918E1,2.0809383E1,4.648607E0,9.957118E0,2.6948001E0,1.7613361E1,3.1960216E0,3.4340615E0,1.2145451E0,7.3392735E0,2.6178448E0,1.4748333E0,1.2199669E0,1.4916587E1,2.6967745E0,1.7244658E0,1.4715558E0,1.2057732E0,1.4120716E0,1.3722668E1,1.1939191E0,1.2496587E0,1.4471157E0],"tree_param":{"num_deleted":"0","num_feature":"100","num_nodes":"25","size_leaf_vector":"1"}},{"base_weights":[4.0716857E-2,-3.848985E-1,8.552434E-1,-6.119869E-1,7.722025E-1,1.0351425E0,1.9849798E-2,-7.879922E-1,2.7986658E-1,3.0759105E-1,9.285411E-2,1.1495122E0,1.0620032E-2,-2.0053802E-1,2.2196369E-1,-9.7559655E-1,2.3192373E-1,3.6669576E-1,9.7432785E-2,-1.1001573E0,-1.2083763E-2,-4.5808636E-2,1.3979752E-1,-3.5617852E-1,-8.16429E-2],"categories":[],"categories_nodes":[],"categories_segments":[],"categories_sizes":[],"default_left":[0,0,0,0,0,0,0,0,0,0,0,0,0,0,0,0,0,0,0,0,0,0,0,0,0],"id":2,"left_children":[1,3,5,7,9,11,13,15,-1,-1,-1,17,-1,-1,-1,19,21,-1,-1,23,-1,-1,-1,-1,-1],"loss_changes":[1.2622501E1,6.7737217E0,1.855093E0,6.3374467E0,1.9514918E-1,1.1312351E0,2.0958483E0,3.8691492E0,0E0,0E0,0E0,1.5337753E-1,0E0,0E0,0E0,1.8515396E0,4.1018367E-1,0E0,0E0,7.098808E-1,0E0,0E0,0E0,0E0,0E0],"parents":[2147483647,0,0,1,1,2,2,3,3,4,4,5,5,6,6,7,7,11,11,15,15,16,16,19,19],"right_children":[2,4,6,8,10,12,14,16,-1,-1,-1,18,-1,-1,-1,20,22,-1,-1,24,-1,-1,-1,-1,-1],"split_conditions":[1.0924203E0,1.680207E0,2.1369653E0,3.2948344E0,1.3437347E0,2.1369653E0,1.4438182E0,1.680207E0,2.7986658E-1,3.0759105E-1,9.285411E-2,1.680207E0,1.0620032E-2,-2.0053802E-1,2.2196369E-1,1.2972147E0,1.1495787E0,3.6669576E-1,9.7432785E-2,2.1910326E0,-1.2083763E-2,-4.5808636E-2,1.3979752E-1,-3.5617852E-1,-8.16429E-2],"split_indices":[3,4,20,72,10,19,5,41,0,0,0,15,0,0,0,38,17,0,0,90,0,0,0,0,0],"split_type":[0,0,0,0,0,0,0,0,0,0,0,0,0,0,0,0,0,0,0,0,0,0,0,0,0],"sum_hessian":[3.4460648E1,2.2980225E1,1.1480423E1,1.9603933E1,3.3762922E0,9.249473E0,2.2309499E0,1.8038738E1,1.5651941E0,1.3964406E0,1.9798515E0,8.165534E0,1.0839387E0,1.1772152E0,1.0537348E0,1.5272882E1,2.765856E0,7.060194E0,1.1053401E0,1.3322432E1,1.9504507E0,1.1779313E0,1.5879247E0,1.1661783E1,1.6606486E0],"tree_param":{"num_deleted":"0","num_feature":"100","num_nodes":"25","size_leaf_vector":"1"}},{"base_weights":[5.410762E-2,-3.153767E-1,6.935437E-1,-5.6458867E-1,2.6749033E-1,1.0221838E0,-2.5634775E-1,-7.1453923E-1,2.1259227E-1,3.7559175E-1,-9.854979E-2,-2.4981941E-1,2.1223141E-1,-9.315332E-1,3.730404E-1,-1.1000308E0,-1.6655525E-2,-5.512284E-2,2.4464823E-1,-3.4873876E-1,-9.181074E-2,8.506379E-2,-9.633551E-2],"categories":[],"categories_nodes":[],"categories_segments":[],"categories_sizes":[],"default_left":[0,0,0,0,0,0,0,0,0,0,0,0,0,0,0,0,0,0,0,0,0,0,0],"id":3,"left_children":[1,3,5,7,-1,9,11,13,-1,-1,-1,-1,-1,15,17,19,21,-1,-1,-1,-1,-1,-1],"loss_changes":[7.8319607E0,6.853405E0,4.0435324E0,3.9639082E0,0E0,3.266777E0,2.7629344E0,4.2885876E0,0E0,0E0,0E0,0E0,0E0,2.1718893E0,1.0100389E0,2.3823738E-1,3.8582924E-1,0E0,0E0,0E0,0E0,0E0,0E0],"parents":[2147483647,0,0,1,1,2,2,3,3,5,5,6,6,7,7,13,13,14,14,15,15,16,16],"right_children":[2,4,6,8,-1,10,12,14,-1,-1,-1,-1,-1,16,18,20,22,-1,-1,-1,-1,-1,-1],"split_conditions":[1.0740712E0,1.6474172E0,1.6156684E0,1.6156684E0,2.6749033E-1,2.1369653E0,1.4178427E0,1.5260563E0,2.1259227E-1,3.7559175E-1,-9.854979E-2,-2.4981941E-1,2.1223141E-1,1.0924203E0,1.4438182E0,1.9033506E0,1.3437347E0,-5.512284E-2,2.4464823E-1,-3.4873876E-1,-9.181074E-2,8.506379E-2,-9.633551E-2],"split_indices":[56,72,52,60,0,19,82,33,0,0,0,0,0,3,5,43,10,0,0,0,0,0,0],"split_type":[0,0,0,0,0,0,0,0,0,0,0,0,0,0,0,0,0,0,0,0,0,0,0],"sum_hessian":[3.1223745E1,2.0110258E1,1.1113488E1,1.7109829E1,3.0004292E0,8.200278E0,2.9132097E0,1.5699649E1,1.410179E0,7.0704765E0,1.1298018E0,1.9080787E0,1.005131E0,1.320789E1,2.491759E0,1.0982761E1,2.2251287E0,1.3622384E0,1.1295207E0,9.751902E0,1.2308595E0,1.1549976E0,1.0701312E0],"tree_param":{"num_deleted":"0","num_feature":"100","num_nodes":"23","size_leaf_vector":"1"}},{"base_weights":[5.6351975E-2,-2.4246402E-1,6.612334E-1,4.2246282E-2,-9.417828E-1,9.14559E-1,-1.23918705E-1,3.8203064E-1,-4.9704424E-1,-3.155708E-1,-9.077263E-2,3.1515238E-1,6.3157655E-2,6.733159E-1,-1.4482415E-1,-7.936196E-1,1.5513086E-1,9.995029E-1,5.633403E-3,-2.7778226E-1,-3.8797025E-2,3.4443516E-1,7.924494E-2,-9.9708825E-2,9.0877935E-2],"categories":[],"categories_nodes":[],"categories_segments":[],"categories_sizes":[],"default_left":[0,0,0,0,0,0,0,0,0,0,0,0,0,0,0,0,0,0,0,0,0,0,0,0,0],"id":4,"left_children":[1,3,5,7,9,11,-1,13,15,-1,-1,-1,-1,17,-1,19,-1,21,23,-1,-1,-1,-1,-1,-1],"loss_changes":[5.3597045E0,4.0190363E0,3.0393648E0,2.9679143E0,9.17716E-2,5.6607676E-1,0E0,2.8102422E0,2.3035717E0,0E0,0E0,0E0,0E0,1.6926181E0,0E0,3.4302664E-1,0E0,2.6858807E-1,4.5889205E-1,0E0,0E0,0E0,0E0,0E0,0E0],"parents":[2147483647,0,0,1,1,2,2,3,3,4,4,5,5,7,7,8,8,13,13,15,15,17,17,18,18],"right_children":[2,4,6,8,10,12,-1,14,16,-1,-1,-1,-1,18,-1,20,-1,22,24,-1,-1,-1,-1,-1,-1],"split_conditions":[1.1693814E0,1.4704864E0,1.680207E0,1.1693814E0,1.9033506E0,1.3678323E0,-1.23918705E-1,1.6474172E0,1.3437347E0,-3.155708E-1,-9.077263E-2,3.1515238E-1,6.3157655E-2,6.154962E-1,-1.4482415E-1,1.4178427E0,1.5513086E-1,1.7141086E0,4.5643154E-1,-2.7778226E-1,-3.8797025E-2,3.4443516E-1,7.924494E-2,-9.9708825E-2,9.0877935E-2],"split_indices":[91,14,15,35,22,46,0,73,12,0,0,0,0,63,0,82,0,69,88,0,0,0,0,0,0],"split_type":[0,0,0,0,0,0,0,0,0,0,0,0,0,0,0,0,0,0,0,0,0,0,0,0,0],"sum_hessian":[2.776586E1,1.8985859E1,8.780003E0,1.4160394E1,4.8254642E0,7.2249937E0,1.5550084E0,8.865941E0,5.2944527E0,3.5655675E0,1.2598966E0,5.6431694E0,1.5818245E0,6.7976665E0,2.0682747E0,4.2647333E0,1.0297196E0,4.2328115E0,2.5648549E0,3.2278996E0,1.0368338E0,3.054238E0,1.1785736E0,1.1450593E0,1.4197956E0],"tree_param":{"num_deleted":"0","num_feature":"100","num_nodes":"25","size_leaf_vector":"1"}},{"base_weights":[4.306876E-2,-2.6199317E-1,5.5987203E-1,-4.538522E-1,2.051497E-1,7.5149345E-1,-9.657841E-2,-6.3127774E-1,3.214554E-1,9.324369E-1,-8.477163E-2,-7.765257E-1,1.3618694E-1,-5.4392263E-2,2.1528377E-1,3.3307737E-1,1.555358E-2,-9.005766E-1,4.0873103E-2,-3.0167335E-1,1.2481639E-3],"categories":[],"categories_nodes":[],"categories_segments":[],"categories_sizes":[],"default_left":[0,0,0,0,0,0,0,0,0,0,0,0,0,0,0,0,0,0,0,0,0],"id":5,"left_children":[1,3,5,7,-1,9,-1,11,13,15,-1,17,-1,-1,-1,-1,-1,19,-1,-1,-1],"loss_changes":[4.2984967E0,3.4389634E0,1.9474728E0,2.257292E0,0E0,1.8710537E0,0E0,2.3213758E0,8.1602025E-1,1.1238561E0,0E0,1.4118333E0,0E0,0E0,0E0,0E0,0E0,9.688301E-1,0E0,0E0,0E0],"parents":[2147483647,0,0,1,1,2,2,3,3,5,5,7,7,8,8,9,9,11,11,17,17],"right_children":[2,4,6,8,-1,10,-1,12,14,16,-1,18,-1,-1,-1,-1,-1,20,-1,-1,-1],"split_conditions":[1.0740712E0,1.6474172E0,2.3733542E0,1.5260563E0,2.051497E-1,2.1369653E0,-9.657841E-2,1.6156684E0,1.4438182E0,1.680207E0,-8.477163E-2,1.9903619E0,1.3618694E-1,-5.4392263E-2,2.1528377E-1,3.3307737E-1,1.555358E-2,2.442347E0,4.0873103E-2,-3.0167335E-1,1.2481639E-3],"split_indices":[56,72,13,33,0,19,0,60,5,15,0,7,0,0,0,0,0,89,0,0,0],"split_type":[0,0,0,0,0,0,0,0,0,0,0,0,0,0,0,0,0,0,0,0,0],"sum_hessian":[2.5334473E1,1.62408E1,9.093673E0,1.3934386E1,2.3064137E0,7.591713E0,1.5019599E0,1.149059E1,2.4437964E0,6.5447726E0,1.0469406E0,1.0385108E1,1.1054823E0,1.315998E0,1.1277986E0,5.2282124E0,1.3165601E0,9.154336E0,1.2307719E0,8.102522E0,1.0518138E0],"tree_param":{"num_deleted":"0","num_feature":"100","num_nodes":"21","size_leaf_vector":"1"}},{"base_weights":[5.096443E-2,-2.3294307E-1,5.704932E-1,-4.501056E-1,4.303872E-1,7.5046897E-1,-5.417507E-2,-6.7701834E-1,2.7979055E-1,1.5679348E-2,2.2685994E-1,8.901583E-1,-6.4776423E-3,-8.648189E-1,2.5450515E-2,2.2491828E-1,-7.077327E-2,2.988895E-1,5.7079494E-2,-2.888265E-1,-3.063208E-2],"categories":[],"categories_nodes":[],"categories_segments":[],"categories_sizes":[],"default_left":[0,0,0,0,0,0,0,0,0,0,0,0,0,0,0,0,0,0,0,0,0],"id":6,"left_children":[1,3,5,7,9,11,-1,13,15,-1,-1,17,-1,19,-1,-1,-1,-1,-1,-1,-1],"loss_changes":[3.635627E0,2.5080483E0,1.3090572E0,2.2750108E0,5.116246E-1,7.954445E-1,0E0,1.489603E0,1.0720847E0,0E0,0E0,2.6494837E-1,0E0,5.015354E-1,0E0,0E0,0E0,0E0,0E0,0E0,0E0],"parents":[2147483647,0,0,1,1,2,2,3,3,4,4,5,5,7,7,8,8,11,11,13,13],"right_children":[2,4,6,8,10,12,-1,14,16,-1,-1,18,-1,20,-1,-1,-1,-1,-1,-1,-1],"split_conditions":[1.0924203E0,1.2972147E0,1.9033506E0,1.4438182E0,1.1495787E0,1.1693814E0,-5.417507E-2,1.6474172E0,6.154962E-1,1.5679348E-2,2.2685994E-1,1.9459101E0,-6.4776423E-3,1.680207E0,2.5450515E-2,2.2491828E-1,-7.077327E-2,2.988895E-1,5.7079494E-2,-2.888265E-1,-3.063208E-2],"split_indices":[3,38,47,36,17,35,0,72,63,0,0,62,0,4,0,0,0,0,0,0,0],"split_type":[0,0,0,0,0,0,0,0,0,0,0,0,0,0,0,0,0,0,0,0,0],"sum_hessian":[2.2747656E1,1.5066095E1,7.681561E0,1.1592397E1,3.4736986E0,6.1973405E0,1.4842203E0,8.898458E0,2.6939392E0,2.144873E0,1.3288256E0,5.1183176E0,1.0790229E0,7.030303E0,1.8681545E0,1.172075E0,1.521864E0,4.0765953E0,1.0417223E0,5.997868E0,1.0324349E0],"tree_param":{"num_deleted":"0","num_feature":"100","num_nodes":"21","size_leaf_vector":"1"}},{"base_weights":[5.7011966E-2,-1.4915195E-1,6.843196E-1,7.729672E-2,-2.747096E-1,3.2388437E-1,2.587949E-1,3.6951226E-1,-5.0594693E-1,-3.6317557E-2,1.896766E-1,5.885264E-1,-2.4161367E-1,-2.0569581E-1,2.9236907E-2,7.225419E-1,1.7016735E-2,-1.6900687E-3,-1.1695493E-1,2.6557612E-1,-4.176692E-3],"categories":[],"categories_nodes":[],"categories_segments":[],"categories_sizes":[],"default_left":[0,0,0,0,0,0,0,0,0,0,0,0,0,0,0,0,0,0,0,0,0],"id":7,"left_children":[1,3,5,7,-1,9,-1,11,13,-1,-1,15,17,-1,-1,19,-1,-1,-1,-1,-1],"loss_changes":[2.8983595E0,3.0380993E0,7.58698E-2,2.5931768E0,0E0,5.4725057E-1,0E0,1.4784725E0,6.2358785E-1,0E0,0E0,5.0357556E-1,1.14742324E-1,0E0,0E0,7.334316E-1,0E0,0E0,0E0,0E0,0E0],"parents":[2147483647,0,0,1,1,2,2,3,3,5,5,7,7,8,8,11,11,12,12,15,15],"right_children":[2,4,6,8,-1,10,-1,12,14,-1,-1,16,18,-1,-1,20,-1,-1,-1,-1,-1],"split_conditions":[1.4438182E0,1.680207E0,1.5260563E0,1.1693814E0,-2.747096E-1,1.0924203E0,2.587949E-1,1.4438182E0,8.6189663E-1,-3.6317557E-2,1.896766E-1,1.3202043E0,6.154962E-1,-2.0569581E-1,2.9236907E-2,2.1910326E0,1.7016735E-2,-1.6900687E-3,-1.1695493E-1,2.6557612E-1,-4.176692E-3],"split_indices":[5,15,33,35,0,3,0,37,99,0,0,68,63,0,0,90,0,0,0,0,0],"split_type":[0,0,0,0,0,0,0,0,0,0,0,0,0,0,0,0,0,0,0,0,0],"sum_hessian":[2.0621674E1,1.6094477E1,4.5271964E0,1.3118307E1,2.97617E0,2.4306493E0,2.096547E0,8.983743E0,4.134564E0,1.2436438E0,1.1870055E0,6.6408043E0,2.342939E0,3.080746E0,1.053818E0,5.0176787E0,1.6231256E0,1.304416E0,1.0385228E0,3.9442236E0,1.0734549E0],"tree_param":{"num_deleted":"0","num_feature":"100","num_nodes":"21","size_leaf_vector":"1"}},{"base_weights":[5.0981347E-2,-1.9394748E-1,5.292738E-1,-3.6996272E-1,2.156435E-1,7.452325E-1,-6.753138E-2,-5.2548885E-1,1.0655088E-1,2.7722195E-1,1.4536811E-2,-6.199177E-1,1.7403977E-2,-7.2359085E-1,1.7926123E-2,-2.5430405E-1,1.0274408E-2],"categories":[],"categories_nodes":[],"categories_segments":[],"categories_sizes":[],"default_left":[0,0,0,0,0,0,0,0,0,0,0,0,0,0,0,0,0],"id":8,"left_children":[1,3,5,7,-1,9,-1,11,-1,-1,-1,13,-1,15,-1,-1,-1],"loss_changes":[2.45007E0,2.512559E0,1.317013E0,1.5831898E0,0E0,6.675451E-1,0E0,6.199999E-1,0E0,0E0,0E0,6.921258E-1,0E0,7.875881E-1,0E0,0E0,0E0],"parents":[2147483647,0,0,1,1,2,2,3,3,5,5,7,7,11,11,13,13],"right_children":[2,4,6,8,-1,10,-1,12,-1,-1,-1,14,-1,16,-1,-1,-1],"split_conditions":[1.1495787E0,1.9903619E0,1.4704864E0,1.680207E0,2.156435E-1,1.1693814E0,-6.753138E-2,2.1481423E0,1.0655088E-1,2.7722195E-1,1.4536811E-2,1.6474172E0,1.7403977E-2,2.248191E0,1.7926123E-2,-2.5430405E-1,1.0274408E-2],"split_indices":[17,7,14,41,0,87,0,56,0,0,0,72,0,29,0,0,0],"split_type":[0,0,0,0,0,0,0,0,0,0,0,0,0,0,0,0,0],"sum_hessian":[1.9038126E1,1.29837675E1,6.054358E0,1.1383304E1,1.6004645E0,4.7163224E0,1.3380353E0,9.599686E0,1.7836174E0,3.4934516E0,1.222871E0,8.208833E0,1.3908535E0,7.066353E0,1.1424797E0,5.9702325E0,1.0961205E0],"tree_param":{"num_deleted":"0","num_feature":"100","num_nodes":"17","size_leaf_vector":"1"}},{"base_weights":[5.737588E-2,-7.6690294E-2,2.4735166E-1,9.4272286E-2,-2.0456861E-1,-1.5685251E-1,6.1017245E-1,-3.1193012E-1,1.6953248E-1,2.1711491E-1,2.877354E-2,-5.1751393E-1,9.5112845E-2,-2.0309398E-1,4.037909E-2],"categories":[],"categories_nodes":[],"categories_segments":[],"categories_sizes":[],"default_left":[0,0,0,0,0,0,0,0,0,0,0,0,0,0,0],"id":9,"left_children":[1,3,-1,5,-1,7,9,11,-1,-1,-1,13,-1,-1,-1],"loss_changes":[1.9766128E0,1.7975229E0,0E0,1.901748E0,0E0,1.3151017E0,2.090292E-1,1.3300987E0,0E0,0E0,0E0,8.373523E-1,0E0,0E0,0E0],"parents":[2147483647,0,0,1,1,3,3,5,5,6,6,7,7,11,11],"right_children":[2,4,-1,6,-1,8,10,12,-1,-1,-1,14,-1,-1,-1],"split_conditions":[2.5944295E0,1.4704864E0,2.4735166E-1,1.1495787E0,-2.0456861E-1,1.9903619E0,2.1369653E0,1.680207E0,1.6953248E-1,2.1711491E-1,2.877354E-2,1.6156684E0,9.5112845E-2,-2.0309398E-1,4.037909E-2],"split_indices":[38,14,0,17,0,7,48,4,0,0,0,60,0,0,0],"split_type":[0,0,0,0,0,0,0,0,0,0,0,0,0,0,0],"sum_hessian":[1.7604307E1,1.5751544E1,1.8527637E0,1.2940307E1,2.8112378E0,9.171741E0,3.768566E0,8.017514E0,1.1542265E0,2.7533562E0,1.0152097E0,6.1760426E0,1.8414712E0,4.931875E0,1.2441674E0],"tree_param":{"num_deleted":"0","num_feature":"100","num_nodes":"15","size_leaf_vector":"1"}},{"base_weights":[6.694085E-2,-9.976456E-2,1.8101886E-1,5.860471E-2,-1.9886744E-1,2.963985E-1,-4.0020126E-1,4.578039E-1,-9.363694E-2,-5.7494634E-1,2.9909864E-2,6.8671596E-1,-2.5821533E-2,-5.6496907E-2,-2.034242E-1,2.4216212E-1,4.9401473E-2],"categories":[],"categories_nodes":[],"categories_segments":[],"categories_sizes":[],"default_left":[0,0,0,0,0,0,0,0,0,0,0,0,0,0,0,0,0],"id":10,"left_children":[1,3,-1,5,-1,7,9,11,-1,13,-1,15,-1,-1,-1,-1,-1],"loss_changes":[1.59804E0,1.2853744E0,0E0,1.4090745E0,0E0,9.6448046E-1,4.472022E-1,9.3268347E-1,0E0,1.0063052E-2,0E0,1.8470526E-1,0E0,0E0,0E0,0E0,0E0],"parents":[2147483647,0,0,1,1,3,3,5,5,6,6,7,7,9,9,11,11],"right_children":[2,4,-1,6,-1,8,10,12,-1,14,-1,16,-1,-1,-1,-1,-1],"split_conditions":[1.4438182E0,1.680207E0,1.8101886E-1,1.1693814E0,-1.9886744E-1,1.6474172E0,8.6189663E-1,1.3678323E0,-9.363694E-2,1.1693814E0,2.9909864E-2,1.4438182E0,-2.5821533E-2,-5.6496907E-2,-2.034242E-1,2.4216212E-1,4.9401473E-2],"split_indices":[5,15,0,35,0,73,99,46,0,87,0,37,0,0,0,0,0],"split_type":[0,0,0,0,0,0,0,0,0,0,0,0,0,0,0,0,0],"sum_hessian":[1.6196045E1,1.29773245E1,3.2187202E0,1.0828058E1,2.1492662E0,7.3648973E0,3.4631615E0,6.016696E0,1.3482013E0,2.4549053E0,1.0082563E0,4.049617E0,1.967079E0,1.1120646E0,1.3428407E0,2.8464065E0,1.2032102E0],"tree_param":{"num_deleted":"0","num_feature":"100","num_nodes":"17","size_leaf_vector":"1"}},{"base_weights":[4.6900075E-2,-1.4162569E-1,5.1348656E-1,-3.632244E-1,3.0953467E-1,2.159989E-1,-2.5266433E-2,-5.492088E-1,4.547472E-2,1.5391853E-1,-1.2226672E-2,-6.7592067E-1,-7.394239E-3,-2.5336215E-1,-4.405937E-2],"categories":[],"categories_nodes":[],"categories_segments":[],"categories_sizes":[],"default_left":[0,0,0,0,0,0,0,0,0,0,0,0,0,0,0],"id":11,"left_children":[1,3,5,7,9,-1,-1,11,-1,-1,-1,13,-1,-1,-1],"loss_changes":[1.4953488E0,1.3423955E0,6.6180027E-1,9.172299E-1,3.4830502E-1,0E0,0E0,4.230255E-1,0E0,0E0,0E0,3.478949E-1,0E0,0E0,0E0],"parents":[2147483647,0,0,1,1,2,2,3,3,4,4,7,7,11,11],"right_children":[2,4,6,8,10,-1,-1,12,-1,-1,-1,14,-1,-1,-1],"split_conditions":[1.3437347E0,1.2972147E0,1.6474172E0,1.0924203E0,1.0740712E0,2.159989E-1,-2.5266433E-2,1.4438182E0,4.547472E-2,1.5391853E-1,-1.2226672E-2,1.0740712E0,-7.394239E-3,-2.5336215E-1,-4.405937E-2],"split_indices":[12,38,73,3,67,0,0,36,0,0,0,56,0,0,0],"split_type":[0,0,0,0,0,0,0,0,0,0,0,0,0,0,0],"sum_hessian":[1.5172897E1,1.1302536E1,3.8703613E0,7.710327E0,3.5922093E0,2.7244582E0,1.145903E0,5.614977E0,2.0953503E0,1.9781692E0,1.6140401E0,4.2901206E0,1.3248559E0,2.8010573E0,1.4890634E0],"tree_param":{"num_deleted":"0","num_feature":"100","num_nodes":"15","size_leaf_vector":"1"}},{"base_weights":[3.869953E-2,-7.585634E-2,1.9923799E-1,-2.468682E-1,3.7326792E-1,-1.2171421E-2,-6.461093E-1,1.7382573E-1,-3.766827E-2,1.819588E-1,-1.3258938E-1,-2.2809422E-1,-5.1821202E-2,1.7113812E-1,-3.2250062E-1,5.5193305E-3,-1.4857253E-1],"categories":[],"categories_nodes":[],"categories_segments":[],"categories_sizes":[],"default_left":[0,0,0,0,0,0,0,0,0,0,0,0,0,0,0,0,0],"id":12,"left_children":[1,3,-1,5,7,9,11,-1,-1,13,-1,-1,-1,-1,15,-1,-1],"loss_changes":[1.1425283E0,1.1506262E0,0E0,9.837495E-1,5.0449926E-1,7.215424E-1,7.943785E-2,0E0,0E0,1.3601768E0,0E0,0E0,0E0,0E0,2.0049122E-1,0E0,0E0],"parents":[2147483647,0,0,1,1,3,3,4,4,5,5,6,6,9,9,14,14],"right_children":[2,4,-1,6,8,10,12,-1,-1,14,-1,-1,-1,-1,16,-1,-1],"split_conditions":[2.2991574E0,1.3437347E0,1.9923799E-1,1.1693814E0,1.6474172E0,1.3678323E0,1.8625286E0,1.7382573E-1,-3.766827E-2,1.4438182E0,-1.3258938E-1,-2.2809422E-1,-5.1821202E-2,1.7113812E-1,1.0740712E0,5.5193305E-3,-1.4857253E-1],"split_indices":[17,12,0,35,73,46,95,0,0,37,0,0,0,0,67,0,0],"split_type":[0,0,0,0,0,0,0,0,0,0,0,0,0,0,0,0,0],"sum_hessian":[1.4243628E1,1.2781269E1,1.4623587E0,9.582789E0,3.1984792E0,6.6840243E0,2.8987656E0,2.1488602E0,1.0496191E0,5.0015473E0,1.6824769E0,1.8469969E0,1.0517688E0,2.751606E0,2.2499413E0,1.0571632E0,1.1927782E0],"tree_param":{"num_deleted":"0","num_feature":"100","num_nodes":"17","size_leaf_vector":"1"}},{"base_weights":[2.6204225E-2,-1.6068685E-1,4.085688E-1,2.652402E-2,-1.9309188E-1,6.2411726E-3,2.0213032E-1,-1.1937184E-1,1.1722566E-1,-3.2077143E-1,2.3352756E-1,-6.957689E-2,-1.847189E-1,1.6641876E-1,-6.040674E-2,4.3278344E-2,-7.134911E-2],"categories":[],"categories_nodes":[],"categories_segments":[],"categories_sizes":[],"default_left":[0,0,0,0,0,0,0,0,0,0,0,0,0,0,0,0,0],"id":13,"left_children":[1,3,5,7,-1,-1,-1,9,-1,11,13,15,-1,-1,-1,-1,-1],"loss_changes":[1.0841042E0,9.4749117E-1,4.9617797E-1,4.9176005E-1,0E0,0E0,0E0,5.544238E-1,0E0,3.0662578E-1,5.349522E-1,1.6652167E-1,0E0,0E0,0E0,0E0,0E0],"parents":[2147483647,0,0,1,1,2,2,3,3,7,7,9,9,10,10,11,11],"right_children":[2,4,6,8,-1,-1,-1,10,-1,12,14,16,-1,-1,-1,-1,-1],"split_conditions":[1.1693814E0,1.4704864E0,1.0740712E0,1.1495787E0,-1.9309188E-1,6.2411726E-3,2.0213032E-1,1.5260563E0,1.1722566E-1,1.6474172E0,1.0740712E0,4.5643154E-1,-1.847189E-1,1.6641876E-1,-6.040674E-2,4.3278344E-2,-7.134911E-2],"split_indices":[91,14,56,17,0,0,0,33,0,73,67,88,0,0,0,0,0],"split_type":[0,0,0,0,0,0,0,0,0,0,0,0,0,0,0,0,0],"sum_hessian":[1.325196E1,9.290655E0,3.961305E0,7.376372E0,1.9142833E0,2.046877E0,1.9144281E0,5.7467175E0,1.6296542E0,3.7166605E0,2.030057E0,2.6747E0,1.0419606E0,1.0091355E0,1.0209216E0,1.2405926E0,1.4341074E0],"tree_param":{"num_deleted":"0","num_feature":"100","num_nodes":"17","size_leaf_vector":"1"}},{"base_weights":[2.147116E-2,-8.2952805E-2,1.8606958E-1,-2.3664506E-1,3.5505897E-1,-6.1017476E-2,-1.7107034E-1,2.0852493E-1,-5.6679253E-2,-2.1114814E-1,1.3463414E-1,6.157922E-2,-1.753578E-1,8.750032E-2,-4.442204E-2],"categories":[],"categories_nodes":[],"categories_segments":[],"categories_sizes":[],"default_left":[0,0,0,0,0,0,0,0,0,0,0,0,0,0,0],"id":14,"left_children":[1,3,-1,5,7,9,-1,-1,-1,11,-1,13,-1,-1,-1],"loss_changes":[8.918984E-1,9.139121E-1,0E0,5.350106E-1,7.9758334E-1,6.68105E-1,0E0,0E0,0E0,6.945318E-1,0E0,2.6710775E-1,0E0,0E0,0E0],"parents":[2147483647,0,0,1,1,3,3,4,4,5,5,9,9,11,11],"right_children":[2,4,-1,6,8,10,-1,-1,-1,12,-1,14,-1,-1,-1],"split_conditions":[2.5944295E0,1.680207E0,1.8606958E-1,1.4438182E0,1.3437347E0,1.9033506E0,-1.7107034E-1,2.0852493E-1,-5.6679253E-2,1.1693814E0,1.3463414E-1,4.5643154E-1,-1.753578E-1,8.750032E-2,-4.442204E-2],"split_indices":[38,4,0,37,10,47,0,0,0,87,0,88,0,0,0],"split_type":[0,0,0,0,0,0,0,0,0,0,0,0,0,0,0],"sum_hessian":[1.2441802E1,1.1327707E1,1.1140946E0,8.725707E0,2.6020005E0,6.4911623E0,2.2345445E0,1.4302586E0,1.171742E0,5.467002E0,1.0241605E0,3.6419084E0,1.8250935E0,1.5498226E0,2.0920858E0],"tree_param":{"num_deleted":"0","num_feature":"100","num_nodes":"15","size_leaf_vector":"1"}},{"base_weights":[3.0168273E-2,-1.5696688E-1,3.385659E-1,-3.0060536E-1,1.264055E-1,1.5747683E-1,-5.428613E-2,-4.224038E-1,6.79108E-2,-5.324378E-1,1.852962E-2,-1.8936786E-1,-1.8456856E-2],"categories":[],"categories_nodes":[],"categories_segments":[],"categories_sizes":[],"default_left":[0,0,0,0,0,0,0,0,0,0,0,0,0],"id":15,"left_children":[1,3,5,7,-1,-1,-1,9,-1,11,-1,-1,-1],"loss_changes":[7.8067607E-1,8.351385E-1,5.8656484E-1,5.7158506E-1,0E0,0E0,0E0,3.7237167E-1,0E0,2.0755112E-1,0E0,0E0,0E0],"parents":[2147483647,0,0,1,1,2,2,3,3,7,7,9,9],"right_children":[2,4,6,8,-1,-1,-1,10,-1,12,-1,-1,-1],"split_conditions":[1.0740712E0,1.6474172E0,1.6156684E0,2.1910326E0,1.264055E-1,1.5747683E-1,-5.428613E-2,1.5260563E0,6.79108E-2,1.2972147E0,1.852962E-2,-1.8936786E-1,-1.8456856E-2],"split_indices":[56,72,52,0,0,0,0,33,0,38,0,0,0],"split_type":[0,0,0,0,0,0,0,0,0,0,0,0,0],"sum_hessian":[1.1606252E1,7.528808E0,4.077444E0,6.4155655E0,1.1132427E0,2.993313E0,1.084131E0,5.3723116E0,1.0432539E0,4.2962394E0,1.0760723E0,3.2698638E0,1.0263755E0],"tree_param":{"num_deleted":"0","num_feature":"100","num_nodes":"13","size_leaf_vector":"1"}},{"base_weights":[3.0594671E-2,-1.0171117E-1,4.3473944E-1,5.9318557E-2,-4.0880963E-1,3.6189303E-2,1.5830478E-1,2.1818474E-1,-1.1522532E-1,-1.5411149E-1,-2.537947E-2,4.179596E-1,-4.8634715E-2,1.7094323E-1,-1.6373096E-3],"categories":[],"categories_nodes":[],"categories_segments":[],"categories_sizes":[],"default_left":[0,0,0,0,0,0,0,0,0,0,0,0,0,0,0],"id":16,"left_children":[1,3,5,7,9,-1,-1,11,-1,-1,-1,13,-1,-1,-1],"loss_changes":[6.805452E-1,5.0768495E-1,2.7566612E-2,5.970661E-1,7.52123E-2,0E0,0E0,5.237647E-1,0E0,0E0,0E0,2.74086E-1,0E0,0E0,0E0],"parents":[2147483647,0,0,1,1,2,2,3,3,4,4,7,7,11,11],"right_children":[2,4,6,8,10,-1,-1,12,-1,-1,-1,14,-1,-1,-1],"split_conditions":[1.4438182E0,1.1693814E0,1.1693814E0,1.4704864E0,1.4178427E0,3.6189303E-2,1.5830478E-1,1.4438182E0,-1.1522532E-1,-1.5411149E-1,-2.537947E-2,1.3678323E0,-4.8634715E-2,1.7094323E-1,-1.6373096E-3],"split_indices":[5,35,91,14,50,0,0,37,0,0,0,46,0,0,0],"split_type":[0,0,0,0,0,0,0,0,0,0,0,0,0,0,0],"sum_hessian":[1.0900484E1,8.775845E0,2.1246395E0,6.286373E0,2.489472E0,1.0098104E0,1.1148291E0,5.0021067E0,1.2842661E0,1.4393194E0,1.0501527E0,3.2144866E0,1.7876202E0,2.111494E0,1.1029928E0],"tree_param":{"num_deleted":"0","num_feature":"100","num_nodes":"15","size_leaf_vector":"1"}},{"base_weights":[2.520723E-2,-1.3428348E-1,3.531698E-1,-2.6991472E-1,9.8965764E-2,1.4020503E-1,7.22521E-3,-3.5368052E-1,2.5283827E-2,-4.4273767E-1,-5.4716254E-3,-1.5608235E-1,-2.8297646E-2],"categories":[],"categories_nodes":[],"categories_segments":[],"categories_sizes":[],"default_left":[0,0,0,0,0,0,0,0,0,0,0,0,0],"id":17,"left_children":[1,3,5,7,-1,-1,-1,9,-1,11,-1,-1,-1],"loss_changes":[6.4347655E-1,6.173253E-1,1.391918E-1,2.3879373E-1,0E0,0E0,0E0,1.6785103E-1,0E0,7.547879E-2,0E0,0E0,0E0],"parents":[2147483647,0,0,1,1,2,2,3,3,7,7,9,9],"right_children":[2,4,6,8,-1,-1,-1,10,-1,12,-1,-1,-1],"split_conditions":[1.1495787E0,1.680207E0,1.7141086E0,1.3437347E0,9.8965764E-2,1.4020503E-1,7.22521E-3,1.2972147E0,2.5283827E-2,1.0924203E0,-5.4716254E-3,-1.5608235E-1,-2.8297646E-2],"split_indices":[17,41,69,12,0,0,0,38,0,3,0,0,0],"split_type":[0,0,0,0,0,0,0,0,0,0,0,0,0],"sum_hessian":[1.0395259E1,7.3913445E0,3.003915E0,6.0438256E0,1.3475188E0,1.918219E0,1.085696E0,4.8890343E0,1.1547912E0,3.6105871E0,1.2784472E0,2.5498602E0,1.060727E0],"tree_param":{"num_deleted":"0","num_feature":"100","num_nodes":"13","size_leaf_vector":"1"}},{"base_weights":[2.539116E-2,-9.350049E-2,1.1856176E-1,1.5776038E-1,-2.7629095E-1,9.42078E-2,-5.25438E-2,-4.8604283E-1,7.6058194E-2,-1.8114042E-1,-4.785615E-2],"categories":[],"categories_nodes":[],"categories_segments":[],"categories_sizes":[],"default_left":[0,0,0,0,0,0,0,0,0,0,0],"id":18,"left_children":[1,3,-1,5,7,-1,-1,9,-1,-1,-1],"loss_changes":[5.21169E-1,4.6348232E-1,0E0,2.884046E-1,7.517534E-1,0E0,0E0,7.265425E-2,0E0,0E0,0E0],"parents":[2147483647,0,0,1,1,3,3,4,4,7,7],"right_children":[2,4,-1,6,8,-1,-1,10,-1,-1,-1],"split_conditions":[1.4438182E0,4.5643154E-1,1.1856176E-1,1.1693814E0,1.4438182E0,9.42078E-2,-5.25438E-2,8.6189663E-1,7.6058194E-2,-1.8114042E-1,-4.785615E-2],"split_indices":[5,88,0,87,36,0,0,99,0,0,0],"split_type":[0,0,0,0,0,0,0,0,0,0,0],"sum_hessian":[1.0012974E1,8.142434E0,1.8705399E0,3.48666E0,4.655774E0,2.4114456E0,1.0752143E0,3.3945253E0,1.2612486E0,1.8706844E0,1.523841E0],"tree_param":{"num_deleted":"0","num_feature":"100","num_nodes":"11","size_leaf_vector":"1"}},{"base_weights":[1.8567177E-2,-1.2776539E-1,3.2563743E-1,3.701154E-2,-1.450027E-1,9.644709E-3,1.5347007E-1,9.084266E-2,-1.8022013E-1,-8.7148115E-2,1.7892161E-2],"categories":[],"categories_nodes":[],"categories_segments":[],"categories_sizes":[],"default_left":[0,0,0,0,0,0,0,0,0,0,0],"id":19,"left_children":[1,3,5,7,-1,-1,-1,-1,9,-1,-1],"loss_changes":[5.1965415E-1,4.8212975E-1,1.8629596E-1,4.2082843E-1,0E0,0E0,0E0,0E0,1.2623172E-1,0E0,0E0],"parents":[2147483647,0,0,1,1,2,2,3,3,8,8],"right_children":[2,4,6,8,-1,-1,-1,-1,10,-1,-1],"split_conditions":[1.1693814E0,1.6474172E0,1.0740712E0,6.154962E-1,-1.450027E-1,9.644709E-3,1.5347007E-1,9.084266E-2,1.4178427E0,-8.7148115E-2,1.7892161E-2],"split_indices":[91,73,56,63,0,0,0,0,50,0,0],"split_type":[0,0,0,0,0,0,0,0,0,0,0],"sum_hessian":[9.638825E0,6.923427E0,2.715398E0,5.3432417E0,1.5801857E0,1.5079768E0,1.2074213E0,2.2258377E0,3.1174037E0,1.990978E0,1.1264257E0],"tree_param":{"num_deleted":"0","num_feature":"100","num_nodes":"11","size_leaf_vector":"1"}},{"base_weights":[1.751979E-2,-1.05994545E-1,1.0472905E-1,4.4017073E-2,-1.5308732E-1,-1.2302745E-1,1.2500748E-1,5.365203E-2,-3.125076E-1,-1.3928121E-1,-2.5261773E-2],"categories":[],"categories_nodes":[],"categories_segments":[],"categories_sizes":[],"default_left":[0,0,0,0,0,0,0,0,0,0,0],"id":20,"left_children":[1,3,-1,5,-1,7,-1,-1,9,-1,-1],"loss_changes":[4.5839906E-1,5.236589E-1,0E0,4.8380178E-1,0E0,3.7446105E-1,0E0,0E0,9.207457E-2,0E0,0E0],"parents":[2147483647,0,0,1,1,3,3,5,5,8,8],"right_children":[2,4,-1,6,-1,8,-1,-1,10,-1,-1],"split_conditions":[1.680207E0,1.6474172E0,1.0472905E-1,1.3437347E0,-1.5308732E-1,6.154962E-1,1.2500748E-1,5.365203E-2,4.5643154E-1,-1.3928121E-1,-2.5261773E-2],"split_indices":[4,73,0,12,0,63,0,0,88,0,0],"split_type":[0,0,0,0,0,0,0,0,0,0,0],"sum_hessian":[9.289383E0,7.263879E0,2.0255044E0,5.948028E0,1.3158509E0,4.5696473E0,1.3783809E0,1.783864E0,2.785783E0,1.0525312E0,1.7332519E0],"tree_param":{"num_deleted":"0","num_feature":"100","num_nodes":"11","size_leaf_vector":"1"}},{"base_weights":[8.775712E-3,1.1744839E-1,-1.10327184E-1,-3.3801526E-2,1.318678E-1,-1.4229693E-1,7.785983E-2,3.522316E-2,-1.15711294E-1,5.835588E-2,-4.8584938E-2],"categories":[],"categories_nodes":[],"categories_segments":[],"categories_sizes":[],"default_left":[0,0,0,0,0,0,0,0,0,0,0],"id":21,"left_children":[1,3,-1,5,-1,7,-1,9,-1,-1,-1],"loss_changes":[4.4768918E-1,4.2552388E-1,0E0,2.4903092E-1,0E0,2.5171146E-1,0E0,1.6037634E-1,0E0,0E0,0E0],"parents":[2147483647,0,0,1,1,3,3,5,5,7,7],"right_children":[2,4,-1,6,-1,8,-1,10,-1,-1,-1],"split_conditions":[1.4704864E0,1.1495787E0,-1.10327184E-1,1.3437347E0,1.318678E-1,1.1693814E0,7.785983E-2,1.4438182E0,-1.15711294E-1,5.835588E-2,-4.8584938E-2],"split_indices":[14,17,0,12,0,35,0,37,0,0,0],"split_type":[0,0,0,0,0,0,0,0,0,0,0],"sum_hessian":[8.885339E0,7.429237E0,1.4561023E0,5.6644897E0,1.764747E0,4.510932E0,1.1535579E0,3.103096E0,1.407836E0,1.7238505E0,1.3792455E0],"tree_param":{"num_deleted":"0","num_feature":"100","num_nodes":"11","size_leaf_vector":"1"}},{"base_weights":[5.770949E-3,-1.5323015E-1,2.83221E-1,2.0852254E-3,-1.4364293E-1,2.0749355E-2,1.3240886E-1,1.4625761E-1,-9.5577665E-2,1.895813E-1,5.121571E-4,1.6201435E-2,6.9554664E-2],"categories":[],"categories_nodes":[],"categories_segments":[],"categories_sizes":[],"default_left":[0,0,0,0,0,0,0,0,0,0,0,0,0],"id":22,"left_children":[1,3,5,7,-1,-1,-1,9,-1,11,-1,-1,-1],"loss_changes":[4.6506628E-1,3.4107322E-1,9.9233985E-2,3.0313277E-1,0E0,0E0,0E0,2.7940117E-2,0E0,7.3258877E-3,0E0,0E0,0E0],"parents":[2147483647,0,0,1,1,2,2,3,3,7,7,9,9],"right_children":[2,4,6,8,-1,-1,-1,10,-1,12,-1,-1,-1],"split_conditions":[1.0740712E0,1.4438182E0,1.1693814E0,1.3202043E0,-1.4364293E-1,2.0749355E-2,1.3240886E-1,1.3437347E0,-9.5577665E-2,4.5643154E-1,5.121571E-4,1.6201435E-2,6.9554664E-2],"split_indices":[56,37,91,68,0,0,0,10,0,88,0,0,0],"split_type":[0,0,0,0,0,0,0,0,0,0,0,0,0],"sum_hessian":[8.558416E0,5.725161E0,2.8332558E0,4.5487895E0,1.1763713E0,1.8145233E0,1.0187324E0,3.5132077E0,1.035582E0,2.4633768E0,1.0498308E0,1.1267918E0,1.3365849E0],"tree_param":{"num_deleted":"0","num_feature":"100","num_nodes":"13","size_leaf_vector":"1"}},{"base_weights":[3.9331946E-3,-1.3429445E-1,2.4573684E-1,-4.5000823E-4,-1.2689158E-1,1.6318211E-2,1.1393498E-1,1.2597467E-1,-8.2597926E-2,6.601321E-2,-2.898437E-2],"categories":[],"categories_nodes":[],"categories_segments":[],"categories_sizes":[],"default_left":[0,0,0,0,0,0,0,0,0,0,0],"id":23,"left_children":[1,3,5,7,-1,-1,-1,9,-1,-1,-1],"loss_changes":[3.442506E-1,2.537263E-1,7.528056E-2,2.2550337E-1,0E0,0E0,0E0,1.1437919E-1,0E0,0E0,0E0],"parents":[2147483647,0,0,1,1,2,2,3,3,7,7],"right_children":[2,4,6,8,-1,-1,-1,10,-1,-1,-1],"split_conditions":[1.0740712E0,1.4438182E0,1.2972147E0,1.3678323E0,-1.2689158E-1,1.6318211E-2,1.1393498E-1,1.3437347E0,-8.2597926E-2,6.601321E-2,-2.898437E-2],"split_indices":[56,37,38,46,0,0,0,10,0,0,0],"split_type":[0,0,0,0,0,0,0,0,0,0,0],"sum_hessian":[8.31217E0,5.571705E0,2.7404652E0,4.491017E0,1.0806879E0,1.7080774E0,1.0323879E0,3.447228E0,1.043789E0,2.431202E0,1.0160258E0],"tree_param":{"num_deleted":"0","num_feature":"100","num_nodes":"11","size_leaf_vector":"1"}},{"base_weights":[-1.9736094E-3,-1.121479E-1,8.84027E-2,2.6572825E-2,-1.3934425E-1,-1.16004564E-1,9.7873114E-2,-2.688307E-1,5.575008E-2,-1.03884086E-1,-2.3877425E-2],"categories":[],"categories_nodes":[],"categories_segments":[],"categories_sizes":[],"default_left":[0,0,0,0,0,0,0,0,0,0,0],"id":24,"left_children":[1,3,-1,5,-1,7,-1,9,-1,-1,-1],"loss_changes":[3.3103207E-1,3.7268427E-1,0E0,3.0427614E-1,0E0,2.7889872E-1,0E0,2.6720464E-2,0E0,0E0,0E0],"parents":[2147483647,0,0,1,1,3,3,5,5,7,7],"right_children":[2,4,-1,6,-1,8,-1,10,-1,-1,-1],"split_conditions":[1.680207E0,1.6474172E0,8.84027E-2,1.0924203E0,-1.3934425E-1,1.4438182E0,9.7873114E-2,8.6189663E-1,5.575008E-2,-1.03884086E-1,-2.3877425E-2],"split_indices":[4,73,0,3,0,36,0,99,0,0,0],"split_type":[0,0,0,0,0,0,0,0,0,0,0],"sum_hessian":[8.117391E0,6.372589E0,1.7448013E0,5.235748E0,1.1368414E0,3.963085E0,1.2726628E0,2.703572E0,1.2595127E0,1.3295683E0,1.3740039E0],"tree_param":{"num_deleted":"0","num_feature":"100","num_nodes":"11","size_leaf_vector":"1"}},{"base_weights":[-4.6582404E-3,9.6789554E-2,-1.02299966E-1,-3.5605177E-2,1.1355001E-1,-1.5754645E-1,5.8928188E-2,-2.2914578E-1,4.435233E-3,2.719493E-2,-1.4071624E-1],"categories":[],"categories_nodes":[],"categories_segments":[],"categories_sizes":[],"default_left":[0,0,0,0,0,0,0,0,0,0,0],"id":25,"left_children":[1,3,-1,5,-1,7,-1,9,-1,-1,-1],"loss_changes":[3.3454114E-1,2.9575166E-1,0E0,2.0248488E-1,0E0,5.92703E-2,0E0,2.926519E-1,0E0,0E0,0E0],"parents":[2147483647,0,0,1,1,3,3,5,5,7,7],"right_children":[2,4,-1,6,-1,8,-1,10,-1,-1,-1],"split_conditions":[1.4704864E0,1.1495787E0,-1.02299966E-1,1.5260563E0,1.1355001E-1,8.6189663E-1,5.8928188E-2,6.154962E-1,4.435233E-3,2.719493E-2,-1.4071624E-1],"split_indices":[14,17,0,33,0,99,0,63,0,0,0],"split_type":[0,0,0,0,0,0,0,0,0,0,0],"sum_hessian":[7.8372235E0,6.56831E0,1.2689136E0,5.0626435E0,1.5056665E0,3.5290291E0,1.5336143E0,2.2602575E0,1.2687719E0,1.2354983E0,1.024759E0],"tree_param":{"num_deleted":"0","num_feature":"100","num_nodes":"11","size_leaf_vector":"1"}},{"base_weights":[-8.397278E-3,-1.0744081E-1,9.2471875E-2,1.428214E-1,-2.8213704E-1,8.362417E-2,-8.462005E-3,-1.0545171E-1,-2.5719916E-2],"categories":[],"categories_nodes":[],"categories_segments":[],"categories_sizes":[],"default_left":[0,0,0,0,0,0,0,0,0],"id":26,"left_children":[1,3,-1,5,7,-1,-1,-1,-1],"loss_changes":[3.0209407E-1,3.5834727E-1,0E0,9.281927E-2,3.2812178E-2,0E0,0E0,0E0,0E0],"parents":[2147483647,0,0,1,1,3,3,4,4],"right_children":[2,4,-1,6,8,-1,-1,-1,-1],"split_conditions":[1.4438182E0,4.5643154E-1,9.2471875E-2,6.154962E-1,1.2972147E0,8.362417E-2,-8.462005E-3,-1.0545171E-1,-2.5719916E-2],"split_indices":[5,88,0,63,38,0,0,0,0],"split_type":[0,0,0,0,0,0,0,0,0],"sum_hessian":[7.5768304E0,6.274772E0,1.3020581E0,2.6545038E0,3.6202686E0,1.1281029E0,1.526401E0,2.0917628E0,1.5285056E0],"tree_param":{"num_deleted":"0","num_feature":"100","num_nodes":"9","size_leaf_vector":"1"}},{"base_weights":[-1.67483E-3,-1.00638926E-1,8.661184E-2,-2.0998643E-1,6.125501E-2,-1.0401932E-1,2.925741E-2],"categories":[],"categories_nodes":[],"categories_segments":[],"categories_sizes":[],"default_left":[0,0,0,0,0,0,0],"id":27,"left_children":[1,3,-1,5,-1,-1,-1],"loss_changes":[2.708375E-1,2.7674657E-1,0E0,2.7169546E-1,0E0,0E0,0E0],"parents":[2147483647,0,0,1,1,3,3],"right_children":[2,4,-1,6,-1,-1,-1],"split_conditions":[1.680207E0,1.3437347E0,8.661184E-2,1.0924203E0,6.125501E-2,-1.0401932E-1,2.925741E-2],"split_indices":[41,12,0,3,0,0,0],"split_type":[0,0,0,0,0,0,0],"sum_hessian":[7.413543E0,6.016498E0,1.3970451E0,4.657024E0,1.3594744E0,3.1352813E0,1.5217426E0],"tree_param":{"num_deleted":"0","num_feature":"100","num_nodes":"7","size_leaf_vector":"1"}},{"base_weights":[7.3040365E-3,9.524517E-2,-8.647241E-2,2.045752E-1,-4.2724293E-2,3.1150106E-1,-1.9037165E-2,4.0529236E-2,1.1790124E-1],"categories":[],"categories_nodes":[],"categories_segments":[],"categories_sizes":[],"default_left":[0,0,0,0,0,0,0,0,0],"id":28,"left_children":[1,3,-1,5,-1,7,-1,-1,-1],"loss_changes":[2.4109963E-1,2.1327096E-1,0E0,1.7063835E-1,0E0,3.442496E-3,0E0,0E0,0E0],"parents":[2147483647,0,0,1,1,3,3,5,5],"right_children":[2,4,-1,6,-1,8,-1,-1,-1],"split_conditions":[1.4704864E0,1.1693814E0,-8.647241E-2,1.4438182E0,-4.2724293E-2,1.0740712E0,-1.9037165E-2,4.0529236E-2,1.1790124E-1],"split_indices":[14,35,0,37,0,67,0,0,0],"split_type":[0,0,0,0,0,0,0,0,0],"sum_hessian":[7.2201276E0,6.0867214E0,1.1334062E0,4.2642536E0,1.8224677E0,2.9322987E0,1.3319552E0,1.7664992E0,1.1657995E0],"tree_param":{"num_deleted":"0","num_feature":"100","num_nodes":"9","size_leaf_vector":"1"}},{"base_weights":[6.7002918E-3,-1.03677005E-1,7.2028354E-2,2.8809661E-2,-1.0985357E-1,1.4813976E-1,-6.124088E-2,7.867704E-2,-6.8377904E-3],"categories":[],"categories_nodes":[],"categories_segments":[],"categories_sizes":[],"default_left":[0,0,0,0,0,0,0,0,0],"id":29,"left_children":[1,3,-1,5,-1,7,-1,-1,-1],"loss_changes":[2.3322381E-1,2.2578436E-1,0E0,1.70341E-1,0E0,8.229111E-2,0E0,0E0,0E0],"parents":[2147483647,0,0,1,1,3,3,5,5],"right_children":[2,4,-1,6,-1,8,-1,-1,-1],"split_conditions":[1.1693814E0,1.6474172E0,7.2028354E-2,1.0924203E0,-1.0985357E-1,6.154962E-1,-6.124088E-2,7.867704E-2,-6.8377904E-3],"split_indices":[91,73,0,9,0,63,0,0,0],"split_type":[0,0,0,0,0,0,0,0,0],"sum_hessian":[7.0869584E0,5.1888313E0,1.8981274E0,4.04004E0,1.1487912E0,2.9122534E0,1.1277865E0,1.4259772E0,1.4862761E0],"tree_param":{"num_deleted":"0","num_feature":"100","num_nodes":"9","size_leaf_vector":"1"}},{"base_weights":[1.2981854E-3,-1.221186E-1,6.3910045E-2,-1.9333276E-1,2.8161567E-2,8.240779E-3,-1.1298042E-1,5.62676E-2,-5.5849567E-2],"categories":[],"categories_nodes":[],"categories_segments":[],"categories_sizes":[],"default_left":[0,0,0,0,0,0,0,0,0],"id":30,"left_children":[1,3,-1,5,-1,7,-1,-1,-1],"loss_changes":[2.3282169E-1,1.04829505E-1,0E0,1.7174035E-1,0E0,1.4481352E-1,0E0,0E0,0E0],"parents":[2147483647,0,0,1,1,3,3,5,5],"right_children":[2,4,-1,6,-1,8,-1,-1,-1],"split_conditions":[1.0740712E0,1.2309924E0,6.3910045E-2,1.0740712E0,2.8161567E-2,6.154962E-1,-1.1298042E-1,5.62676E-2,-5.5849567E-2],"split_indices":[56,63,0,67,0,63,0,0,0],"split_type":[0,0,0,0,0,0,0,0,0],"sum_hessian":[6.914006E0,4.6353755E0,2.2786305E0,3.564896E0,1.0704794E0,2.1524706E0,1.4124255E0,1.1380074E0,1.0144633E0],"tree_param":{"num_deleted":"0","num_feature":"100","num_nodes":"9","size_leaf_vector":"1"}},{"base_weights":[-1.950826E-3,-9.815975E-2,7.348015E-2,-2.0744301E-1,4.728651E-2,-8.691531E-2,1.4129584E-2],"categories":[],"categories_nodes":[],"categories_segments":[],"categories_sizes":[],"default_left":[0,0,0,0,0,0,0],"id":31,"left_children":[1,3,-1,5,-1,-1,-1],"loss_changes":[2.0899168E-1,2.0927268E-1,0E0,1.1537705E-1,0E0,0E0,0E0],"parents":[2147483647,0,0,1,1,3,3],"right_children":[2,4,-1,6,-1,-1,-1],"split_conditions":[1.680207E0,1.1495787E0,7.348015E-2,1.3437347E0,4.728651E-2,-8.691531E-2,1.4129584E-2],"split_indices":[4,44,0,12,0,0,0],"split_type":[0,0,0,0,0,0,0],"sum_hessian":[6.7865057E0,5.3169427E0,1.4695626E0,3.8577101E0,1.4592328E0,2.810944E0,1.0467659E0],"tree_param":{"num_deleted":"0","num_feature":"100","num_nodes":"7","size_leaf_vector":"1"}},{"base_weights":[4.736831E-3,-8.306818E-2,8.2122065E-2,4.1097E-2,-2.4190521E-1,-9.251126E-2,-1.2725018E-2],"categories":[],"categories_nodes":[],"categories_segments":[],"categories_sizes":[],"default_left":[0,0,0,0,0,0,0],"id":32,"left_children":[1,3,-1,-1,5,-1,-1],"loss_changes":[2.0397419E-1,2.621527E-1,0E0,0E0,4.216902E-2,0E0,0E0],"parents":[2147483647,0,0,1,1,4,4],"right_children":[2,4,-1,-1,6,-1,-1],"split_conditions":[1.4438182E0,4.5643154E-1,8.2122065E-2,4.1097E-2,8.6189663E-1,-9.251126E-2,-1.2725018E-2],"split_indices":[5,88,0,0,99,0,0],"split_type":[0,0,0,0,0,0,0],"sum_hessian":[6.6730013E0,5.5519857E0,1.1210155E0,2.3851135E0,3.1668725E0,1.966024E0,1.2008485E0],"tree_param":{"num_deleted":"0","num_feature":"100","num_nodes":"7","size_leaf_vector":"1"}},{"base_weights":[5.6315204E-3,-1.1031321E-1,6.0137466E-2,-2.4868265E-1,6.620495E-2,-6.37745E-3,-1.18042424E-1],"categories":[],"categories_nodes":[],"categories_segments":[],"categories_sizes":[],"default_left":[0,0,0,0,0,0,0],"id":33,"left_children":[1,3,-1,5,-1,-1,-1],"loss_changes":[1.932361E-1,3.0193263E-1,0E0,1.3238004E-1,0E0,0E0,0E0],"parents":[2147483647,0,0,1,1,3,3],"right_children":[2,4,-1,6,-1,-1,-1],"split_conditions":[1.2972147E0,1.4438182E0,6.0137466E-2,4.5643154E-1,6.620495E-2,-6.37745E-3,-1.18042424E-1],"split_indices":[38,36,0,88,0,0,0],"split_type":[0,0,0,0,0,0,0],"sum_hessian":[6.5754547E0,4.3941865E0,2.1812682E0,3.2741487E0,1.1200378E0,1.7197543E0,1.5543945E0],"tree_param":{"num_deleted":"0","num_feature":"100","num_nodes":"7","size_leaf_vector":"1"}},{"base_weights":[3.8480998E-3,-8.339823E-2,7.581547E-2,-1.7711782E-1,5.193746E-2,-8.794639E-2,3.4527052E-2],"categories":[],"categories_nodes":[],"categories_segments":[],"categories_sizes":[],"default_left":[0,0,0,0,0,0,0],"id":34,"left_children":[1,3,-1,5,-1,-1,-1],"loss_changes":[1.8294251E-1,1.8144119E-1,0E0,2.0624845E-1,0E0,0E0,0E0],"parents":[2147483647,0,0,1,1,3,3],"right_children":[2,4,-1,6,-1,-1,-1],"split_conditions":[1.680207E0,1.3437347E0,7.581547E-2,1.2972147E0,5.193746E-2,-8.794639E-2,3.4527052E-2],"split_indices":[41,12,0,38,0,0,0],"split_type":[0,0,0,0,0,0,0],"sum_hessian":[6.4548078E0,5.271627E0,1.1831806E0,4.087735E0,1.1838918E0,2.9235456E0,1.1641896E0],"tree_param":{"num_deleted":"0","num_feature":"100","num_nodes":"7","size_leaf_vector":"1"}},{"base_weights":[1.2694744E-2,-7.768147E-2,7.295543E-2,3.8215086E-2,-8.945961E-2,1.6764595E-1,-6.1509516E-2,7.165047E-3,6.3853696E-2],"categories":[],"categories_nodes":[],"categories_segments":[],"categories_sizes":[],"default_left":[0,0,0,0,0,0,0,0,0],"id":35,"left_children":[1,3,-1,5,-1,7,-1,-1,-1],"loss_changes":[1.7153278E-1,1.6529219E-1,0E0,1.8655084E-1,0E0,1.899185E-2,0E0,0E0,0E0],"parents":[2147483647,0,0,1,1,3,3,5,5],"right_children":[2,4,-1,6,-1,8,-1,-1,-1],"split_conditions":[1.680207E0,1.4438182E0,7.295543E-2,1.0924203E0,-8.945961E-2,4.5643154E-1,-6.1509516E-2,7.165047E-3,6.3853696E-2],"split_indices":[4,37,0,9,0,88,0,0,0],"split_type":[0,0,0,0,0,0,0,0,0],"sum_hessian":[6.3276935E0,5.021652E0,1.3060409E0,3.8335617E0,1.1880906E0,2.7050252E0,1.1285366E0,1.012634E0,1.692391E0],"tree_param":{"num_deleted":"0","num_feature":"100","num_nodes":"9","size_leaf_vector":"1"}},{"base_weights":[8.002925E-3,-8.9055896E-2,6.7319594E-2,-1.8961069E-1,4.0365666E-2,3.7633367E-3,-8.5834146E-2],"categories":[],"categories_nodes":[],"categories_segments":[],"categories_sizes":[],"default_left":[0,0,0,0,0,0,0],"id":36,"left_children":[1,3,-1,5,-1,-1,-1],"loss_changes":[1.713079E-1,1.534469E-1,0E0,8.8254645E-2,0E0,0E0,0E0],"parents":[2147483647,0,0,1,1,3,3],"right_children":[2,4,-1,6,-1,-1,-1],"split_conditions":[1.1495787E0,1.5260563E0,6.7319594E-2,4.5643154E-1,4.0365666E-2,3.7633367E-3,-8.5834146E-2],"split_indices":[17,33,0,88,0,0,0],"split_type":[0,0,0,0,0,0,0],"sum_hessian":[6.2048306E0,4.6897984E0,1.5150323E0,3.3399084E0,1.3498902E0,1.360318E0,1.9795903E0],"tree_param":{"num_deleted":"0","num_feature":"100","num_nodes":"7","size_leaf_vector":"1"}},{"base_weights":[9.141898E-3,-8.9756854E-2,6.525869E-2,-1.7786215E-1,3.3936433E-2,-7.3113486E-2,5.1889354E-3],"categories":[],"categories_nodes":[],"categories_segments":[],"categories_sizes":[],"default_left":[0,0,0,0,0,0,0],"id":37,"left_children":[1,3,-1,5,-1,-1,-1],"loss_changes":[1.6618969E-1,1.19037785E-1,0E0,5.879551E-2,0E0,0E0,0E0],"parents":[2147483647,0,0,1,1,3,3],"right_children":[2,4,-1,6,-1,-1,-1],"split_conditions":[1.1693814E0,1.5260563E0,6.525869E-2,1.0924203E0,3.3936433E-2,-7.3113486E-2,5.1889354E-3],"split_indices":[91,33,0,3,0,0,0],"split_type":[0,0,0,0,0,0,0],"sum_hessian":[6.1164737E0,4.5339684E0,1.5825053E0,3.2471242E0,1.286844E0,2.2418895E0,1.005235E0],"tree_param":{"num_deleted":"0","num_feature":"100","num_nodes":"7","size_leaf_vector":"1"}},{"base_weights":[1.0836289E-2,9.0197265E-2,-6.592077E-2,-3.4146998E-2,9.799608E-2,9.176048E-2,-6.933599E-2,-4.480473E-3,5.5584036E-2],"categories":[],"categories_nodes":[],"categories_segments":[],"categories_sizes":[],"default_left":[0,0,0,0,0,0,0,0,0],"id":38,"left_children":[1,3,-1,5,-1,7,-1,-1,-1],"loss_changes":[1.4837405E-1,1.8566953E-1,0E0,1.401323E-1,0E0,3.909906E-2,0E0,0E0,0E0],"parents":[2147483647,0,0,1,1,3,3,5,5],"right_children":[2,4,-1,6,-1,8,-1,-1,-1],"split_conditions":[1.6474172E0,1.0924203E0,-6.592077E-2,1.3678323E0,9.799608E-2,8.6189663E-1,-6.933599E-2,-4.480473E-3,5.5584036E-2],"split_indices":[73,3,0,46,0,99,0,0,0],"split_type":[0,0,0,0,0,0,0,0,0],"sum_hessian":[6.025436E0,4.9354925E0,1.0899434E0,3.7952757E0,1.140217E0,2.641161E0,1.1541148E0,1.6261772E0,1.0149837E0],"tree_param":{"num_deleted":"0","num_feature":"100","num_nodes":"9","size_leaf_vector":"1"}},{"base_weights":[9.965815E-3,1.0033896E-1,-5.426183E-2,-2.2189802E-2,9.3137175E-2,-1.4444864E-1,5.703097E-2,-5.3737327E-2,-1.2427755E-2],"categories":[],"categories_nodes":[],"categories_segments":[],"categories_sizes":[],"default_left":[0,0,0,0,0,0,0,0,0],"id":39,"left_children":[1,3,-1,5,-1,7,-1,-1,-1],"loss_changes":[1.3730901E-1,1.4416325E-1,0E0,1.3909797E-1,0E0,4.3600723E-3,0E0,0E0,0E0],"parents":[2147483647,0,0,1,1,3,3,5,5],"right_children":[2,4,-1,6,-1,8,-1,-1,-1],"split_conditions":[1.4438182E0,1.5260563E0,-5.426183E-2,1.1495787E0,9.3137175E-2,6.154962E-1,5.703097E-2,-5.3737327E-2,-1.2427755E-2],"split_indices":[37,33,0,17,0,63,0,0,0],"split_type":[0,0,0,0,0,0,0,0,0],"sum_hessian":[5.90918E0,4.3319645E0,1.5772159E0,3.3012571E0,1.0307074E0,2.2976356E0,1.0036216E0,1.1663679E0,1.1312675E0],"tree_param":{"num_deleted":"0","num_feature":"100","num_nodes":"9","size_leaf_vector":"1"}},{"base_weights":[1.16598625E-2,-6.56417E-2,6.638279E-2,-1.4717573E-1,4.6186022E-2,-7.818324E-2,2.9720565E-2],"categories":[],"categories_nodes":[],"categories_segments":[],"categories_sizes":[],"default_left":[0,0,0,0,0,0,0],"id":40,"left_children":[1,3,-1,5,-1,-1,-1],"loss_changes":[1.2508968E-1,1.2572147E-1,0E0,1.5735254E-1,0E0,0E0,0E0],"parents":[2147483647,0,0,1,1,3,3],"right_children":[2,4,-1,6,-1,-1,-1],"split_conditions":[1.680207E0,1.3437347E0,6.638279E-2,1.0924203E0,4.6186022E-2,-7.818324E-2,2.9720565E-2],"split_indices":[41,12,0,3,0,0,0],"split_type":[0,0,0,0,0,0,0],"sum_hessian":[5.8234463E0,4.7562857E0,1.0671604E0,3.7089617E0,1.0473241E0,2.499293E0,1.2096688E0],"tree_param":{"num_deleted":"0","num_feature":"100","num_nodes":"7","size_leaf_vector":"1"}},{"base_weights":[1.7651139E-2,9.044708E-2,-5.7580505E-2,1.977524E-1,-3.8442414E-2,9.7244084E-2,-3.8195486E-4],"categories":[],"categories_nodes":[],"categories_segments":[],"categories_sizes":[],"default_left":[0,0,0,0,0,0,0],"id":41,"left_children":[1,3,-1,5,-1,-1,-1],"loss_changes":[1.1984777E-1,1.5822667E-1,0E0,1.058957E-1,0E0,0E0,0E0],"parents":[2147483647,0,0,1,1,3,3],"right_children":[2,4,-1,6,-1,-1,-1],"split_conditions":[1.6474172E0,1.1693814E0,-5.7580505E-2,6.154962E-1,-3.8442414E-2,9.7244084E-2,-3.8195486E-4],"split_indices":[73,35,0,63,0,0,0],"split_type":[0,0,0,0,0,0,0],"sum_hessian":[5.71742E0,4.66542E0,1.0519999E0,3.193197E0,1.472223E0,1.5684543E0,1.6247427E0],"tree_param":{"num_deleted":"0","num_feature":"100","num_nodes":"7","size_leaf_vector":"1"}},{"base_weights":[1.3028213E-2,-8.2564235E-2,5.0613616E-2,1.6215995E-2,-5.818881E-2,1.1329895E-2,-3.7199673E-3],"categories":[],"categories_nodes":[],"categories_segments":[],"categories_sizes":[],"default_left":[0,0,0,0,0,0,0],"id":42,"left_children":[1,3,-1,5,-1,-1,-1],"loss_changes":[1.1257254E-1,5.5723373E-2,0E0,2.5991343E-3,0E0,0E0,0E0],"parents":[2147483647,0,0,1,1,3,3],"right_children":[2,4,-1,6,-1,-1,-1],"split_conditions":[1.0740712E0,1.0740712E0,5.0613616E-2,4.5643154E-1,-5.818881E-2,1.1329895E-2,-3.7199673E-3],"split_indices":[56,67,0,88,0,0,0],"split_type":[0,0,0,0,0,0,0],"sum_hessian":[5.628253E0,3.7781026E0,1.8501501E0,2.4553263E0,1.3227762E0,1.2181689E0,1.2371576E0],"tree_param":{"num_deleted":"0","num_feature":"100","num_nodes":"7","size_leaf_vector":"1"}},{"base_weights":[9.179612E-3,-7.568018E-2,5.6207042E-2,-1.5722343E-1,3.6103237E-2,2.0742927E-2,-8.5226804E-2],"categories":[],"categories_nodes":[],"categories_segments":[],"categories_sizes":[],"default_left":[0,0,0,0,0,0,0],"id":43,"left_children":[1,3,-1,5,-1,-1,-1],"loss_changes":[1.1380469E-1,1.016491E-1,0E0,1.3706131E-1,0E0,0E0,0E0],"parents":[2147483647,0,0,1,1,3,3],"right_children":[2,4,-1,6,-1,-1,-1],"split_conditions":[1.1693814E0,1.1495787E0,5.6207042E-2,4.5643154E-1,3.6103237E-2,2.0742927E-2,-8.5226804E-2],"split_indices":[91,44,0,88,0,0,0],"split_type":[0,0,0,0,0,0,0],"sum_hessian":[5.5889535E0,4.1755385E0,1.413415E0,3.088646E0,1.0868925E0,1.272722E0,1.8159238E0],"tree_param":{"num_deleted":"0","num_feature":"100","num_nodes":"7","size_leaf_vector":"1"}},{"base_weights":[1.0552057E-2,9.767144E-2,-5.1656947E-2,1.8101676E-1,-3.296846E-2,8.026737E-2,-6.2171347E-3],"categories":[],"categories_nodes":[],"categories_segments":[],"categories_sizes":[],"default_left":[0,0,0,0,0,0,0],"id":44,"left_children":[1,3,-1,5,-1,-1,-1],"loss_changes":[1.2043245E-1,1.07174695E-1,0E0,7.4988976E-2,0E0,0E0,0E0],"parents":[2147483647,0,0,1,1,3,3],"right_children":[2,4,-1,6,-1,-1,-1],"split_conditions":[1.4438182E0,1.3678323E0,-5.1656947E-2,1.0740712E0,-3.296846E-2,8.026737E-2,-6.2171347E-3],"split_indices":[37,46,0,67,0,0,0],"split_type":[0,0,0,0,0,0,0],"sum_hessian":[5.508297E0,4.0452895E0,1.4630073E0,2.9775894E0,1.0677001E0,1.8554184E0,1.1221709E0],"tree_param":{"num_deleted":"0","num_feature":"100","num_nodes":"7","size_leaf_vector":"1"}},{"base_weights":[5.9897127E-3,-6.6893704E-2,5.650711E-2,3.6399886E-2,-7.624988E-2,1.3922031E-1,-4.158709E-2,1.2452013E-2,5.2542746E-2],"categories":[],"categories_nodes":[],"categories_segments":[],"categories_sizes":[],"default_left":[0,0,0,0,0,0,0,0,0],"id":45,"left_children":[1,3,-1,5,-1,7,-1,-1,-1],"loss_changes":[9.834229E-2,1.1268152E-1,0E0,9.705677E-2,0E0,4.0355623E-3,0E0,0E0,0E0],"parents":[2147483647,0,0,1,1,3,3,5,5],"right_children":[2,4,-1,6,-1,8,-1,-1,-1],"split_conditions":[1.680207E0,1.4438182E0,5.650711E-2,1.1693814E0,-7.624988E-2,6.154962E-1,-4.158709E-2,1.2452013E-2,5.2542746E-2],"split_indices":[4,37,0,87,0,63,0,0,0],"split_type":[0,0,0,0,0,0,0,0,0],"sum_hessian":[5.450893E0,4.3468566E0,1.1040365E0,3.3208263E0,1.0260305E0,2.2207642E0,1.100062E0,1.1763582E0,1.0444059E0],"tree_param":{"num_deleted":"0","num_feature":"100","num_nodes":"9","size_leaf_vector":"1"}},{"base_weights":[4.735954E-3,-8.518042E-2,4.655642E-2,1.0292941E-2,-6.11542E-2,1.8575773E-2,-1.5719997E-2],"categories":[],"categories_nodes":[],"categories_segments":[],"categories_sizes":[],"default_left":[0,0,0,0,0,0,0],"id":46,"left_children":[1,3,-1,5,-1,-1,-1],"loss_changes":[9.947596E-2,5.462859E-2,0E0,1.4641698E-2,0E0,0E0,0E0],"parents":[2147483647,0,0,1,1,3,3],"right_children":[2,4,-1,6,-1,-1,-1],"split_conditions":[1.0740712E0,1.3437347E0,4.655642E-2,8.6189663E-1,-6.11542E-2,1.8575773E-2,-1.5719997E-2],"split_indices":[56,10,0,99,0,0,0],"split_type":[0,0,0,0,0,0,0],"sum_hessian":[5.37613E0,3.636591E0,1.7395393E0,2.5213242E0,1.1152668E0,1.3894677E0,1.1318564E0],"tree_param":{"num_deleted":"0","num_feature":"100","num_nodes":"7","size_leaf_vector":"1"}},{"base_weights":[1.4776742E-3,-7.384464E-2,5.1332828E-2,-1.4266184E-1,2.3244038E-2,5.032346E-3,-6.259443E-2],"categories":[],"categories_nodes":[],"categories_segments":[],"categories_sizes":[],"default_left":[0,0,0,0,0,0,0],"id":47,"left_children":[1,3,-1,5,-1,-1,-1],"loss_changes":[9.37045E-2,6.408441E-2,0E0,4.403007E-2,0E0,0E0,0E0],"parents":[2147483647,0,0,1,1,3,3],"right_children":[2,4,-1,6,-1,-1,-1],"split_conditions":[1.1495787E0,1.1495787E0,5.1332828E-2,4.5643154E-1,2.3244038E-2,5.032346E-3,-6.259443E-2],"split_indices":[17,44,0,88,0,0,0],"split_type":[0,0,0,0,0,0,0],"sum_hessian":[5.3448873E0,4.0923986E0,1.2524885E0,2.8524508E0,1.2399476E0,1.0532852E0,1.7991657E0],"tree_param":{"num_deleted":"0","num_feature":"100","num_nodes":"7","size_leaf_vector":"1"}},{"base_weights":[3.6730643E-3,-7.066637E-2,4.8732713E-2,-1.3605703E-1,2.2207001E-2,-1.3854066E-2,-5.067772E-2],"categories":[],"categories_nodes":[],"categories_segments":[],"categories_sizes":[],"default_left":[0,0,0,0,0,0,0],"id":48,"left_children":[1,3,-1,5,-1,-1,-1],"loss_changes":[8.582055E-2,5.7253323E-2,0E0,3.38611E-3,0E0,0E0,0E0],"parents":[2147483647,0,0,1,1,3,3],"right_children":[2,4,-1,6,-1,-1,-1],"split_conditions":[1.1693814E0,1.5260563E0,4.8732713E-2,4.5643154E-1,2.2207001E-2,-1.3854066E-2,-5.067772E-2],"split_indices":[91,33,0,88,0,0,0],"split_type":[0,0,0,0,0,0,0],"sum_hessian":[5.298606E0,3.9868042E0,1.3118018E0,2.786944E0,1.1998602E0,1.3902923E0,1.3966517E0],"tree_param":{"num_deleted":"0","num_feature":"100","num_nodes":"7","size_leaf_vector":"1"}},{"base_weights":[3.598997E-3,-6.8424895E-2,5.2022815E-2,6.80742E-2,-8.577063E-2,5.527602E-2,-3.7845675E-2],"categories":[],"categories_nodes":[],"categories_segments":[],"categories_sizes":[],"default_left":[0,0,0,0,0,0,0],"id":49,"left_children":[1,3,-1,5,-1,-1,-1],"loss_changes":[8.8373E-2,1.7114134E-1,0E0,1.1230611E-1,0E0,0E0,0E0],"parents":[2147483647,0,0,1,1,3,3],"right_children":[2,4,-1,6,-1,-1,-1],"split_conditions":[1.3437347E0,1.1693814E0,5.2022815E-2,1.4438182E0,-8.577063E-2,5.527602E-2,-3.7845675E-2],"split_indices":[12,35,0,37,0,0,0],"split_type":[0,0,0,0,0,0,0],"sum_hessian":[5.2555146E0,4.1095347E0,1.1459795E0,2.9469013E0,1.1626338E0,1.8760587E0,1.0708425E0],"tree_param":{"num_deleted":"0","num_feature":"100","num_nodes":"7","size_leaf_vector":"1"}},{"base_weights":[-2.8103404E-4,6.851584E-2,-4.932555E-2,6.4020656E-2,-4.2540267E-2],"categories":[],"categories_nodes":[],"categories_segments":[],"categories_sizes":[],"default_left":[0,0,0,0,0],"id":50,"left_children":[1,3,-1,-1,-1],"loss_changes":[8.092685E-2,1.8423185E-1,0E0,0E0,0E0],"parents":[2147483647,0,0,1,1],"right_children":[2,4,-1,-1,-1],"split_conditions":[1.3678323E0,1.0740712E0,-4.932555E-2,6.4020656E-2,-4.2540267E-2],"split_indices":[46,67,0,0,0],"split_type":[0,0,0,0,0],"sum_hessian":[5.1690297E0,4.052872E0,1.1161575E0,2.3910303E0,1.6618418E0],"tree_param":{"num_deleted":"0","num_feature":"100","num_nodes":"5","size_leaf_vector":"1"}},{"base_weights":[-4.6932646E-3,-9.091333E-2,4.3111667E-2,-1.3521552E-1,7.8040496E-3,-1.1807382E-2,-4.956666E-2],"categories":[],"categories_nodes":[],"categories_segments":[],"categories_sizes":[],"default_left":[0,0,0,0,0,0,0],"id":51,"left_children":[1,3,-1,5,-1,-1,-1],"loss_changes":[9.13496E-2,2.673712E-2,0E0,3.3117346E-3,0E0,0E0,0E0],"parents":[2147483647,0,0,1,1,3,3],"right_children":[2,4,-1,6,-1,-1,-1],"split_conditions":[1.2972147E0,1.0740712E0,4.3111667E-2,6.154962E-1,7.8040496E-3,-1.1807382E-2,-4.956666E-2],"split_indices":[38,56,0,63,0,0,0],"split_type":[0,0,0,0,0,0,0],"sum_hessian":[5.118416E0,3.482466E0,1.6359496E0,2.412128E0,1.0703381E0,1.12617E0,1.2859579E0],"tree_param":{"num_deleted":"0","num_feature":"100","num_nodes":"7","size_leaf_vector":"1"}},{"base_weights":[-5.0627654E-3,-7.3934846E-2,4.196896E-2,-2.0453736E-1,4.9844194E-2,-9.92996E-3,-9.139688E-2],"categories":[],"categories_nodes":[],"categories_segments":[],"categories_sizes":[],"default_left":[0,0,0,0,0,0,0],"id":52,"left_children":[1,3,-1,5,-1,-1,-1],"loss_changes":[7.109912E-2,1.8385276E-1,0E0,5.0743967E-2,0E0,0E0,0E0],"parents":[2147483647,0,0,1,1,3,3],"right_children":[2,4,-1,6,-1,-1,-1],"split_conditions":[1.4438182E0,1.2972147E0,4.196896E-2,4.5643154E-1,4.9844194E-2,-9.92996E-3,-9.139688E-2],"split_indices":[36,38,0,88,0,0,0],"split_type":[0,0,0,0,0,0,0],"sum_hessian":[5.0855403E0,3.7797108E0,1.3058293E0,2.543903E0,1.2358078E0,1.4284751E0,1.115428E0],"tree_param":{"num_deleted":"0","num_feature":"100","num_nodes":"7","size_leaf_vector":"1"}},{"base_weights":[-5.3884294E-3,-7.7719815E-2,4.621438E-2,-1.4528476E-1,2.629851E-2,1.026815E-3,-6.421118E-2],"categories":[],"categories_nodes":[],"categories_segments":[],"categories_sizes":[],"default_left":[0,0,0,0,0,0,0],"id":53,"left_children":[1,3,-1,5,-1,-1,-1],"loss_changes":[8.146092E-2,6.647991E-2,0E0,3.9491966E-2,0E0,0E0,0E0],"parents":[2147483647,0,0,1,1,3,3],"right_children":[2,4,-1,6,-1,-1,-1],"split_conditions":[1.1693814E0,1.1495787E0,4.621438E-2,4.5643154E-1,2.629851E-2,1.026815E-3,-6.421118E-2],"split_indices":[91,44,0,88,0,0,0],"split_type":[0,0,0,0,0,0,0],"sum_hessian":[5.0255666E0,3.8097389E0,1.2158278E0,2.7910151E0,1.0187236E0,1.182834E0,1.6081812E0],"tree_param":{"num_deleted":"0","num_feature":"100","num_nodes":"7","size_leaf_vector":"1"}},{"base_weights":[-2.3508423E-3,-7.030369E-2,4.737737E-2,4.152489E-2,-7.276791E-2,4.438889E-2,-3.763402E-2],"categories":[],"categories_nodes":[],"categories_segments":[],"categories_sizes":[],"default_left":[0,0,0,0,0,0,0],"id":54,"left_children":[1,3,-1,5,-1,-1,-1],"loss_changes":[7.620236E-2,1.042607E-1,0E0,8.642685E-2,0E0,0E0,0E0],"parents":[2147483647,0,0,1,1,3,3],"right_children":[2,4,-1,6,-1,-1,-1],"split_conditions":[1.3437347E0,1.1693814E0,4.737737E-2,1.4438182E0,-7.276791E-2,4.438889E-2,-3.763402E-2],"split_indices":[12,35,0,37,0,0,0],"split_type":[0,0,0,0,0,0,0],"sum_hessian":[4.977289E0,3.8895655E0,1.0877237E0,2.8186398E0,1.0709258E0,1.7908711E0,1.0277686E0],"tree_param":{"num_deleted":"0","num_feature":"100","num_nodes":"7","size_leaf_vector":"1"}},{"base_weights":[-4.9515865E-3,-7.982704E-2,3.750001E-2,1.53355375E-2,-5.95296E-2,1.6122228E-2,-1.0908525E-2],"categories":[],"categories_nodes":[],"categories_segments":[],"categories_sizes":[],"default_left":[0,0,0,0,0,0,0],"id":55,"left_children":[1,3,-1,5,-1,-1,-1],"loss_changes":[6.749915E-2,5.2262858E-2,0E0,8.6009735E-3,0E0,0E0,0E0],"parents":[2147483647,0,0,1,1,3,3],"right_children":[2,4,-1,6,-1,-1,-1],"split_conditions":[1.0740712E0,1.3437347E0,3.750001E-2,8.6189663E-1,-5.95296E-2,1.6122228E-2,-1.0908525E-2],"split_indices":[56,10,0,99,0,0,0],"split_type":[0,0,0,0,0,0,0],"sum_hessian":[4.91158E0,3.3608465E0,1.5507337E0,2.3477955E0,1.013051E0,1.3243937E0,1.0234017E0],"tree_param":{"num_deleted":"0","num_feature":"100","num_nodes":"7","size_leaf_vector":"1"}},{"base_weights":[-6.367084E-3,-7.247332E-2,3.9023943E-2,-1.8717249E-1,4.261064E-2,-1.3364434E-2,-7.935701E-2],"categories":[],"categories_nodes":[],"categories_segments":[],"categories_sizes":[],"default_left":[0,0,0,0,0,0,0],"id":56,"left_children":[1,3,-1,5,-1,-1,-1],"loss_changes":[6.253944E-2,1.3997862E-1,0E0,2.6105389E-2,0E0,0E0,0E0],"parents":[2147483647,0,0,1,1,3,3],"right_children":[2,4,-1,6,-1,-1,-1],"split_conditions":[1.4438182E0,1.2972147E0,3.9023943E-2,4.5643154E-1,4.261064E-2,-1.3364434E-2,-7.935701E-2],"split_indices":[36,38,0,88,0,0,0],"split_type":[0,0,0,0,0,0,0],"sum_hessian":[4.88827E0,3.6087463E0,1.2795238E0,2.4344614E0,1.1742848E0,1.4101892E0,1.0242722E0],"tree_param":{"num_deleted":"0","num_feature":"100","num_nodes":"7","size_leaf_vector":"1"}},{"base_weights":[-6.5411185E-3,-7.444488E-2,4.3229666E-2,-4.426203E-2,2.6036792E-2],"categories":[],"categories_nodes":[],"categories_segments":[],"categories_sizes":[],"default_left":[0,0,0,0,0],"id":57,"left_children":[1,3,-1,-1,-1],"loss_changes":[7.0496306E-2,6.804243E-2,0E0,0E0,0E0],"parents":[2147483647,0,0,1,1],"right_children":[2,4,-1,-1,-1],"split_conditions":[1.1693814E0,1.5260563E0,4.3229666E-2,-4.426203E-2,2.6036792E-2],"split_indices":[91,33,0,0,0],"split_type":[0,0,0,0,0],"sum_hessian":[4.8430686E0,3.6869273E0,1.1561414E0,2.5952904E0,1.091637E0],"tree_param":{"num_deleted":"0","num_feature":"100","num_nodes":"5","size_leaf_vector":"1"}},{"base_weights":[-3.2789703E-4,-6.381619E-2,4.456061E-2,-1.4638363E-1,3.3232678E-2,-7.028394E-2,-6.731698E-3],"categories":[],"categories_nodes":[],"categories_segments":[],"categories_sizes":[],"default_left":[0,0,0,0,0,0,0],"id":58,"left_children":[1,3,-1,5,-1,-1,-1],"loss_changes":[6.435263E-2,8.497338E-2,0E0,3.4714185E-2,0E0,0E0,0E0],"parents":[2147483647,0,0,1,1,3,3],"right_children":[2,4,-1,6,-1,-1,-1],"split_conditions":[1.3437347E0,1.0924203E0,4.456061E-2,4.5643154E-1,3.3232678E-2,-7.028394E-2,-6.731698E-3],"split_indices":[12,3,0,88,0,0,0],"split_type":[0,0,0,0,0,0,0],"sum_hessian":[4.8060775E0,3.769671E0,1.0364068E0,2.6690145E0,1.1006564E0,1.0407573E0,1.6282573E0],"tree_param":{"num_deleted":"0","num_feature":"100","num_nodes":"7","size_leaf_vector":"1"}},{"base_weights":[-1.9884168E-4,6.843754E-2,-4.1008994E-2,-4.2791292E-2,6.4235546E-2,2.4423199E-2,-4.023107E-2],"categories":[],"categories_nodes":[],"categories_segments":[],"categories_sizes":[],"default_left":[0,0,0,0,0,0,0],"id":59,"left_children":[1,3,-1,5,-1,-1,-1],"loss_changes":[6.332242E-2,8.2069814E-2,0E0,4.9305137E-2,0E0,0E0,0E0],"parents":[2147483647,0,0,1,1,3,3],"right_children":[2,4,-1,6,-1,-1,-1],"split_conditions":[1.4438182E0,8.6189663E-1,-4.1008994E-2,6.154962E-1,6.4235546E-2,2.4423199E-2,-4.023107E-2],"split_indices":[37,99,0,63,0,0,0],"split_type":[0,0,0,0,0,0,0],"sum_hessian":[4.7603683E0,3.4993682E0,1.2610002E0,2.3848095E0,1.1145587E0,1.0563757E0,1.3284339E0],"tree_param":{"num_deleted":"0","num_feature":"100","num_nodes":"7","size_leaf_vector":"1"}},{"base_weights":[1.1962652E-3,-6.2267464E-2,3.8585287E-2,3.0907582E-2,-5.8657818E-2],"categories":[],"categories_nodes":[],"categories_segments":[],"categories_sizes":[],"default_left":[0,0,0,0,0],"id":60,"left_children":[1,3,-1,-1,-1],"loss_changes":[5.4214407E-2,1.1899872E-1,0E0,0E0,0E0],"parents":[2147483647,0,0,1,1],"right_children":[2,4,-1,-1,-1],"split_conditions":[1.4438182E0,4.5643154E-1,3.8585287E-2,3.0907582E-2,-5.8657818E-2],"split_indices":[36,88,0,0,0],"split_type":[0,0,0,0,0],"sum_hessian":[4.7138376E0,3.487949E0,1.2258885E0,1.6581151E0,1.8298337E0],"tree_param":{"num_deleted":"0","num_feature":"100","num_nodes":"5","size_leaf_vector":"1"}},{"base_weights":[2.6613378E-3,-5.9281535E-2,4.0489707E-2,-3.8536616E-2,2.6520103E-2],"categories":[],"categories_nodes":[],"categories_segments":[],"categories_sizes":[],"default_left":[0,0,0,0,0],"id":61,"left_children":[1,3,-1,-1,-1],"loss_changes":[5.4556374E-2,5.7980455E-2,0E0,0E0,0E0],"parents":[2147483647,0,0,1,1],"right_children":[2,4,-1,-1,-1],"split_conditions":[1.1693814E0,1.5260563E0,4.0489707E-2,-3.8536616E-2,2.6520103E-2],"split_indices":[91,33,0,0,0],"split_type":[0,0,0,0,0],"sum_hessian":[4.680736E0,3.5640385E0,1.1166977E0,2.515822E0,1.0482167E0],"tree_param":{"num_deleted":"0","num_feature":"100","num_nodes":"5","size_leaf_vector":"1"}},{"base_weights":[6.9023534E-3,-5.1263742E-2,4.021853E-2,-1.1190526E-1,2.2954356E-2,-3.4545758E-3,-4.616405E-2],"categories":[],"categories_nodes":[],"categories_segments":[],"categories_sizes":[],"default_left":[0,0,0,0,0,0,0],"id":62,"left_children":[1,3,-1,5,-1,-1,-1],"loss_changes":[4.8661526E-2,4.4206567E-2,0E0,1.3084572E-2,0E0,0E0,0E0],"parents":[2147483647,0,0,1,1,3,3],"right_children":[2,4,-1,6,-1,-1,-1],"split_conditions":[1.1495787E0,1.5260563E0,4.021853E-2,4.5643154E-1,2.2954356E-2,-3.4545758E-3,-4.616405E-2],"split_indices":[17,33,0,88,0,0,0],"split_type":[0,0,0,0,0,0,0],"sum_hessian":[4.64994E0,3.6000402E0,1.0498997E0,2.5256364E0,1.0744038E0,1.1203847E0,1.4052519E0],"tree_param":{"num_deleted":"0","num_feature":"100","num_nodes":"7","size_leaf_vector":"1"}},{"base_weights":[7.240261E-3,6.831304E-2,-3.4782764E-2,-4.080706E-2,6.257108E-2,2.3147319E-2,-3.8149185E-2],"categories":[],"categories_nodes":[],"categories_segments":[],"categories_sizes":[],"default_left":[0,0,0,0,0,0,0],"id":63,"left_children":[1,3,-1,5,-1,-1,-1],"loss_changes":[5.0216284E-2,7.566713E-2,0E0,4.34722E-2,0E0,0E0,0E0],"parents":[2147483647,0,0,1,1,3,3],"right_children":[2,4,-1,6,-1,-1,-1],"split_conditions":[1.4438182E0,8.6189663E-1,-3.4782764E-2,6.154962E-1,6.257108E-2,2.3147319E-2,-3.8149185E-2],"split_indices":[37,99,0,63,0,0,0],"split_type":[0,0,0,0,0,0,0],"sum_hessian":[4.6221247E0,3.3878813E0,1.2342434E0,2.304239E0,1.0836424E0,1.0189133E0,1.2853256E0],"tree_param":{"num_deleted":"0","num_feature":"100","num_nodes":"7","size_leaf_vector":"1"}},{"base_weights":[7.4376073E-3,-5.1481117E-2,3.692642E-2,-1.5818429E-1,4.160928E-2,-8.322391E-2,1.3794032E-2],"categories":[],"categories_nodes":[],"categories_segments":[],"categories_sizes":[],"default_left":[0,0,0,0,0,0,0],"id":64,"left_children":[1,3,-1,5,-1,-1,-1],"loss_changes":[4.4373337E-2,1.1129283E-1,0E0,9.278857E-2,0E0,0E0,0E0],"parents":[2147483647,0,0,1,1,3,3],"right_children":[2,4,-1,6,-1,-1,-1],"split_conditions":[1.4438182E0,1.0924203E0,3.692642E-2,8.6189663E-1,4.160928E-2,-8.322391E-2,1.3794032E-2],"split_indices":[36,3,0,99,0,0,0],"split_type":[0,0,0,0,0,0,0],"sum_hessian":[4.582148E0,3.403217E0,1.1789308E0,2.287825E0,1.115392E0,1.2178485E0,1.0699767E0],"tree_param":{"num_deleted":"0","num_feature":"100","num_nodes":"7","size_leaf_vector":"1"}},{"base_weights":[6.6660955E-3,-5.6378234E-2,3.264066E-2,-3.2216523E-2,1.4690634E-2],"categories":[],"categories_nodes":[],"categories_segments":[],"categories_sizes":[],"default_left":[0,0,0,0,0],"id":65,"left_children":[1,3,-1,-1,-1],"loss_changes":[4.173619E-2,2.7170047E-2,0E0,0E0,0E0],"parents":[2147483647,0,0,1,1],"right_children":[2,4,-1,-1,-1],"split_conditions":[1.0740712E0,1.1693814E0,3.264066E-2,-3.2216523E-2,1.4690634E-2],"split_indices":[56,66,0,0,0],"split_type":[0,0,0,0,0],"sum_hessian":[4.5290504E0,3.0774674E0,1.451583E0,2.0604146E0,1.0170528E0],"tree_param":{"num_deleted":"0","num_feature":"100","num_nodes":"5","size_leaf_vector":"1"}},{"base_weights":[7.418866E-3,6.538095E-2,-3.2468572E-2,-2.2636747E-2,5.176693E-2,2.4605012E-2,-3.1792756E-2],"categories":[],"categories_nodes":[],"categories_segments":[],"categories_sizes":[],"default_left":[0,0,0,0,0,0,0],"id":66,"left_children":[1,3,-1,5,-1,-1,-1],"loss_changes":[4.4008363E-2,4.4409014E-2,0E0,3.69635E-2,0E0,0E0,0E0],"parents":[2147483647,0,0,1,1,3,3],"right_children":[2,4,-1,6,-1,-1,-1],"split_conditions":[1.4438182E0,8.6189663E-1,-3.2468572E-2,6.154962E-1,5.176693E-2,2.4605012E-2,-3.1792756E-2],"split_indices":[37,99,0,63,0,0,0],"split_type":[0,0,0,0,0,0,0],"sum_hessian":[4.5096755E0,3.2935917E0,1.2160838E0,2.241528E0,1.0520637E0,1.0007277E0,1.2408004E0],"tree_param":{"num_deleted":"0","num_feature":"100","num_nodes":"7","size_leaf_vector":"1"}},{"base_weights":[7.4542034E-3,-4.7689635E-2,3.6881693E-2,-3.321078E-2,2.5067963E-2],"categories":[],"categories_nodes":[],"categories_segments":[],"categories_sizes":[],"default_left":[0,0,0,0,0],"id":67,"left_children":[1,3,-1,-1,-1],"loss_changes":[4.0754415E-2,4.587809E-2,0E0,0E0,0E0],"parents":[2147483647,0,0,1,1],"right_children":[2,4,-1,-1,-1],"split_conditions":[1.1693814E0,1.5260563E0,3.6881693E-2,-3.321078E-2,2.5067963E-2],"split_indices":[91,33,0,0,0],"split_type":[0,0,0,0,0],"sum_hessian":[4.4789567E0,3.428771E0,1.0501857E0,2.4223485E0,1.0064224E0],"tree_param":{"num_deleted":"0","num_feature":"100","num_nodes":"5","size_leaf_vector":"1"}},{"base_weights":[1.0506381E-2,-4.5068167E-2,3.5120096E-2,3.1746715E-2,-5.21263E-2],"categories":[],"categories_nodes":[],"categories_segments":[],"categories_sizes":[],"default_left":[0,0,0,0,0],"id":68,"left_children":[1,3,-1,-1,-1],"loss_changes":[3.7578315E-2,1.02017656E-1,0E0,0E0,0E0],"parents":[2147483647,0,0,1,1],"right_children":[2,4,-1,-1,-1],"split_conditions":[1.4438182E0,4.5643154E-1,3.5120096E-2,3.1746715E-2,-5.21263E-2],"split_indices":[36,88,0,0,0],"split_type":[0,0,0,0,0],"sum_hessian":[4.454577E0,3.3069625E0,1.1476146E0,1.6039394E0,1.7030232E0],"tree_param":{"num_deleted":"0","num_feature":"100","num_nodes":"5","size_leaf_vector":"1"}},{"base_weights":[1.004688E-2,-4.2128418E-2,3.5264734E-2,-8.697443E-2,1.6326735E-2,2.807104E-3,-4.409397E-2],"categories":[],"categories_nodes":[],"categories_segments":[],"categories_sizes":[],"default_left":[0,0,0,0,0,0,0],"id":69,"left_children":[1,3,-1,5,-1,-1,-1],"loss_changes":[3.5389755E-2,2.3739997E-2,0E0,2.0926207E-2,0E0,0E0,0E0],"parents":[2147483647,0,0,1,1,3,3],"right_children":[2,4,-1,6,-1,-1,-1],"split_conditions":[1.1693814E0,1.1693814E0,3.5264734E-2,6.154962E-1,1.6326735E-2,2.807104E-3,-4.409397E-2],"split_indices":[91,66,0,63,0,0,0],"split_type":[0,0,0,0,0,0,0],"sum_hessian":[4.426602E0,3.3896027E0,1.036999E0,2.3822696E0,1.0073329E0,1.2383362E0,1.1439335E0],"tree_param":{"num_deleted":"0","num_feature":"100","num_nodes":"7","size_leaf_vector":"1"}},{"base_weights":[8.938627E-3,-4.3045312E-2,3.4302767E-2,2.1808393E-2,-5.680002E-2],"categories":[],"categories_nodes":[],"categories_segments":[],"categories_sizes":[],"default_left":[0,0,0,0,0],"id":70,"left_children":[1,3,-1,-1,-1],"loss_changes":[3.4516808E-2,8.730893E-2,0E0,0E0,0E0],"parents":[2147483647,0,0,1,1],"right_children":[2,4,-1,-1,-1],"split_conditions":[1.4178427E0,1.0740712E0,3.4302767E-2,2.1808393E-2,-5.680002E-2],"split_indices":[50,67,0,0,0],"split_type":[0,0,0,0,0],"sum_hessian":[4.4012084E0,3.3437345E0,1.0574738E0,2.1476402E0,1.1960942E0],"tree_param":{"num_deleted":"0","num_feature":"100","num_nodes":"5","size_leaf_vector":"1"}},{"base_weights":[6.084227E-3,-5.2647743E-2,3.0382922E-2,-2.8071066E-2,1.0210868E-2],"categories":[],"categories_nodes":[],"categories_segments":[],"categories_sizes":[],"default_left":[0,0,0,0,0],"id":71,"left_children":[1,3,-1,-1,-1],"loss_changes":[3.5414077E-2,1.7322741E-2,0E0,0E0,0E0],"parents":[2147483647,0,0,1,1],"right_children":[2,4,-1,-1,-1],"split_conditions":[1.0740712E0,1.1495787E0,3.0382922E-2,-2.8071066E-2,1.0210868E-2],"split_indices":[56,44,0,0,0],"split_type":[0,0,0,0,0],"sum_hessian":[4.3806205E0,2.9855304E0,1.3950899E0,1.9741274E0,1.0114031E0],"tree_param":{"num_deleted":"0","num_feature":"100","num_nodes":"5","size_leaf_vector":"1"}},{"base_weights":[6.6039097E-3,5.7957776E-2,-2.8782992E-2,-2.987901E-2,5.0514583E-2,-2.7516639E-2,1.5494639E-2],"categories":[],"categories_nodes":[],"categories_segments":[],"categories_sizes":[],"default_left":[0,0,0,0,0,0,0],"id":72,"left_children":[1,3,-1,5,-1,-1,-1],"loss_changes":[3.3819463E-2,4.575775E-2,0E0,2.081074E-2,0E0,0E0,0E0],"parents":[2147483647,0,0,1,1,3,3],"right_children":[2,4,-1,6,-1,-1,-1],"split_conditions":[1.4438182E0,8.6189663E-1,-2.8782992E-2,1.4438182E0,5.0514583E-2,-2.7516639E-2,1.5494639E-2],"split_indices":[37,99,0,36,0,0,0],"split_type":[0,0,0,0,0,0,0],"sum_hessian":[4.366075E0,3.1989264E0,1.1671484E0,2.1879444E0,1.0109822E0,1.173069E0,1.0148753E0],"tree_param":{"num_deleted":"0","num_feature":"100","num_nodes":"7","size_leaf_vector":"1"}},{"base_weights":[6.4832172E-3,-4.2087797E-2,3.2489773E-2,1.2814417E-3,-2.7227242E-2],"categories":[],"categories_nodes":[],"categories_segments":[],"categories_sizes":[],"default_left":[0,0,0,0,0],"id":73,"left_children":[1,3,-1,-1,-1],"loss_changes":[3.1007286E-2,1.018247E-2,0E0,0E0,0E0],"parents":[2147483647,0,0,1,1],"right_children":[2,4,-1,-1,-1],"split_conditions":[1.1693814E0,1.0740712E0,3.2489773E-2,1.2814417E-3,-2.7227242E-2],"split_indices":[91,67,0,0,0],"split_type":[0,0,0,0,0],"sum_hessian":[4.348345E0,3.3411083E0,1.0072364E0,2.178377E0,1.1627314E0],"tree_param":{"num_deleted":"0","num_feature":"100","num_nodes":"5","size_leaf_vector":"1"}},{"base_weights":[5.7852915E-3,-4.8462693E-2,2.8191779E-2,-2.4645414E-2,7.4984967E-3],"categories":[],"categories_nodes":[],"categories_segments":[],"categories_sizes":[],"default_left":[0,0,0,0,0],"id":74,"left_children":[1,3,-1,-1,-1],"loss_changes":[3.0075677E-2,1.1859911E-2,0E0,0E0,0E0],"parents":[2147483647,0,0,1,1],"right_children":[2,4,-1,-1,-1],"split_conditions":[1.0740712E0,1.1495787E0,2.8191779E-2,-2.4645414E-2,7.4984967E-3],"split_indices":[56,44,0,0,0],"split_type":[0,0,0,0,0],"sum_hessian":[4.334782E0,2.9627304E0,1.3720517E0,1.9500581E0,1.0126724E0],"tree_param":{"num_deleted":"0","num_feature":"100","num_nodes":"5","size_leaf_vector":"1"}},{"base_weights":[6.135874E-3,5.495991E-2,-2.7446566E-2,-1.2681827E-2,3.3327978E-2],"categories":[],"categories_nodes":[],"categories_segments":[],"categories_sizes":[],"default_left":[0,0,0,0,0],"id":75,"left_children":[1,3,-1,-1,-1],"loss_changes":[3.0397922E-2,2.7471479E-2,0E0,0E0,0E0],"parents":[2147483647,0,0,1,1],"right_children":[2,4,-1,-1,-1],"split_conditions":[1.4438182E0,4.5643154E-1,-2.7446566E-2,-1.2681827E-2,3.3327978E-2],"split_indices":[37,88,0,0,0],"split_type":[0,0,0,0,0],"sum_hessian":[4.3225965E0,3.172826E0,1.1497704E0,1.2516588E0,1.9211671E0],"tree_param":{"num_deleted":"0","num_feature":"100","num_nodes":"5","size_leaf_vector":"1"}},{"base_weights":[3.0245672E-3,-4.6025198E-2,2.9170202E-2,-4.355132E-2,3.719248E-2],"categories":[],"categories_nodes":[],"categories_segments":[],"categories_sizes":[],"default_left":[0,0,0,0,0],"id":76,"left_children":[1,3,-1,-1,-1],"loss_changes":[2.9027615E-2,8.832966E-2,0E0,0E0,0E0],"parents":[2147483647,0,0,1,1],"right_children":[2,4,-1,-1,-1],"split_conditions":[1.5260563E0,1.1495787E0,2.9170202E-2,-4.355132E-2,3.719248E-2],"split_indices":[33,44,0,0,0],"split_type":[0,0,0,0,0],"sum_hessian":[4.3132787E0,3.1728208E0,1.1404577E0,2.0962937E0,1.0765272E0],"tree_param":{"num_deleted":"0","num_feature":"100","num_nodes":"5","size_leaf_vector":"1"}},{"base_weights":[6.4046383E-3,-3.9881714E-2,2.8811533E-2,-4.555852E-2,4.561291E-2],"categories":[],"categories_nodes":[],"categories_segments":[],"categories_sizes":[],"default_left":[0,0,0,0,0],"id":77,"left_children":[1,3,-1,-1,-1],"loss_changes":[2.5782933E-2,1.13268666E-1,0E0,0E0,0E0],"parents":[2147483647,0,0,1,1],"right_children":[2,4,-1,-1,-1],"split_conditions":[1.4438182E0,1.2972147E0,2.8811533E-2,-4.555852E-2,4.561291E-2],"split_indices":[36,38,0,0,0],"split_type":[0,0,0,0,0],"sum_hessian":[4.2913227E0,3.1959915E0,1.0953312E0,2.1501896E0,1.0458019E0],"tree_param":{"num_deleted":"0","num_feature":"100","num_nodes":"5","size_leaf_vector":"1"}},{"base_weights":[9.971075E-3,-4.0418282E-2,2.697576E-2,-1.3146447E-3,-1.6047522E-2],"categories":[],"categories_nodes":[],"categories_segments":[],"categories_sizes":[],"default_left":[0,0,0,0,0],"id":78,"left_children":[1,3,-1,-1,-1],"loss_changes":[2.4837194E-2,1.6115597E-3,0E0,0E0,0E0],"parents":[2147483647,0,0,1,1],"right_children":[2,4,-1,-1,-1],"split_conditions":[1.0740712E0,4.5643154E-1,2.697576E-2,-1.3146447E-3,-1.6047522E-2],"split_indices":[56,88,0,0,0],"split_type":[0,0,0,0,0],"sum_hessian":[4.263159E0,2.9182806E0,1.3448778E0,1.1323168E0,1.7859639E0],"tree_param":{"num_deleted":"0","num_feature":"100","num_nodes":"5","size_leaf_vector":"1"}},{"base_weights":[8.8311145E-3,5.2126456E-2,-2.3700204E-2,2.9579913E-2,-1.2992942E-2],"categories":[],"categories_nodes":[],"categories_segments":[],"categories_sizes":[],"default_left":[0,0,0,0,0],"id":79,"left_children":[1,3,-1,-1,-1],"loss_changes":[2.4097713E-2,2.255132E-2,0E0,0E0,0E0],"parents":[2147483647,0,0,1,1],"right_children":[2,4,-1,-1,-1],"split_conditions":[1.4438182E0,1.1693814E0,-2.3700204E-2,2.9579913E-2,-1.2992942E-2],"split_indices":[37,35,0,0,0],"split_type":[0,0,0,0,0],"sum_hessian":[4.2540693E0,3.1217632E0,1.1323061E0,2.07714E0,1.0446229E0],"tree_param":{"num_deleted":"0","num_feature":"100","num_nodes":"5","size_leaf_vector":"1"}},{"base_weights":[4.846734E-3,-4.3784145E-2,2.5963029E-2,-3.0401817E-2,1.7327389E-2],"categories":[],"categories_nodes":[],"categories_segments":[],"categories_sizes":[],"default_left":[0,0,0,0,0],"id":80,"left_children":[1,3,-1,-1,-1],"loss_changes":[2.4618097E-2,2.8940521E-2,0E0,0E0,0E0],"parents":[2147483647,0,0,1,1],"right_children":[2,4,-1,-1,-1],"split_conditions":[1.0924203E0,8.6189663E-1,2.5963029E-2,-3.0401817E-2,1.7327389E-2],"split_indices":[3,99,0,0,0],"split_type":[0,0,0,0,0],"sum_hessian":[4.242628E0,2.950421E0,1.292207E0,1.8843476E0,1.0660737E0],"tree_param":{"num_deleted":"0","num_feature":"100","num_nodes":"5","size_leaf_vector":"1"}},{"base_weights":[5.854808E-3,-4.2145185E-2,2.8626105E-2,-3.2252904E-2,2.3389364E-2],"categories":[],"categories_nodes":[],"categories_segments":[],"categories_sizes":[],"default_left":[0,0,0,0,0],"id":81,"left_children":[1,3,-1,-1,-1],"loss_changes":[2.649224E-2,4.054454E-2,0E0,0E0,0E0],"parents":[2147483647,0,0,1,1],"right_children":[2,4,-1,-1,-1],"split_conditions":[1.1693814E0,1.2972147E0,2.8626105E-2,-3.2252904E-2,2.3389364E-2],"split_indices":[66,38,0,0,0],"split_type":[0,0,0,0,0],"sum_hessian":[4.226791E0,3.0966706E0,1.13012E0,2.0732818E0,1.0233889E0],"tree_param":{"num_deleted":"0","num_feature":"100","num_nodes":"5","size_leaf_vector":"1"}},{"base_weights":[7.887243E-3,-3.8181096E-2,2.448238E-2,-9.6989213E-4,-1.5324549E-2],"categories":[],"categories_nodes":[],"categories_segments":[],"categories_sizes":[],"default_left":[0,0,0,0,0],"id":82,"left_children":[1,3,-1,-1,-1],"loss_changes":[2.0817662E-2,1.5882296E-3,0E0,0E0,0E0],"parents":[2147483647,0,0,1,1],"right_children":[2,4,-1,-1,-1],"split_conditions":[1.0740712E0,4.5643154E-1,2.448238E-2,-9.6989213E-4,-1.5324549E-2],"split_indices":[56,88,0,0,0],"split_type":[0,0,0,0,0],"sum_hessian":[4.212247E0,2.8889904E0,1.3232567E0,1.1160934E0,1.7728969E0],"tree_param":{"num_deleted":"0","num_feature":"100","num_nodes":"5","size_leaf_vector":"1"}},{"base_weights":[7.109366E-3,4.8247777E-2,-2.2574492E-2,2.655098E-2,-1.0846336E-2],"categories":[],"categories_nodes":[],"categories_segments":[],"categories_sizes":[],"default_left":[0,0,0,0,0],"id":83,"left_children":[1,3,-1,-1,-1],"loss_changes":[2.1263167E-2,1.7062236E-2,0E0,0E0,0E0],"parents":[2147483647,0,0,1,1],"right_children":[2,4,-1,-1,-1],"split_conditions":[1.4438182E0,1.1693814E0,-2.2574492E-2,2.655098E-2,-1.0846336E-2],"split_indices":[37,35,0,0,0],"split_type":[0,0,0,0,0],"sum_hessian":[4.204331E0,3.080007E0,1.1243241E0,2.0524876E0,1.0275193E0],"tree_param":{"num_deleted":"0","num_feature":"100","num_nodes":"5","size_leaf_vector":"1"}},{"base_weights":[3.6680417E-3,-3.8527783E-2,2.483694E-2,-2.7959207E-2,1.9050641E-2],"categories":[],"categories_nodes":[],"categories_segments":[],"categories_sizes":[],"default_left":[0,0,0,0,0],"id":84,"left_children":[1,3,-1,-1,-1],"loss_changes":[2.0533096E-2,2.8622653E-2,0E0,0E0,0E0],"parents":[2147483647,0,0,1,1],"right_children":[2,4,-1,-1,-1],"split_conditions":[1.1693814E0,1.2972147E0,2.483694E-2,-2.7959207E-2,1.9050641E-2],"split_indices":[66,38,0,0,0],"split_type":[0,0,0,0,0],"sum_hessian":[4.194797E0,3.0704014E0,1.1243954E0,2.055561E0,1.0148404E0],"tree_param":{"num_deleted":"0","num_feature":"100","num_nodes":"5","size_leaf_vector":"1"}},{"base_weights":[5.6347167E-3,5.3243868E-2,-1.8768182E-2,3.6108542E-2,-8.14881E-3],"categories":[],"categories_nodes":[],"categories_segments":[],"categories_sizes":[],"default_left":[0,0,0,0,0],"id":85,"left_children":[1,3,-1,-1,-1],"loss_changes":[2.0161143E-2,2.2658944E-2,0E0,0E0,0E0],"parents":[2147483647,0,0,1,1],"right_children":[2,4,-1,-1,-1],"split_conditions":[1.0740712E0,6.154962E-1,-1.8768182E-2,3.6108542E-2,-8.14881E-3],"split_indices":[67,63,0,0,0],"split_type":[0,0,0,0,0],"sum_hessian":[4.183744E0,2.5928466E0,1.5908976E0,1.1423639E0,1.4504826E0],"tree_param":{"num_deleted":"0","num_feature":"100","num_nodes":"5","size_leaf_vector":"1"}},{"base_weights":[5.747248E-3,-3.8143832E-2,2.301356E-2,-1.5701046E-3,-1.4836551E-2],"categories":[],"categories_nodes":[],"categories_segments":[],"categories_sizes":[],"default_left":[0,0,0,0,0],"id":86,"left_children":[1,3,-1,-1,-1],"loss_changes":[1.904024E-2,1.17973E-3,0E0,0E0,0E0],"parents":[2147483647,0,0,1,1],"right_children":[2,4,-1,-1,-1],"split_conditions":[1.0740712E0,4.5643154E-1,2.301356E-2,-1.5701046E-3,-1.4836551E-2],"split_indices":[56,88,0,0,0],"split_type":[0,0,0,0,0],"sum_hessian":[4.173559E0,2.8644276E0,1.3091319E0,1.1068264E0,1.757601E0],"tree_param":{"num_deleted":"0","num_feature":"100","num_nodes":"5","size_leaf_vector":"1"}},{"base_weights":[5.3127743E-3,-3.477453E-2,2.4173114E-2,3.1962153E-2,-4.8669863E-2],"categories":[],"categories_nodes":[],"categories_segments":[],"categories_sizes":[],"default_left":[0,0,0,0,0],"id":87,"left_children":[1,3,-1,-1,-1],"loss_changes":[1.838944E-2,9.058181E-2,0E0,0E0,0E0],"parents":[2147483647,0,0,1,1],"right_children":[2,4,-1,-1,-1],"split_conditions":[1.4438182E0,4.5643154E-1,2.4173114E-2,3.1962153E-2,-4.8669863E-2],"split_indices":[36,88,0,0,0],"split_type":[0,0,0,0,0],"sum_hessian":[4.166284E0,3.069417E0,1.0968671E0,1.5334132E0,1.5360037E0],"tree_param":{"num_deleted":"0","num_feature":"100","num_nodes":"5","size_leaf_vector":"1"}},{"base_weights":[5.1351935E-3,-3.415391E-2,2.3705503E-2,-3.784039E-2,3.6270693E-2],"categories":[],"categories_nodes":[],"categories_segments":[],"categories_sizes":[],"default_left":[0,0,0,0,0],"id":88,"left_children":[1,3,-1,-1,-1],"loss_changes":[1.7631315E-2,7.31049E-2,0E0,0E0,0E0],"parents":[2147483647,0,0,1,1],"right_children":[2,4,-1,-1,-1],"split_conditions":[1.5260563E0,1.1495787E0,2.3705503E-2,-3.784039E-2,3.6270693E-2],"split_indices":[33,44,0,0,0],"split_type":[0,0,0,0,0],"sum_hessian":[4.144177E0,3.0565274E0,1.0876496E0,2.0355465E0,1.0209808E0],"tree_param":{"num_deleted":"0","num_feature":"100","num_nodes":"5","size_leaf_vector":"1"}},{"base_weights":[7.904819E-3,4.5024004E-2,-2.0161645E-2,-1.4233681E-2,3.059875E-2],"categories":[],"categories_nodes":[],"categories_segments":[],"categories_sizes":[],"default_left":[0,0,0,0,0],"id":89,"left_children":[1,3,-1,-1,-1],"loss_changes":[1.7320937E-2,2.6071526E-2,0E0,0E0,0E0],"parents":[2147483647,0,0,1,1],"right_children":[2,4,-1,-1,-1],"split_conditions":[1.4438182E0,4.5643154E-1,-2.0161645E-2,-1.4233681E-2,3.059875E-2],"split_indices":[37,88,0,0,0],"split_type":[0,0,0,0,0],"sum_hessian":[4.1272984E0,3.0302992E0,1.0969993E0,1.2189921E0,1.8113072E0],"tree_param":{"num_deleted":"0","num_feature":"100","num_nodes":"5","size_leaf_vector":"1"}},{"base_weights":[4.805438E-3,-3.3938758E-2,2.298059E-2,7.7232537E-3,-2.606043E-2],"categories":[],"categories_nodes":[],"categories_segments":[],"categories_sizes":[],"default_left":[0,0,0,0,0],"id":90,"left_children":[1,3,-1,-1,-1],"loss_changes":[1.6842047E-2,1.4930464E-2,0E0,0E0,0E0],"parents":[2147483647,0,0,1,1],"right_children":[2,4,-1,-1,-1],"split_conditions":[1.1693814E0,6.154962E-1,2.298059E-2,7.7232537E-3,-2.606043E-2],"split_indices":[66,63,0,0,0],"split_type":[0,0,0,0,0],"sum_hessian":[4.119991E0,3.018424E0,1.1015667E0,1.6601063E0,1.3583177E0],"tree_param":{"num_deleted":"0","num_feature":"100","num_nodes":"5","size_leaf_vector":"1"}},{"base_weights":[4.268095E-3,-1.1267191E-2,2.1622192E-2],"categories":[],"categories_nodes":[],"categories_segments":[],"categories_sizes":[],"default_left":[0,0,0],"id":91,"left_children":[1,-1,-1],"loss_changes":[1.7204592E-2,0E0,0E0],"parents":[2147483647,0,0],"right_children":[2,-1,-1],"split_conditions":[1.0740712E0,-1.1267191E-2,2.1622192E-2],"split_indices":[56,0,0],"split_type":[0,0,0],"sum_hessian":[4.1120057E0,2.8191473E0,1.2928581E0],"tree_param":{"num_deleted":"0","num_feature":"100","num_nodes":"3","size_leaf_vector":"1"}},{"base_weights":[5.0247055E-3,-3.4088653E-2,2.067482E-2,-2.6600262E-2,1.7504022E-2],"categories":[],"categories_nodes":[],"categories_segments":[],"categories_sizes":[],"default_left":[0,0,0,0,0],"id":92,"left_children":[1,3,-1,-1,-1],"loss_changes":[1.510807E-2,2.4525713E-2,0E0,0E0,0E0],"parents":[2147483647,0,0,1,1],"right_children":[2,4,-1,-1,-1],"split_conditions":[1.0924203E0,8.6189663E-1,2.067482E-2,-2.6600262E-2,1.7504022E-2],"split_indices":[3,99,0,0,0],"split_type":[0,0,0,0,0],"sum_hessian":[4.105557E0,2.835912E0,1.2696449E0,1.808712E0,1.0271999E0],"tree_param":{"num_deleted":"0","num_feature":"100","num_nodes":"5","size_leaf_vector":"1"}},{"base_weights":[5.7875435E-3,4.161649E-2,-1.9675063E-2,-1.05361855E-2,2.6037859E-2],"categories":[],"categories_nodes":[],"categories_segments":[],"categories_sizes":[],"default_left":[0,0,0,0,0],"id":93,"left_children":[1,3,-1,-1,-1],"loss_changes":[1.5753875E-2,1.692483E-2,0E0,0E0,0E0],"parents":[2147483647,0,0,1,1],"right_children":[2,4,-1,-1,-1],"split_conditions":[1.4438182E0,4.5643154E-1,-1.9675063E-2,-1.05361855E-2,2.6037859E-2],"split_indices":[37,88,0,0,0],"split_type":[0,0,0,0,0],"sum_hessian":[4.0933714E0,3.0028253E0,1.0905461E0,1.1952125E0,1.8076129E0],"tree_param":{"num_deleted":"0","num_feature":"100","num_nodes":"5","size_leaf_vector":"1"}},{"base_weights":[3.2372784E-3,-3.2690875E-2,2.1624604E-2,-3.343593E-2,3.0852418E-2],"categories":[],"categories_nodes":[],"categories_segments":[],"categories_sizes":[],"default_left":[0,0,0,0,0],"id":94,"left_children":[1,3,-1,-1,-1],"loss_changes":[1.4941175E-2,5.449403E-2,0E0,0E0,0E0],"parents":[2147483647,0,0,1,1],"right_children":[2,4,-1,-1,-1],"split_conditions":[1.5260563E0,1.1495787E0,2.1624604E-2,-3.343593E-2,3.0852418E-2],"split_indices":[33,44,0,0,0],"split_type":[0,0,0,0,0],"sum_hessian":[4.087905E0,3.0311716E0,1.0567335E0,2.0294538E0,1.0017179E0],"tree_param":{"num_deleted":"0","num_feature":"100","num_nodes":"5","size_leaf_vector":"1"}},{"base_weights":[6.010064E-3,4.974503E-2,-1.707506E-2,3.0126948E-2,-4.671121E-3],"categories":[],"categories_nodes":[],"categories_segments":[],"categories_sizes":[],"default_left":[0,0,0,0,0],"id":95,"left_children":[1,3,-1,-1,-1],"loss_changes":[1.679734E-2,1.3239871E-2,0E0,0E0,0E0],"parents":[2147483647,0,0,1,1],"right_children":[2,4,-1,-1,-1],"split_conditions":[1.0740712E0,6.154962E-1,-1.707506E-2,3.0126948E-2,-4.671121E-3],"split_indices":[67,63,0,0,0],"split_type":[0,0,0,0,0],"sum_hessian":[4.07466E0,2.527498E0,1.5471617E0,1.1205528E0,1.4069452E0],"tree_param":{"num_deleted":"0","num_feature":"100","num_nodes":"5","size_leaf_vector":"1"}},{"base_weights":[5.8785575E-3,-3.3005193E-2,2.3247391E-2,-1.9738257E-2,8.871317E-3],"categories":[],"categories_nodes":[],"categories_segments":[],"categories_sizes":[],"default_left":[0,0,0,0,0],"id":96,"left_children":[1,3,-1,-1,-1],"loss_changes":[1.6667468E-2,1.0122731E-2,0E0,0E0,0E0],"parents":[2147483647,0,0,1,1],"right_children":[2,4,-1,-1,-1],"split_conditions":[1.1693814E0,1.1495787E0,2.3247391E-2,-1.9738257E-2,8.871317E-3],"split_indices":[66,44,0,0,0],"split_type":[0,0,0,0,0],"sum_hessian":[4.067153E0,2.9853213E0,1.0818318E0,1.9251487E0,1.0601724E0],"tree_param":{"num_deleted":"0","num_feature":"100","num_nodes":"5","size_leaf_vector":"1"}},{"base_weights":[6.563774E-3,-3.0641282E-2,2.2916375E-2,2.9829228E-2,-4.513529E-2],"categories":[],"categories_nodes":[],"categories_segments":[],"categories_sizes":[],"default_left":[0,0,0,0,0],"id":97,"left_children":[1,3,-1,-1,-1],"loss_changes":[1.54927E-2,7.755326E-2,0E0,0E0,0E0],"parents":[2147483647,0,0,1,1],"right_children":[2,4,-1,-1,-1],"split_conditions":[1.4438182E0,4.5643154E-1,2.2916375E-2,2.9829228E-2,-4.513529E-2],"split_indices":[36,88,0,0,0],"split_type":[0,0,0,0,0],"sum_hessian":[4.062754E0,3.016571E0,1.046183E0,1.5278962E0,1.4886748E0],"tree_param":{"num_deleted":"0","num_feature":"100","num_nodes":"5","size_leaf_vector":"1"}},{"base_weights":[6.082961E-3,-9.843763E-3,2.0290641E-2],"categories":[],"categories_nodes":[],"categories_segments":[],"categories_sizes":[],"default_left":[0,0,0],"id":98,"left_children":[1,-1,-1],"loss_changes":[1.4294786E-2,0E0,0E0],"parents":[2147483647,0,0],"right_children":[2,-1,-1],"split_conditions":[1.0740712E0,-9.843763E-3,2.0290641E-2],"split_indices":[56,0,0],"split_type":[0,0,0],"sum_hessian":[4.0438223E0,2.7640903E0,1.2797321E0],"tree_param":{"num_deleted":"0","num_feature":"100","num_nodes":"3","size_leaf_vector":"1"}},{"base_weights":[6.341075E-3,3.965823E-2,-1.7698975E-2,-1.105224E-2,3.9575674E-2],"categories":[],"categories_nodes":[],"categories_segments":[],"categories_sizes":[],"default_left":[0,0,0,0,0],"id":99,"left_children":[1,3,-1,-1,-1],"loss_changes":[1.3307543E-2,3.263157E-2,0E0,0E0,0E0],"parents":[2147483647,0,0,1,1],"right_children":[2,4,-1,-1,-1],"split_conditions":[1.1693814E0,1.0740712E0,-1.7698975E-2,-1.105224E-2,3.9575674E-2],"split_indices":[35,56,0,0,0],"split_type":[0,0,0,0,0],"sum_hessian":[4.038366E0,2.934847E0,1.1035187E0,1.9328718E0,1.0019753E0],"tree_param":{"num_deleted":"0","num_feature":"100","num_nodes":"5","size_leaf_vector":"1"}}]},"name":"gbtree"},"learner_model_param":{"base_score":"4.9375027E-1","boost_from_average":"1","num_class":"0","num_feature":"100","num_target":"1"},"objective":{"name":"binary:logistic","reg_loss_param":{"scale_pos_weight":"1"}}},"version":[2,1,3]}